0.000305
-0.047936
-0.012281
-0.010415
-0.008428
-0.016660
-0.038719
-0.037229
-0.014045
0.005961
-0.039148
-0.052231
-0.031009
-0.021896
-0.024888
-0.010916
-0.013663
-0.018112
-0.030326
-0.037803
-0.072287
-0.108837
-0.127280
-0.119498
-0.099226
-0.072944
-0.042403
-0.044020
-0.030827
-0.058955
-0.043872
-0.025458
-0.041523
-0.050071
-0.022621
-0.004143
0.018475
0.015608
-0.006854
0.021050
0.020423
0.048853
-0.003002
0.003896
0.011540
0.057623
0.044042
0.081604
0.065007
0.073023
0.141139
0.097875
0.135815
0.103691
0.124508
0.044973
0.086726
0.075314
0.081455
0.094171
-0.001269
0.045596
0.056444
0.043366
0.064985
0.028255
0.010987
0.047284
0.047978
0.032735
0.027656
0.014405
0.015769
0.048844
0.013688
-0.103101
-0.103100
-0.079043
-0.128687
-0.057010
0.004661
-0.012702
-0.005484
0.018874
0.038970
0.064220
0.063700
0.049412
0.063075
0.077620
-0.071404
-0.068244
-0.088009
-0.093962
-0.037477
-0.097124
-0.101313
-0.106678
-0.109186
-0.076659
-0.099113
-0.099189
-0.076385
-0.091520
-0.087438
-0.028981
0.009699
0.005257
-0.035658
-0.034711
0.046899
0.046742
0.054596
0.014023
-0.021741
0.069412
0.083909
0.083629
0.066844
0.058347
0.033490
0.041217
0.089070
0.047925
0.035902
-0.005901
-0.025088
-0.016977
-0.013344
0.001505
-0.017816
-0.009498
0.015949
-0.033723
-0.030275
0.064888
0.118311
0.151453
0.126092
0.054896
-0.006636
0.014504
0.000014
-0.014471
-0.012287
-0.070687
-0.104239
-0.085312
-0.101830
-0.084122
-0.023134
-0.012551
-0.040223
-0.029650
-0.040762
0.008879
-0.017951
-0.011694
0.020381
0.001208
-0.009322
-0.020607
-0.030827
-0.016634
-0.010550
-0.003017
-0.024848
0.003419
-0.004574
-0.017670
-0.027541
-0.028515
-0.039001
-0.025884
-0.034213
-0.006293
-0.009201
-0.012981
-0.023637
-0.037790
-0.022348
-0.007841
-0.029934
-0.022876
-0.025015
0.045554
0.077880
0.086576
0.097322
0.080043
-0.003964
0.025730
0.009307
0.028793
-0.006399
-0.006339
-0.022119
-0.023302
-0.023612
-0.014725
0.060720
0.037571
0.029712
0.023903
0.022492
0.038798
0.031794
0.037080
0.021800
0.028323
0.045296
0.011132
0.005568
-0.019341
-0.005484
0.044223
0.034613
0.007259
0.020583
0.015638
0.015930
0.047614
0.023301
0.019054
0.026400
-0.011958
0.023120
0.007882
0.023831
0.008021
-0.022015
-0.015885
-0.018953
-0.016134
0.009492
-0.049478
-0.040585
-0.048844
-0.035107
-0.008514
0.005235
-0.014092
-0.009222
0.009710
-0.008506
0.027589
0.020697
0.024645
0.021339
0.019059
0.032182
0.060103
0.073345
0.043131
-0.009653
0.068352
0.119290
0.140039
0.109076
0.097141
0.084879
0.128756
0.107226
0.061181
0.082123
0.031811
0.069810
0.074306
0.052088
0.041151
0.043832
0.075140
0.090712
0.061377
0.044436
0.060282
0.067580
0.042550
0.043269
0.046661
0.000646
0.002431
0.006640
0.033894
0.037064
-0.082941
-0.116818
-0.120705
-0.092395
-0.063441
0.020701
-0.006255
-0.013449
-0.016685
0.013346
0.028651
0.051061
0.051469
0.076127
0.077116
0.009785
0.046270
0.024448
0.040889
0.025900
0.021968
0.055603
0.039093
0.055660
0.058721
0.037555
0.046670
0.073142
0.024876
0.020664
0.000450
-0.026135
-0.024828
-0.003212
-0.021564
0.020085
-0.012053
-0.013292
0.012259
-0.005614
-0.038512
-0.032611
-0.025373
-0.033058
-0.023807
-0.006302
-0.021479
-0.022352
-0.000855
-0.002524
0.087361
0.075959
0.096905
0.106993
0.077447
0.029124
0.031488
-0.002870
0.004359
-0.008314
-0.042734
-0.061554
-0.054463
-0.067803
-0.037211
0.013403
0.008194
-0.016674
0.007308
-0.017649
-0.031329
-0.026427
-0.029634
-0.027558
-0.001759
-0.042583
-0.009596
-0.043656
-0.039662
-0.022802
-0.005672
-0.022022
-0.013712
-0.039921
0.004190
-0.007331
-0.024542
-0.037392
-0.042858
-0.042113
-0.008598
-0.012447
-0.010662
-0.019960
-0.041913
0.026362
0.023444
0.020846
-0.004896
-0.013140
0.062731
0.060354
0.085183
0.073974
0.073209
0.001106
0.005918
0.023416
0.012013
0.043706
-0.030149
-0.036457
-0.052829
-0.039799
-0.036241