-0.003055
0.040168
0.035018
0.048408
-0.043111
-0.003822
0.026479
0.062083
0.004045
0.038391
0.092213
0.105217
0.112658
0.053108
0.007456
0.090910
0.111586
0.125598
0.051717
0.045736
0.058449
0.062169
0.089099
0.084807
0.076580
0.005510
-0.009711
0.108302
0.110698
0.095072
-0.393458
-0.284050
-0.121154
-0.066273
-0.046052
0.178675
0.309928
0.378524
0.377247
0.198762
0.170818
0.028492
-0.034861
-0.092123
-0.194276
-0.083972
0.012040
0.152232
0.253354
0.278380
0.014713
0.037687
0.073842
0.079049
0.048859
-0.399684
-0.299308
-0.221779
-0.184191
-0.097788
0.149500
0.252843
0.309703
0.291637
0.298589
-0.036189
-0.056748
-0.024579
-0.058992
-0.039116
-0.003247
0.093144
0.125201
0.206015
0.202651
0.038937
0.067388
-0.031008
-0.166586
0.038707
0.031536
-0.020217
-0.042341
-0.027209
-0.002281
0.053740
0.027497
0.079657
-0.014214
-0.015598
0.162877
0.206108
0.117327
0.145774
0.147720
-0.031669
-0.000466
0.089171
0.034482
0.025885
-0.060063
-0.052455
-0.029406
-0.018735
-0.031599
0.056278
0.039839
-0.014047
-0.063981
-0.163777
0.017801
-0.091252
-0.144149
-0.233238
-0.311791
0.056193
0.166167
0.149978
0.201569
0.179806
-0.074942
0.009692
0.070894
0.052165
0.122607
-0.010167
-0.080463
-0.051954
-0.023564
-0.024411
0.186554
0.105848
0.109245
0.198575
0.298570
-0.081280
-0.108594
-0.061682
0.094142
0.271089
-0.058903
-0.197964
-0.170336
-0.093913
-0.033502
-0.047398
-0.097575
-0.137606
-0.123145
-0.075548
0.057861
0.044156
0.005354
0.028343
0.026579
-0.066227
-0.024448
-0.046587
-0.047063
-0.033260
0.055743
0.071087
0.100855
0.150511
0.170771
-0.067529
0.000149
-0.043035
-0.030775
-0.075801
0.022313
0.015411
0.055031
0.068420
0.086671
-0.028507
0.025192
0.055658
-0.043089
-0.028516
-0.029813
-0.079802
-0.077959
-0.039514
-0.033397
-0.099757
-0.097082
-0.164900
-0.124758
-0.093846
0.021016
-0.069715
-0.049174
-0.088705
-0.100797
0.018805
-0.022080
-0.070302
-0.089339
-0.051621