0.020240
-0.043670
-0.058477
0.030166
-0.046755
0.007490
-0.020250
-0.021544
-0.003781
-0.005603
0.010263
-0.034708
-0.003472
0.022979
-0.020254
-0.024959
-0.036573
-0.041576
-0.026517
-0.015704
0.022821
0.050886
-0.016226
0.031337
-0.008066
0.031847
0.042260
0.030025
0.067702
0.017614
0.027086
0.041533
0.017175
0.058603
0.070062
0.000965
0.015628
-0.024024
0.026340
-0.048187
0.000099
0.048852
0.055547
0.034515
0.094928
-0.028643
0.062206
0.037519
0.007550
-0.014676
0.006927
-0.000536
-0.035462
0.048418
-0.007608
0.016637
-0.004034
-0.006605
-0.075117
-0.032553
-0.048582
-0.011890
-0.002146
-0.032163
-0.008909
0.006806
0.062849
-0.001828
0.070618
-0.002419
-0.022051
0.018973
-0.021555
0.053654
0.039086
0.016097
0.038223
0.017720
-0.041066
0.033414
-0.003426
-0.061458
0.017675
0.031177
-0.033837
-0.015154
-0.022590
-0.032308
-0.030774
-0.042274
-0.029308
-0.065277
0.006434
-0.016996
-0.023068
-0.038797
-0.044803
-0.051557
-0.050700
0.052066
0.053873
0.039676
0.004605
-0.052094
-0.042205
-0.016449
-0.018126
-0.066891
-0.029262
-0.006600
0.007001
-0.029924
-0.006191
-0.092137
-0.039973
-0.038779
-0.029703
-0.003134
-0.016245
-0.041661
0.036788
0.050413
0.026512
0.088800
0.091030
0.112584
0.007112
-0.012758
-0.027658
-0.016693
-0.045119
0.001325
-0.049290
-0.000143
-0.008197
0.004652
0.042743
0.046290
-0.045889
0.045939
0.043130
-0.020204
0.015960
-0.053752