0.042160
0.074647
-0.052210
0.010617
0.069593
-0.027286
0.074687
-0.069925
-0.100688
0.043282
-0.136282
-0.098455
-0.091914
-0.172814
-0.011393
-0.227947
-0.230039
-0.096520
-0.171960
-0.033253
-0.081345
-0.012512
0.035356
0.070731
0.076311
-0.012108
-0.004795
-0.002651
-0.017799
0.070704
-0.115357
-0.093750
-0.044138
-0.020603
0.017112
-0.078771
-0.049666
0.021884
-0.019880
0.008542
-0.160002
-0.182105
-0.168973
-0.214672
-0.162533
-0.097362
-0.104758
-0.107789
-0.072278
-0.037033
-0.169748
-0.139165
-0.172789
-0.125556
-0.096809
0.010710
0.029064
0.012474
0.034949
0.053290
-0.005020
0.008314
0.047303
0.047535
0.072721
-0.142712
-0.142646
-0.124518
-0.123392
-0.060334
0.007155
-0.035513
0.004803
0.011244
0.036133
0.000154
0.174093
-0.002719
0.079281
-0.074143
-0.052495
0.097740
-0.055156
-0.110333
0.144904
-0.440291
-0.415565
-0.078505
-0.537756
-0.269807
-0.546749
-0.559156
-0.305498
-0.384183
-0.145250
-0.178296
-0.045423
-0.095345
0.104757
0.105928
0.026255
-0.013094
-0.003959
0.012913
0.008038
-0.006216
0.035060
0.027187
0.012196
0.021830
0.016106
0.014602
0.020904
0.026678
0.005899
0.028312
0.004897
0.018745
0.005659
0.006225
0.032157
0.033225
0.024811
0.026128
0.023812
-0.001181
-0.011461
0.003158
0.009871
0.004151
0.005257
-0.012801
0.000832
-0.001002
-0.004953
-0.023373
-0.010398
-0.013312
-0.025586
-0.013703
0.001768
0.038992
0.022489
0.002693
0.020440
-0.005134
-0.012357
-0.008005
-0.033264
0.018169
-0.037431
-0.041095
-0.058556
-0.020283
-0.064478
-0.070308
-0.074767
-0.020123
-0.020986
0.025837
-0.060731
-0.045972
-0.015134
-0.001380
-0.042814
0.002934
-0.002536
-0.017320
0.012297
-0.039278
-0.021994
-0.015409
-0.004764
-0.035017
-0.024396
-0.018287
-0.021345
-0.023843
-0.009822
-0.035855
-0.015549
-0.016603
-0.036128
-0.033152
-0.047889
-0.033602
-0.048353
-0.016620
-0.041407
-0.038334
0.002327
-0.018455
0.001570
0.004275
0.003281
-0.018420
-0.000958
-0.043290
-0.021527
-0.023161