0.305631
0.164439
0.128159
0.123688
0.236756
0.035732
-0.005767
-0.047610
-0.088122
-0.062069
-0.093468
-0.026512
0.024303
-0.029116
-0.157304
-0.227594
-0.130265
-0.125477
-0.099320
-0.098068
-0.008806
-0.038683
0.005247
0.039106
0.091651
0.020647
0.025107
-0.004581
0.018389
0.000790
0.058010
0.032230
0.017461
0.039606
0.025352
0.139163
0.108531
0.081477
0.069774
0.091236
0.138303
0.058960
0.036049
0.030367
0.087589
0.118706
0.073764
0.021173
0.017009
0.094137
-0.031810
-0.052972
-0.032240
-0.019959
-0.007545
0.031512
0.051371
0.066597
0.056342
0.050517
0.051107
0.089418
0.098457
0.060020
0.052946
0.034923
0.030717
0.075261
0.075550
0.060846
0.031672
0.039865
0.056373
0.050509
0.028296
0.134490
0.085886
0.051606
0.100274
0.137664
0.057937
0.031176
0.043082
0.013183
0.087429
-0.105162
-0.026209
-0.063323
-0.054501
-0.129986
-0.070605
-0.082989
-0.070383
-0.097397
-0.156280
0.172606
0.146928
0.126014
0.149423
0.167995
-0.259189
-0.202421
-0.190125
-0.226924
-0.294423
0.150220
0.164094
0.138681
0.162009
0.113087
-0.083087
-0.082190
-0.054768
-0.118235
-0.132847
0.196005
0.114248
0.139649
0.167587
0.240588
0.129956
0.070995
0.056348
0.077316
0.170677
0.211906
0.161622
0.144153
0.138420
0.141617
0.028587
-0.043930
-0.054837
-0.091538
-0.060450
-0.042277
-0.030199
-0.047470
-0.044615
-0.060055
-0.135859
-0.110741
-0.146296
-0.103867
-0.138689
-0.028902
0.005259
-0.004206
0.042184
0.046155
0.134851
0.088449
0.093985
0.069905
0.104244
0.081908
0.007195
-0.034207
-0.074395
-0.072370
-0.214718
-0.105284
-0.116944
-0.131468
-0.217401
-0.302210
-0.230487
-0.194096
-0.143407
-0.139238
0.090203
0.047313
0.053786
0.097084
0.167744
0.146666
0.079392
0.056662
0.085239
0.148621
0.097121
0.058185
0.080332
0.067652
0.103447
0.043507
0.020861
0.024779
0.052644
0.055047
-0.147692
-0.089394
-0.057366
-0.100818
-0.145993
-0.136123
-0.068072
-0.050850
-0.099289
-0.136776
0.299077
0.208256
0.205010
0.192297
0.280553
0.219062
0.134833
0.091693
0.093347
0.142475
-0.073080
-0.057018
-0.038783
-0.103735
-0.165448
-0.208615
-0.089829
-0.035476
-0.085182
-0.160369
-0.201766
-0.159321
-0.150615
-0.078448
-0.106344
0.218028
0.147088
0.113246
0.103811
0.181613
-0.028481
-0.054999
-0.030751
-0.041707
-0.068020
-0.250268
-0.166190
-0.134184
-0.162935
-0.279530
-0.089512
-0.072217
-0.055255
-0.040446
-0.103761
0.226834
0.192805
0.148448
0.213200
0.271348
-0.052664
-0.030425
-0.002055
-0.016195
-0.045568
-0.034827
-0.003504
0.016634
0.008829
0.019175
0.178254
0.113733
0.105261
0.138017
0.239209
0.022439
0.033017
0.063817
0.027656
0.017557
-0.196979
-0.152780
-0.144075
-0.183187
-0.226825
0.062349
0.074912
0.073863
0.014731
0.012765
-0.113563
-0.114767
-0.104920
-0.124438
-0.149925
-0.110288
-0.061151
-0.059297
-0.042211
-0.125930
-0.020435
0.010594
0.049880
0.046859
0.073520
0.084901
0.078449
0.060306
0.059916
0.070627
0.005817
-0.008330
-0.019086
-0.043038
-0.023365
-0.143568
-0.160488
-0.138516
-0.132247
-0.170419
-0.099924
-0.074393
-0.047121
-0.068922
-0.095453
-0.006577
-0.020137
0.003099
-0.003429
-0.019801
0.139351
0.128955
0.132877
0.116901
0.147510
-0.156374
-0.071987
-0.077221
-0.088094
-0.179356
-0.073817
-0.006832
0.010804
0.033461
0.035708
0.065777
-0.005570
-0.020111
0.017896
0.159324
0.220922
0.075949
0.063640
0.065574
0.166000
0.079556
0.006433
-0.004383
-0.001215
-0.040706
0.228174
0.117144
0.069795
0.133382
0.202053
0.001803
-0.031515
-0.034193
-0.085083
-0.169399
-0.326954
-0.193172
-0.146432
-0.149872
-0.274833
0.078270
0.105532
0.101656
0.174361
0.303161
0.056296
0.033725
0.056283
0.039674
0.130063
-0.046514
-0.064010
-0.037056
-0.034577
-0.043247
0.047224
0.039244
0.041676
0.048169
0.049700
0.147351
0.136059
0.136436
0.181869
0.171992
0.075782
0.046597
0.031326
0.037488
0.009672
0.030659
0.009565
0.007329
0.005825
-0.010216