-0.019861
-0.027675
0.003440
-0.039604
-0.034476
-0.021663
-0.014379
-0.016649
0.003456
0.005836
0.000039
-0.010888
0.000401
-0.026672
-0.026763
-0.046434
-0.057273
-0.046298
-0.090567
-0.093332
-0.024820
-0.017337
0.018828
-0.000641
-0.037300
-0.005952
-0.037074
-0.037363
-0.076787
-0.109948
0.045754
0.075160
0.080649
0.049116
0.002749
0.077168
0.107509
0.107474
0.107385
0.087932
-0.053132
-0.085613
-0.087714
-0.079077
-0.112382
-0.058922
-0.036081
-0.042383
-0.039444
-0.038361
-0.008890
-0.001747
-0.003323
-0.021535
-0.064257
-0.133584
-0.062779
0.004689
-0.033286
-0.060064
-0.210060
-0.127542
-0.095587
-0.082003
-0.086245
-0.160269
-0.126946
-0.091677
-0.072238
-0.000834
0.076906
0.001059
-0.028668
-0.020179
0.010102
0.065743
0.065619
0.076254
0.079730
0.084506
0.138965
0.127481
0.105463
0.068707
0.053197
0.123875
0.073732
0.044185
-0.031208
-0.078331
0.001948
0.026532
-0.033176
-0.069803
-0.154542
-0.083089
-0.057707
-0.073455
-0.043093
-0.080940
-0.052654
-0.060862
-0.084246
-0.071375
-0.067777
0.050404
0.028654
-0.036640
-0.034529
-0.077136
-0.067729
-0.094162
-0.075918
-0.041640
-0.040613
-0.096326
-0.112455
-0.095288
-0.076661
-0.071731
-0.202720
-0.171563
-0.096367
-0.065029
0.020759
0.146618
0.095017
0.083398
0.087441
0.136484
-0.162589
-0.087886
-0.047454
-0.034730
-0.109950
-0.286647
-0.206371
-0.241633
-0.294323
-0.440634
0.004922
-0.014071
-0.035677
0.008533
0.028552
0.187207
0.087283
0.023610
0.040112
0.105332
-0.096946
0.016950
0.073458
-0.001831
-0.118343
-0.088208
-0.007761
0.124507
0.159592
0.257011
0.426633
0.198602
0.136780
0.125955
0.327461
-0.370695
-0.163892
0.018672
0.140289
0.296490
-0.199663
0.024024
0.166104
0.135242
0.032681
-0.046534
-0.053132
0.022198
0.046301
0.103403
-0.030096
0.031300
0.031243
0.025052
-0.094244
-0.445262
-0.334882
-0.346516
-0.400079
-0.533172
-0.042923
-0.015936
0.056233
0.130649
0.014875
0.061056
-0.024201
0.003050
-0.016582
0.041662