-0.063669
-0.060195
-0.093201
-0.066000
-0.075010
-0.069939
-0.061120
-0.065508
-0.069987
-0.097109
0.091262
0.051558
0.047463
0.039450
0.098529
-0.033867
-0.044148
-0.052711
-0.042255
-0.032474
-0.130415
-0.107730
-0.108623
-0.129839
-0.130723
0.013781
0.032042
0.024291
0.009228
0.020140
0.050816
0.050614
0.022613
0.031991
0.042120
0.110122
0.027335
-0.021224
0.012671
0.218327
-0.020222
0.267931
-0.007821
-0.024919
0.026065
0.006841
-0.014243
0.002260
0.013114
0.013172
0.025459
0.029976
0.031504
0.026128
0.053005
0.073690
0.071546
0.088588
0.084533
0.058992
0.073559
0.060812
0.026931
0.034713
0.034678
0.060347
0.066029
0.048060
0.048668
0.041776
0.046747
0.074954
0.072759
0.070764
0.098010
-0.085332
-0.068393
-0.059680
-0.060398
-0.104976
-0.023018
-0.042579
0.011152
0.012211
0.003506
-0.014452
0.027774
0.098826
0.141104
0.085365
-0.095079
-0.043879
0.046874
0.104116
0.129496
-0.073700
-0.026327
-0.004055
-0.003746
-0.042504
-0.020126
-0.001702
0.009448
-0.003968
0.033644
-0.044549
-0.017854
-0.035365
-0.046859
-0.058480
0.037141
0.018250
-0.005699
0.041384
0.033151
0.061437
0.060246
0.018523
0.039574
0.023178
-0.025583
-0.020163
-0.005512
0.018718
-0.010793
-0.088083
-0.081850
-0.061561
-0.096388
-0.127879
0.013874
0.021579
0.003333
0.027630
-0.013988
0.180215
0.108388
0.080163
0.109323
0.154132
0.050600
0.033970
0.039766
0.004534
0.064281
-0.065191
-0.046754
-0.041412
-0.051554
-0.075199
0.137117
0.118977
0.045773
0.114280
0.187019
0.040700
-0.002627
-0.065188
-0.031027
-0.018810
-0.190241
-0.121083
-0.091653
-0.159812
-0.216785
-0.069020
-0.017387
-0.022803
-0.023810
-0.033326
0.153613
0.117459
0.028187
0.141995
0.192501
-0.053456
-0.046863
-0.033975
-0.042100
-0.049589
0.053815
-0.003389
0.060508
0.032661
0.035985
0.027125
0.044396
0.050012
0.060994
-0.004105
-0.016654
-0.088319
0.031889
0.008955
-0.004655
-0.006766
0.000236
-0.011617
0.012257
-0.038957
0.025049
0.009747
-0.025234
-0.000563
0.036174
0.071729
0.040299
-0.015527
0.009825
0.054873
-0.073390
-0.070622
-0.052726
-0.076328
-0.088858
-0.037980
0.018369
-0.029451
0.006381
-0.011020
0.141051
0.101277
0.063984
0.105438
0.117056
0.042708
0.018087
-0.011198
0.007832
0.024926
0.005932
-0.036012
-0.038279
-0.009896
0.000751
-0.033562
-0.035725
-0.056271
-0.089076
-0.074283
-0.066950
-0.051224
-0.088547
-0.077395
-0.109712
-0.043866
-0.027777
-0.077245
-0.023635
-0.026378
0.061269
0.018459
0.007134
-0.006938
0.022055
-0.089559
-0.096152
-0.086267
-0.110827
-0.112671
0.000802
-0.007408
-0.017478
0.028402
-0.008347
-0.062092
-0.085416
-0.083597
-0.051189
-0.076751
-0.015417
0.009642
-0.031649
-0.011908
0.010822
-0.079174
-0.052790
-0.058542
-0.060110
-0.077785
-0.024521
-0.039048
-0.037103
-0.039611
-0.111007
0.117242
0.001206
-0.015542
0.071422
0.082295
-0.032261
-0.026188
-0.061214
-0.016143
0.071258
-0.107877
-0.044742
-0.049009
-0.067514
-0.103566
0.018164
0.021746
-0.016742
-0.005734
-0.006514
-0.039181
-0.043099
-0.030306
-0.052713
-0.027798
-0.096605
-0.071663
-0.090659
-0.083081
-0.071740
-0.118660
-0.100168
-0.119166
-0.103290
-0.088209
-0.024421
-0.009602
-0.032926
-0.027246
0.004341
-0.034084
-0.043968
-0.027080
-0.035300
-0.055719
-0.048413
-0.013183
-0.005120
-0.005250
-0.013107
-0.052706
0.082988
0.131668
0.137352
0.075262
-0.041499
0.013296
0.086212
0.125295
0.083352
0.010299
-0.021688
0.016406
0.015221
-0.021296
-0.091420
-0.050322
-0.031528
-0.037037
-0.034108
0.117244
0.072737
0.053833
0.059354
0.089417
-0.133511
-0.127630
-0.106511
-0.158367
-0.197143
-0.067824
-0.045089
-0.042088
-0.041968
-0.041907
0.112612
0.094365
0.061891
0.094865
0.099274
-0.048688
-0.049305
-0.052004
-0.032653
-0.067975
-0.102721
-0.065410
-0.068394
-0.069729
-0.059561
-0.027113
-0.052158
-0.054216
-0.079892
-0.109032
-0.073262
-0.044818
-0.046227
-0.031383
-0.039028
-0.076364
-0.052638
-0.079424
-0.042728
-0.019471