0.019296
0.041854
0.022157
-0.001470
0.005060
0.013953
-0.031453
0.004996
-0.025497
-0.003205
-0.086602
-0.114668
-0.083677
-0.089219
-0.132264
-0.039105
-0.062953
-0.073685
-0.111912
-0.126929
0.008895
-0.025173
-0.005783
-0.015050
-0.023755
0.016664
0.024639
-0.016851
0.027698
-0.000439
0.052084
0.092729
0.022630
0.015848
-0.014385
0.014611
0.096857
-0.054440
0.058411
-0.026558
0.029593
0.060582
-0.033977
0.120128
0.113830
0.022556
0.029727
-0.081471
0.097905
-0.024234
0.081457
0.100464
0.057455
0.066319
0.070142
0.052266
0.015024
0.039544
0.042376
-0.002552
-0.101052
-0.092609
-0.114890
-0.076662
-0.125871
-0.126825
-0.077598
-0.094995
-0.119478
-0.113117
-0.026615
-0.052305
-0.024414
-0.004467
-0.031890
0.049714
0.013531
0.037266
0.011876
0.043218
0.047887
0.046600
0.015404
-0.004931
-0.022854
0.026816
0.062999
0.018531
0.003394
0.033713
0.029436
0.056622
0.056338
0.048553
0.057478
0.004821
-0.029272
-0.012611
-0.025172
0.029646
0.015255
0.013297
0.031577
0.051376
0.026874
0.035758
-0.007129
0.005117
-0.009759
-0.015254
-0.018374
-0.004883
-0.039663
-0.017118
-0.022471
-0.047715
-0.049709
-0.051370
-0.058345
-0.051438
0.016114
0.056632
0.043691
0.029718
0.052363
0.135322
0.121368
0.088325
0.091354
0.069976
0.055906
0.066075
0.038445
0.038744
0.024398
0.032570
0.025341
-0.002882
-0.031747
-0.047506
-0.035408
-0.069763
-0.061098
-0.050510
-0.073545
-0.004868
-0.043722
-0.042098
-0.052888
-0.071158
0.172616
0.153437
0.101990
0.137666
0.105202
-0.020268
-0.030232
0.005752
-0.044061
-0.054581
-0.059824
-0.058068
-0.053450
-0.055623
-0.079737
-0.015644
-0.011107
0.013280
0.038235
0.032623
0.081097
0.090192
0.087404
0.138217
0.147106
-0.001995
0.016335
0.006636
0.030319
-0.005009
-0.015209
0.024052
-0.024481
-0.033654
-0.020809
0.014787
0.036069
0.014367
0.017518
0.007072
0.011908
0.018392
0.010908
0.048373
0.049233
-0.004953
0.010887
-0.023020
0.025195
0.008189
-0.141014
-0.112684
-0.104095
-0.120512
-0.134930
-0.039400
-0.010079
-0.022299
0.009716
-0.049797
0.113233
0.090121
0.099032
0.073803
0.091604
0.087001
0.101616
0.106142
0.126860
0.096255
-0.008216
-0.054225
-0.007711
-0.006382
-0.002194
0.046735
0.040605
0.055931
0.045954
0.047416
-0.017057
0.002406
-0.023009
-0.024805
-0.000898
-0.032839
-0.074949
-0.086595
-0.080658
-0.035278
-0.108480
-0.102705
-0.100216
-0.074926
-0.108134
-0.074446
-0.035737
-0.064042
-0.061309
-0.023480
0.108528
0.075750
0.064954
0.077569
0.075305
-0.015387
-0.018254
-0.024079
-0.039328
-0.043626
-0.043198
-0.045600
-0.023853
0.005542
-0.003239
0.058208
0.070652
0.051672
0.051725
0.068700
0.103171
0.064357
0.072066
0.078121
0.091182
0.027306
0.076115
0.054234
0.054259
0.076878
-0.057055
-0.021290
0.005772
0.022027
0.037976
-0.079928
-0.030449
-0.050240
-0.038918
-0.009668
-0.117355
-0.055595
-0.020752
-0.073891
-0.099066
-0.088749
-0.072594
-0.058051
-0.056467
-0.020817
-0.036073
-0.011532
-0.024627
0.003365
-0.011199
0.010303
0.041474
0.021769
0.053791
0.021308
0.054794
0.008817
0.053394
0.026515
0.011753
0.003733
0.027177
0.032541
0.030892
0.031691
0.096936
0.062987
0.073172
0.092268
0.080913
0.133630
0.120792
0.092894
0.109002
0.109884
0.005930
0.031911
0.054560
0.091835
0.071093
-0.018849
0.032241
0.051622
0.032155
0.033755
-0.124992
-0.049478
-0.028000
-0.001081
0.009173
-0.080227
-0.058009
-0.062628
-0.039868
-0.045551
-0.181315
-0.151091
-0.166650
-0.143026
-0.194316
0.018443
0.017715
0.068713
0.041924
0.068541
0.114738
0.063195
0.062877
0.110535
0.105521
0.119815
0.095506
0.092826
0.092718
0.107403
0.005390
0.001476
-0.017536
-0.010205
-0.022437
-0.110113
-0.111946
-0.082977
-0.064542
-0.102088
-0.000817
-0.049032
-0.041653
-0.063412
-0.032498
0.087503
0.057606
0.074358
0.055119
0.044048
0.076892
0.068412
0.110456
0.087915
0.061491
-0.018381
-0.012495
-0.008710
0.022567
-0.012610