-0.014516
-0.024896
0.027745
0.084113
0.225491
-0.255850
-0.197088
-0.118045
-0.017736
0.009798
-0.040190
-0.035574
-0.059812
-0.086840
-0.056288
0.073347
0.081662
0.081014
0.112605
0.144449
0.101992
0.044223
0.035460
0.040802
0.084419
-0.008817
-0.070184
0.005297
0.074081
0.372667
-0.107921
-0.117970
-0.045990
0.032806
0.243676
-0.142655
-0.057552
-0.049393
-0.131701
-0.199926
-0.235323
-0.139084
-0.099112
-0.198607
-0.260715
0.102697
0.048194
0.006034
-0.051504
-0.025138
0.253133
0.093572
0.001544
-0.012058
-0.019622
-0.012275
-0.086478
-0.026710
0.015254
0.017677
-0.422846
-0.159996
-0.084322
-0.157666
-0.413630
-0.125125
-0.099638
-0.094987
-0.109389
-0.183306
0.239430
0.014438
-0.087547
-0.018046
0.111664
0.034735
-0.016025
-0.089931
-0.153704
-0.155464
-0.154602
-0.087989
-0.036381
-0.068015
-0.180052
-0.333180
-0.132494
-0.035585
0.017593
-0.029891
0.024132
-0.013064
-0.027679
0.035640
0.119561
0.228219
0.048945
-0.003103
0.014137
0.091987
-0.007897
0.030843
0.015428
0.020207
-0.009229
-0.002455
0.010248
0.012456
-0.010383
-0.001038
0.032849
0.003510
0.003037
0.018759
-0.009756
-0.006709
0.004695
0.014207
0.017026
0.013061
0.029690
0.017369
0.023316
-0.005941
-0.011159
-0.042955
0.017356
0.090534
0.013050
-0.157931
0.151725
0.102518
0.094502
0.082959
0.069924
0.210898
0.167391
0.167351
0.060979
0.022870
-0.038838
0.032192
0.027457
0.024248
-0.012873
-0.281035
-0.134395
-0.082199
-0.206926
-0.342866
0.017797
0.015436
0.013234
0.027687
0.044620
0.138139
0.070651
0.095857
0.061467
0.093616
-0.068935
-0.067964
-0.079154
-0.100900
-0.168676
0.005172
0.008394
-0.024781
-0.045262
-0.072982
-0.075109
-0.065749
-0.024422
-0.011313
0.013560
0.008509
0.034350
0.047625
0.022172
0.023458
0.074115
0.062849
0.073530
0.061960
0.067553
0.005654
-0.004959
0.007490
0.046213
0.016045
-0.051267
-0.027642
-0.031423
0.012486
0.016624
0.006418
-0.005741
0.028030
0.006601
0.007707