0.138860
0.502633
0.144932
0.033476
0.152656
-0.041602
0.143684
0.196402
0.025426
0.109910
0.002721
0.006250
-0.001440
0.221009
0.462205
0.020464
0.108920
1.029976
0.078313
-0.095613
0.243761
0.003084
0.091638
0.346156
0.024602
0.152608
-0.029602
-0.022715
-0.065799
0.142238
0.166130
0.025192
-0.089607
-0.099670
0.197512
0.033843
-0.068058
-0.070587
-0.092658
0.100555
0.046221
0.058397
0.176070
-0.125188
-0.080517
0.185767
-0.096404
0.130448
-0.691608
-0.212150
0.371940
-0.541689
-0.054284
0.381947
-0.064183
-0.333462
-0.153916
-0.268274
-0.952523
-0.026017
0.946878
-0.350231
-0.156142
-0.171996
-0.046353
-0.018701
0.040066
-0.047644
-0.197920
-0.095131
-0.274425
-0.017652
-0.098043
0.007091
-0.149777
0.196883
-0.032391
0.037818
0.255961
-0.140420
-0.123424
0.360547
0.047181
-0.272257
0.162669
0.101647
0.097563
0.342006
0.106666
-0.042827
0.183444
0.407476
0.084665
-0.270348
0.034257
-0.149758
0.295167
0.125724
-0.070952
0.127089
0.062457
0.025973
0.126054
0.035703
-0.067767
-0.259644
-0.051256
0.180690
0.032485
-0.009249
-0.061398
-0.251294
-0.230568
-0.147594
-0.253032
-0.393000
0.564547
0.458780
0.031886
-0.328821
-0.129652
0.638523
1.369976
-0.210370
0.470101
-0.529053
1.018937
0.571254
-0.093069
0.160028
0.049940
-0.106034
0.086333
-0.028020
0.131392
0.146193
0.107333
0.035177
0.201083
-0.190685
0.019552
-0.227565
-0.048384
-0.006340
-0.058894
0.530799
0.033749
0.653009
0.011036
-0.103185
-0.019244
0.204343
0.058263
-0.138485
0.053236
0.254505
0.003483
0.783641
0.522365
-0.168796
0.434920
0.021905
-0.009105
0.050747
-0.028233
0.183314
0.065918
-0.209736
-0.187495
-0.041247
-0.071263
0.086391
0.089659
-0.138072
0.105868
-0.015838
-0.392700
-0.028086
-0.162302
0.836580
-0.182917
-0.235125
0.098495
1.150965
-0.545819
-0.440464
0.783753
-0.182377
0.333264
-0.425605
-0.597675
-0.449252
-0.093464
-0.080014
-0.023514
-0.040131
0.069894
0.038561
-0.039001
0.093784
0.149417
0.007566
0.076832
0.142123
0.095435
0.141934
0.142252
-0.221721
-0.215134
0.109349
-0.014238
-0.296418
0.198269
-0.087853
0.078743
0.204292
0.151077
-0.183987
0.084588
-0.138340
0.080692
-0.141558
-0.040054
-0.187773
-0.048777
-0.069111
-0.008138
-0.223505
0.098932
0.057133
0.099071
0.153435
-0.107391
-0.140950
0.042986
-0.028350
0.005590
-0.088321
-0.125092
-0.057125
0.367919
1.075520
0.887477
-0.577227
0.056355
-0.042569
0.324327
-0.147856
0.195145
-0.586676
-0.288851
1.014886
-0.601264
-0.507832
-0.238937
0.130348
-0.068657
0.319315
-0.050548
0.095663
0.123083
0.015572
-0.004733
0.316855
0.041967
-0.011802
0.044897
0.034729
-0.055112
0.022877
0.005893
0.072797
-0.135592
0.540637
-0.082109
-0.293837
0.016993
0.009155
-0.055644
0.398858
-0.025679
-0.030816
-0.106007
-0.506688
-0.101270
-0.663754
0.109818
0.246620
-0.177299
0.007077
0.022462
-0.255876
-0.038040
-0.025481
0.116801
0.184600
-0.114599
0.073277
0.018892
-0.030826
0.119851
-0.169554
-0.010154
0.159169
1.275678
-0.100105
-0.309067
0.369847
-0.461323
0.152268
-0.172574
0.027663
0.453291
0.266548
0.449588
0.065926
0.505908
1.010160
-0.084201
0.110272
-0.187953
-0.266727
-0.141595
-0.268439
-0.190750
0.262204
-0.135334
-0.283946
-0.118786
-0.047776
-0.232683
0.458755
-0.016313
-0.018167
-0.344220
-0.439819
-0.170934
-0.425899
-0.063789
-0.297610
-0.252554
0.468356
-0.185907
-0.361239
-0.192613
-0.075460
-0.302859
0.532714
-0.034798
0.139840
-0.328465
-0.550671
0.222063
-0.061700
0.141527
-0.181393
0.136946
0.094205
-0.339955
-0.058264
-0.024320
0.274380
-0.196940
-0.114278
-0.034083
-0.135066
-0.234051
-0.081445
0.100179
-0.272849
0.009097
-0.108026
0.529228
-0.020504
-0.464241
0.348417
-0.253291
0.518354
-0.580080
-0.396671
-0.089065
-0.015223
-0.159197
-0.166641
0.231585
-0.097359
-0.135949
0.440001
0.040565
-0.081323
0.126857
-0.026641
0.106635
0.191517
0.358022
0.271152
-0.184802
-0.326193
0.012965
0.247182
0.233125
-0.213688
-0.105262
0.395110
0.009752
-0.150414
0.159399
-0.103948
0.121876
0.174231
0.372002
0.325199
-0.225784
-0.481532
-0.038862
0.225388
-0.013028
-0.136918
-0.036786
0.031829
-0.332790
-0.013522
-0.045957
0.043389
-0.040217
-0.383565
-0.138045
-0.168455
-0.133261
0.027281
0.211689
0.111305
-0.024244
-0.221116
-0.206647
-0.088689
-0.311405
-0.182209
-0.012289
-0.377050
-0.193788
-0.901727
-0.496316
-0.263319
-0.446388
-0.195528
0.569356
0.211236
0.183238
-0.080299
0.004457
0.040321
0.099447
-0.003091
0.001749
0.170311
0.047858
0.000712
0.076451
-0.209596
0.022345
-0.179838
0.003854
0.265607
0.358036
-0.364199
-0.020863
0.144689
0.020240
-0.193322
-0.057275
0.123262
0.093734
0.100253
0.173524
-0.415609
0.065671
-0.489638
-0.200660
0.219096
-0.088160
-0.047446
0.197379
0.390723
-0.158247
-0.005518
-0.249842
0.012990
0.042760
0.049295
-0.055405
-0.135943
-0.133384
-0.072635
0.131322
0.158977
-0.185075
-0.068860
0.759618
0.622661
-0.493707
0.456174
-0.639393
0.170496
0.054664
0.532720
0.295560
-0.108362
-0.511488
-0.432736
0.000880
0.066962
0.032050
-0.256558
0.189471
-0.190806
0.102680
-0.128603
0.090424
-0.268631
0.146937
-0.047788
-0.031931
-0.262299
0.228693
0.254603
-0.099118
-0.050543
-0.225941
-0.724591
0.118223
-0.424109
-0.003670
-0.340646
0.055755
-0.545641
-0.033873
-0.392439
-0.306022
-0.393110
0.180317
0.085846
-0.051232
-0.145417
-0.079177
-0.252322
0.257574
-0.409833
0.019331
-0.106848
0.348087
0.078323
-0.112442
-0.059750
-0.085385
-0.124417
-0.116697
0.102100
-0.323212
0.005875
0.140742
-0.587315
-0.169220
-0.636291
-0.635354
-0.226574
0.013924
-0.280840
0.048686
-0.318495
-0.035007
-0.363541
-0.653816
0.000595
-0.662994
-0.176643
-0.167090
0.171824
-0.093507
0.129687
-0.046616
0.294989
0.016890
0.004926
-0.117715
-0.031799
-0.106327
0.090819
-0.043882
0.299908
-0.038802
0.163325
-0.165438
0.009738
-0.063782
0.375817
-0.161508
0.478770
-0.035070
-0.013979
-0.203344
0.017114
-0.190580
0.140728
-0.015717
0.554659
0.034325
0.158636
-0.028180
0.189507
-0.509957
0.180266
0.072991
0.095102
0.000472
-0.334766
0.080031
-0.063623
0.066637
0.185649
0.092623
-0.044959
0.298775
-0.283852
0.249460
0.285146
-0.598940
0.508981
0.276187
0.099113
0.309125
-0.421001
0.188770
-0.302561
-0.664080
0.401031
0.211026
0.407042
0.412027
-0.600912
0.092346
-0.017632
-0.092297
0.048552
-0.146801
-0.032367
-0.021120
-0.147324
-0.125948
-0.001514
-0.025752
-0.219873
-0.016967
-0.174166
-0.299830
0.238939
0.316925
-0.287752
0.000505
0.112067
-0.124117
0.130218
0.014314
-0.275566
0.064449
0.264451
0.125581
0.182494
-0.080616
0.429807
-0.120432
0.429339
-0.235776
0.102657
0.037458
0.116052
-0.028170
0.016206
-0.063668
-0.023211
0.207665
0.026746
-0.016056
0.137983
0.105657
0.114837
0.050867
0.208752
-0.424423
-0.005749
0.224368
-0.095845
0.414735
-0.438802
0.697322
0.682763
-0.141855
0.085159
0.001073
-0.183232
0.064441
0.746717
0.087526
0.768741
-0.057186
-0.385389
0.066453
-0.110290
-0.106553
-0.170768
-0.059068
-0.245799
-0.192567
-0.187182
-0.228482
-0.263217
0.012099
-0.078024
0.006075
-0.126564
0.071767
-0.524034
0.075446
-0.077497
-0.149487
-0.319664
-0.153968
-0.334224
-0.125139
0.141001
-0.067680
-0.375769
0.070379
-0.133510
-0.072739
-0.089010
-0.172018
0.208475
-0.227351
0.173294
0.252665
-0.230091
0.004499
0.002084
0.282037
0.487147
0.287565
0.142686
-0.069816
0.236401
0.032309
-0.089566
-0.242259
0.325604
-0.513046
0.079357
0.272518
-0.386642
-0.107753
-0.414570
0.474973
0.808312
0.139845
0.223532
-0.200666
0.229022
-0.144890
-0.295792