-0.078805 -0.014159 0.054889 -0.013165 0.045791 -0.048801 0.066531 -0.057164 -0.075111 0.089974 0.007569 0.031862 -0.071281 -0.035669 0.026027 0.025661 -0.018200 -0.034447 -0.075795 0.014812 -0.046770 0.029730 0.065175 0.031369 0.001320 -0.043435 -0.041168 -0.041902 -0.028732 0.018811 -0.018039 0.043028 -0.035510 -0.061938 -0.015429 0.000044 0.020432 -0.093313 0.035820 0.013761 -0.005301 -0.065549 0.035954 0.014461 -0.005838 -0.061708 -0.008439 0.082449 -0.037695 0.081580 -0.035581 -0.072834 -0.051556 0.001160 0.029560 0.048596 -0.007072 -0.055549 -0.041403 -0.069104 0.057584 0.054417 -0.063564 -0.058257 -0.085828 -0.018130 -0.012037 0.023797 -0.092186 -0.021107 -0.036114 -0.078215 0.043385 -0.053445 -0.018033 0.082369 -0.086835 -0.053658 0.091267 -0.052967 -0.063906 -0.045494 0.052847 0.054787 -0.062666 -0.001362 0.077181 0.036175 0.014959 -0.081051 0.054175 -0.075747 -0.068227 -0.050612 0.044921 0.071379 -0.050757 -0.036929 -0.015104 -0.086830 0.070473 0.041632 -0.041587 -0.037207 -0.092620 -0.086667 0.000211 0.041134 0.012112 -0.062183 0.007621 -0.086584 -0.022956 0.017457 0.068853 0.051922 0.055638 -0.041794 0.083746 0.023926 0.014394 -0.005237 -0.009505 -0.030535 -0.004039 -0.080428 -0.052277 -0.000813
-0.053600 0.017695 0.067805 0.035449 -0.124780 0.064992 0.055146 0.076148 -0.003238 -0.019095 -0.040938 -0.047931 0.071067 0.067254 -0.083690 0.047311 -0.034889 -0.244925 -0.029406 -0.070742 -0.179177 -0.057883 -0.047927 -0.162965 0.028675 -0.013461 -0.431186 -0.049204 0.054335 0.061884 0.019631 0.007000 0.177155 -0.093952 -0.065985 0.010140 -0.039973 -0.018235 0.048463 0.004835 0.029564 -0.021172 0.116839 -0.158884 -0.045176 -0.078249 0.043789 0.008754 0.157219 0.047785 0.222803 -0.120354 0.070126 -0.008767 -0.013939 0.049584 0.035348 0.157457 0.002489 0.021020 0.048449 0.050962 0.061853 -0.065896 0.008776 0.117160 0.250252 0.039407 0.224922 0.041745 -0.057516 -0.008862 -0.112989 -0.023131 0.063296 0.061284 -0.060947 0.122033 -0.039707 -0.018779 0.099177 0.015675 0.066611 0.025237 -0.034295 -0.092647 0.073348 0.050201 -0.083117 0.036396 0.219531 0.005522 0.004331 0.047007 -0.003475 0.029750 0.081700 0.048696 -0.287712 0.012561 0.036442 0.021386 -0.017908 0.240588 -0.067816 0.037912 -0.060045 0.042162 -0.005685 -0.206254 0.056774 0.084849 0.008923 -0.143797 -0.039618 -0.205011 0.259161 0.060161 0.067848 -0.055812 -0.053812 0.288198 0.304656 -0.144808 0.181147 -0.023963 -0.056510 -0.031148
0.059800 0.003280 0.070659 -0.015809 0.272452 0.051055 0.038207 0.083673 -0.432820 0.056636 -0.006131 -0.057835 0.091206 -0.024368 -0.005288 0.254564 0.177595 -0.965835 0.269515 0.275936 -0.023503 -0.047892 -0.038751 -0.094098 0.043038 -0.073430 -0.186232 -0.003004 0.066926 0.023779 -0.086711 0.093302 0.388051 0.099852 -0.094376 0.289551 -0.045370 -0.065869 0.436724 -0.123089 -0.151592 0.086346 0.092238 0.044529 0.057240 -0.065146 0.102139 0.001298 -0.331843 -0.054030 -0.437601 -0.018671 -0.060397 -0.048964 -0.063023 0.023099 -0.327041 -0.037584 0.069276 -0.068663 0.102019 0.038684 -0.077209 -0.060484 -0.059876 0.032121 -0.245654 -0.024041 -0.218012 0.069243 0.312402 0.075918 0.097370 -0.047929 -0.046244 0.036950 -0.051172 0.014099 0.007084 -0.090710 -0.799096 0.041074 0.088090 0.112179 0.150456 0.305532 0.038178 0.074833 -0.008090 0.070339 -0.606944 -0.066815 0.131299 -0.120618 -0.060469 0.018828 -0.076288 -0.019805 0.034767 0.027966 0.041460 0.017110 -0.087855 -0.690623 0.080511 -0.077493 -0.047116 0.080337 0.004447 0.024430 0.387761 0.007613 0.099159 0.010281 -0.036847 -0.071677 -0.880281 -0.059322 0.083875 0.004441 0.036705 0.072776 -1.054747 -1.034462 0.112976 -0.726027 0.036369 -0.078143
0.141201 0.090321 -0.014317 0.036513 0.065283 -0.052012 0.146179 0.076066 0.005270 -0.072033 0.002469 0.038448 -0.005855 0.014887 0.018553 -0.132850 -0.251521 0.150624 0.321540 0.102320 0.012279 -0.120204 0.008666 -0.036043 -0.073473 0.059274 0.027104 0.001805 0.073111 -0.026059 0.052499 0.007415 0.240072 -0.107862 -0.072255 0.116439 0.000245 0.098703 0.071284 0.078225 0.005662 -0.067341 -0.069901 0.164117 0.084139 -0.083750 -0.107194 0.074878 0.187670 -0.014668 0.437664 -0.090320 0.043948 -0.030532 -0.035655 -0.065959 0.117804 0.025815 -0.008712 0.040201 -0.031685 0.017795 -0.032549 0.068253 0.390571 -0.029100 0.439239 0.022874 0.223719 0.017980 -0.218178 0.070189 -0.029314 0.023913 0.009227 0.030052 -0.025484 -0.013986 0.054507 -0.059832 0.557815 -0.021482 0.021706 0.037569 0.057623 -0.055572 0.032942 0.002687 0.034216 0.028627 0.193054 -0.052479 0.167383 0.116888 -0.061616 0.061909 -0.059240 0.066617 0.145842 -0.163152 0.081317 -0.088790 0.028032 0.312874 -0.010491 -0.085993 0.081202 0.130194 -0.065445 -0.030492 0.173955 0.111644 -0.001736 0.044635 -0.044227 -0.029060 0.188061 0.039004 0.047874 0.041673 0.045879 0.212324 0.398304 0.147650 0.061031 0.102034 -0.064964 0.041831
-0.119482 0.067718 -0.052132 -0.029747 0.080778 0.024680 -0.116306 0.077375 0.126507 0.039929 -0.010077 -0.008936 0.052215 -0.050465 -0.093546 0.005042 0.120133 0.130687 0.088666 -0.066899 -0.079809 -0.059067 -0.057219 -0.087562 -0.061250 0.067106 0.094392 0.080766 0.008890 0.035272 -0.059191 0.085212 -0.128311 -0.090723 -0.126617 0.007403 0.075374 0.106876 -0.131964 0.009494 0.117525 -0.112636 -0.126222 0.156563 -0.049893 0.042674 0.040638 0.053284 0.188421 0.063550 0.149265 -0.009562 0.071837 0.014568 -0.066022 0.069653 0.185468 -0.053466 0.064871 0.032469 0.003799 -0.001085 -0.011583 0.054212 0.123196 -0.138418 0.091279 -0.014187 0.068432 0.060281 0.032100 -0.109070 -0.120644 0.011251 -0.048550 -0.051559 0.003292 -0.017329 -0.018961 -0.061818 0.417849 0.055786 0.003732 -0.133185 0.100542 0.074841 -0.002870 0.019861 0.064453 -0.068963 0.152363 -0.075118 -0.345145 0.089131 0.025792 -0.021828 0.068714 0.020539 -0.061758 -0.044480 -0.063807 -0.024683 0.066526 0.448804 0.074580 0.075977 -0.075507 0.102859 -0.056330 -0.069263 -0.223807 -0.183210 0.013863 0.102354 -0.008291 -0.109927 0.395328 0.008990 -0.000798 0.080995 -0.041938 -0.222489 0.302775 0.119145 -0.102867 0.195472 -0.091843 0.032846
-0.183491 0.030636 -0.033383 0.068945 -0.072213 -0.049772 -0.120494 0.147445 0.141257 0.045517 -0.045645 -0.039878 0.055536 0.001513 0.079616 0.136558 -0.239502 0.122594 -0.394230 -0.027188 -0.055938 -0.114162 0.026257 0.042256 0.054240 -0.031825 -0.006788 -0.039922 -0.060989 0.049870 -0.004168 -0.025051 -0.120321 0.022791 -0.265165 0.071207 -0.067948 0.190012 -0.255527 0.128897 0.139997 0.046041 0.041177 0.001045 0.018665 0.027089 0.188882 0.043364 0.070848 0.021487 -0.203811 0.046736 0.063517 0.021220 -0.000684 0.037505 0.132769 -0.005834 0.021078 0.026673 0.104048 -0.008441 -0.000241 -0.074295 -0.059215 0.100248 -0.176948 0.081026 -0.095794 -0.084354 -0.165816 -0.025018 -0.049579 -0.051588 -0.009577 0.072368 -0.036870 -0.075151 -0.061430 0.035950 -0.323414 -0.027596 -0.006093 0.005741 0.187430 -0.006643 0.080525 0.075598 -0.070498 0.056337 -0.086235 0.031601 -0.113233 0.183818 -0.001380 -0.078377 0.046698 0.054386 0.031347 0.145128 -0.017349 0.044622 0.013267 0.038952 0.089815 -0.041370 0.035649 0.315742 0.076066 0.061231 -0.014044 -0.038381 -0.032185 0.033413 -0.044479 -0.032331 -0.051639 -0.074541 0.031262 0.040208 -0.001483 -0.391649 -0.326983 0.019938 -0.031915 -0.026153 0.186560 -0.082673
0.018559 0.052655 -0.060410 0.074371 0.082530 -0.079222 -0.038571 0.071111 0.033344 0.060889 -0.036225 0.022711 0.048084 0.027548 -0.050776 -0.166957 0.140935 0.197750 0.342414 0.218090 0.071443 -0.011161 -0.028049 -0.044591 -0.058005 -0.068838 0.076188 -0.091719 -0.004596 -0.079082 -0.069927 0.029429 0.142036 -0.236826 -0.171570 0.050721 0.057510 -0.001415 0.446569 -0.117898 0.023145 0.160710 0.197942 0.106266 -0.010875 -0.028289 0.035057 -0.024760 0.045111 0.056908 0.205424 -0.261524 -0.093348 -0.008080 0.035884 -0.063119 -0.179952 0.174019 0.024910 -0.029258 0.122684 -0.018269 -0.010178 -0.038332 0.231827 -0.069846 0.402248 0.068659 0.184044 0.002070 0.134280 0.023284 0.015890 0.052523 -0.053998 0.052578 -0.074362 -0.079218 0.045728 -0.046754 0.542786 0.012239 -0.015365 0.137912 0.090047 0.078663 -0.052474 0.052894 -0.022589 0.010690 0.246489 -0.024261 0.086583 -0.093709 0.046166 0.028777 0.011801 -0.026958 0.042862 0.000510 -0.018282 -0.055867 0.023658 0.268723 -0.149959 -0.024202 -0.060623 0.160486 -0.062547 -0.097979 0.247530 0.113215 0.103962 -0.011526 0.009169 -0.189459 0.096796 0.022152 -0.089474 -0.058758 -0.050462 0.352339 0.281264 0.138504 0.012967 0.221747 -0.076625 -0.083434
-0.283990 -0.012450 0.054509 0.056408 0.230075 -0.037410 -0.239492 0.078191 0.215818 -0.053159 -0.022398 0.049961 -0.082483 -0.072403 0.107487 0.075384 0.149627 -0.015094 0.367009 0.126726 -0.129217 -0.107145 -0.016958 0.024910 0.027668 -0.058840 -0.164256 0.035263 0.005956 -0.052663 -0.067681 -0.045995 -0.168076 -0.355549 -0.137473 0.028509 0.048371 0.078111 0.480053 0.087825 0.094973 0.109620 0.134045 -0.094887 0.023709 -0.083788 0.027307 0.020571 -0.164026 0.032018 0.224629 -0.264316 0.049228 -0.000265 0.060804 0.050070 0.035635 0.179564 -0.183988 -0.018130 -0.029624 -0.036898 0.048006 -0.042476 -0.002749 0.001996 0.250665 -0.049606 0.075735 0.054110 0.303735 -0.216863 -0.191863 0.000707 -0.018441 -0.082161 -0.052842 -0.155914 -0.080329 -0.053547 0.432714 -0.010067 0.023758 -0.320598 0.064118 -0.076983 -0.013869 0.084562 -0.008423 -0.002271 0.289348 0.051530 0.053473 -0.050021 0.010013 0.019137 0.061894 0.013415 -0.267011 0.175151 -0.083728 0.000116 -0.050621 0.466139 0.119760 0.003605 0.085339 0.107462 -0.022570 -0.275959 0.257335 -0.225396 -0.188696 0.098440 0.129899 -0.342923 0.074374 -0.060240 0.032230 -0.057997 -0.033224 0.522266 0.082472 0.150592 -0.000954 0.186064 -0.011264 0.081576
0.030948 0.077639 0.089763 -0.013510 -0.067898 0.054296 -0.071022 0.017927 0.032152 0.061053 0.050388 0.058838 -0.038014 -0.031063 -0.055465 -0.044886 0.030936 -0.080083 -0.099782 -0.075765 -0.055526 -0.044040 -0.008157 0.032578 0.035061 0.039422 -0.019263 0.038507 -0.040194 -0.018478 0.003860 -0.039477 -0.043830 -0.040838 0.021210 -0.029383 -0.033529 -0.014221 -0.024705 -0.034481 0.024658 0.071667 0.020738 0.024504 0.068744 0.060948 0.020878 -0.028947 0.030591 0.011318 -0.116427 -0.067675 -0.045767 0.054812 -0.040112 -0.051837 -0.026251 -0.005663 -0.076672 0.067346 0.052145 0.047409 0.011408 0.002599 -0.043418 -0.069007 0.001672 0.013645 0.050461 -0.012614 -0.046506 0.025836 -0.049194 0.008428 0.030376 -0.090490 0.013880 -0.064065 -0.078358 0.064551 -0.062629 0.036328 0.024465 -0.133454 -0.100114 -0.035905 -0.063552 0.038794 -0.007009 -0.023666 -0.022658 -0.083719 -0.000841 -0.065176 0.063718 -0.026438 0.001222 0.049411 0.003399 -0.026542 -0.001960 0.027888 -0.060364 0.009260 -0.014545 0.061114 0.062957 -0.013595 -0.062000 -0.035465 -0.099401 -0.043756 -0.064405 0.007108 0.028024 0.003190 0.104443 0.031838 0.079620 -0.010511 0.018936 -0.024109 -0.001060 -0.014916 -0.151525 0.015631 -0.135892 -0.016261
-0.046537 -0.011873 0.022271 0.017894 0.019036 -0.047036 -0.009901 -0.107163 -0.060646 -0.058902 -0.091966 -0.000741 -0.017513 -0.007089 0.061571 0.043596 -0.122315 -0.004213 -0.085204 -0.024425 -0.033996 -0.055796 -0.017453 -0.083469 -0.062844 0.065338 0.028592 -0.089339 0.017817 -0.029298 0.002294 -0.093545 0.010211 -0.141906 0.010378 -0.003842 -0.082553 0.019753 0.033398 -0.021981 -0.063033 -0.021183 -0.096876 0.008219 -0.091629 0.038899 -0.048824 -0.015392 -0.091403 -0.029341 -0.031390 -0.128279 -0.034013 0.073515 0.034896 -0.078278 0.028775 -0.011644 -0.122926 -0.065021 -0.125124 -0.092284 0.013651 0.008228 -0.014101 0.008090 -0.143114 -0.026724 -0.076349 -0.014851 -0.006095 -0.051622 0.049035 -0.063045 -0.010335 0.068035 0.057323 -0.101740 -0.019423 -0.077795 -0.006017 0.030116 0.076810 -0.125963 -0.128267 -0.035381 0.064801 0.049665 0.024479 -0.086047 -0.086631 -0.060161 -0.088040 -0.080132 0.051786 -0.088122 0.029935 -0.079037 -0.137030 -0.113053 0.033033 0.015922 0.031201 -0.108536 -0.010258 -0.056191 0.026676 0.025450 0.072661 -0.155431 0.021218 -0.027552 -0.068803 0.000709 -0.049357 -0.013583 0.027458 -0.059361 0.034877 -0.083163 0.014123 -0.080011 -0.008081 0.039900 -0.060307 -0.089404 -0.015605 0.054498
0.068412 -0.039369 0.010309 0.008408 0.026922 0.044994 0.038900 0.077667 -0.021898 -0.016804 -0.022203 0.054357 0.035650 0.076889 0.017434 -0.060994 -0.196458 0.082622 -0.146236 0.017620 0.083605 0.020200 0.080617 0.074299 0.055463 0.049629 0.053990 -0.030214 -0.070733 0.036508 0.082934 0.015468 -0.184718 0.045861 -0.203394 -0.027941 0.039952 -0.107187 -0.203054 -0.069701 0.048254 0.047425 -0.046439 0.024512 -0.018174 -0.079076 -0.177983 -0.041333 -0.104428 0.051145 -0.171959 -0.016193 -0.005759 0.019525 -0.074237 0.020599 -0.079677 -0.009856 0.070308 0.074583 0.115936 0.051128 -0.018542 -0.059173 -0.160294 -0.091768 -0.043371 0.036947 0.092319 0.043414 -0.308466 0.032420 -0.046837 0.041551 -0.032798 0.028548 -0.018568 0.092217 0.049182 0.014110 -0.148621 -0.081789 -0.039909 0.030867 0.196860 -0.183402 0.001911 0.042750 0.077356 -0.077348 -0.027715 -0.028684 0.238483 0.089758 -0.083861 -0.061533 0.042689 -0.076957 -0.042339 0.093857 -0.074544 0.029684 0.012194 -0.438799 -0.170047 0.008348 0.055964 0.213258 0.053709 -0.014188 0.078296 -0.094349 0.089816 -0.086941 0.017613 0.090976 0.127912 0.077695 0.023178 -0.074912 -0.076551 -0.129737 -0.012950 0.074362 0.086457 0.203238 0.001403 -0.069479
0.029614 0.079221 0.002294 -0.037415 -0.088813 0.044709 -0.023894 -0.067307 -0.022736 -0.021455 -0.008565 0.054773 -0.017647 -0.091916 0.058259 -0.043418 -0.092662 -0.049811 -0.015008 -0.071242 -0.007431 0.032757 0.014529 -0.023186 0.042988 0.013533 -0.056475 -0.065949 0.080988 -0.094193 0.021668 0.059069 0.007915 -0.046389 0.060743 -0.062726 -0.042926 -0.076199 -0.002746 -0.057382 0.045087 0.042570 -0.041434 -0.084604 0.064180 0.018499 -0.090821 0.043790 0.063804 0.002087 -0.046297 -0.040518 -0.088712 0.069357 0.007693 0.064185 -0.032056 0.009355 -0.082735 0.057716 0.018813 -0.027621 -0.026274 0.072580 -0.030446 -0.068450 0.063029 0.035539 -0.021052 0.016921 -0.036912 0.036981 0.044529 -0.001993 -0.051875 0.074787 0.053696 0.027076 0.041538 0.084661 0.073051 -0.085854 0.075811 0.074275 0.059003 0.069082 0.028869 -0.052663 -0.078639 -0.045191 -0.015479 -0.041631 -0.012025 0.026741 0.005293 -0.066004 0.049212 -0.023151 -0.074787 0.073688 -0.003209 0.065038 0.081702 -0.003333 0.043644 0.074681 -0.021363 -0.063305 0.080459 -0.102720 -0.079888 0.011197 -0.072214 0.012062 0.020915 -0.078948 -0.013457 -0.067546 0.081112 0.023133 0.055919 -0.015262 0.009232 -0.095706 -0.015107 0.008578 -0.084451 0.050208
0.022783 0.055249 -0.073628 0.028813 -0.083144 0.065127 0.058856 0.080407 0.048451 0.030433 -0.061031 -0.023961 -0.043620 0.033388 -0.021662 0.079655 -0.024450 0.062061 -0.296043 0.069529 0.003672 -0.070972 -0.074478 0.085082 -0.035741 0.036615 -0.023955 0.039106 0.070468 0.010007 0.058565 0.068692 -0.118019 0.085180 0.034131 0.030001 0.038029 0.048826 0.024958 0.007348 0.114869 0.103045 0.087903 0.019512 0.088136 -0.075490 -0.048229 -0.091760 -0.057282 0.062079 -0.296887 0.112274 -0.003994 -0.015149 -0.009590 0.043349 -0.057785 -0.024824 0.114727 0.020957 0.086019 -0.002814 -0.055362 -0.018465 -0.251324 -0.062499 -0.035802 -0.043419 0.014564 -0.045194 -0.225281 0.039163 0.045482 -0.023270 -0.059444 0.006306 0.095371 0.051236 0.077553 -0.035656 -0.230725 -0.038289 0.003445 -0.080905 0.045472 -0.027550 0.076667 0.059620 -0.067356 -0.024039 -0.030726 -0.037937 0.090655 -0.010506 -0.080601 0.035167 -0.073091 -0.024703 0.028130 0.034055 -0.062939 -0.029518 0.083405 -0.478037 -0.007446 0.048382 -0.076951 0.113185 0.017178 0.046051 0.074629 -0.230860 0.037354 0.005921 0.069306 0.127953 -0.001656 0.043262 -0.012009 0.021749 -0.028754 -0.160758 -0.194993 0.099982 -0.007673 0.000424 -0.020143 0.085157
-0.050753 0.070674 0.034148 -0.007037 0.140068 0.004849 -0.030159 0.153023 0.046845 -0.021754 -0.021403 -0.075422 0.000460 -0.011421 -0.015624 -0.071389 0.278625 0.103479 0.368416 0.110448 -0.107104 -0.092990 -0.036582 0.039387 -0.059559 -0.024442 0.111867 -0.025232 -0.034946 0.026216 -0.066071 -0.040102 0.147310 -0.106801 0.020827 0.043665 -0.083722 -0.021835 0.257308 0.013559 0.048699 0.023994 0.025284 0.042209 -0.063164 0.046621 -0.024552 0.004710 0.048446 -0.032267 0.260315 -0.051533 -0.077413 -0.038614 0.050830 -0.089252 -0.038760 0.020402 0.105616 0.044017 0.064094 0.021167 0.061165 -0.055171 0.124569 -0.125883 0.256575 0.007122 -0.084299 -0.009138 0.259711 0.068453 0.030410 0.005411 0.004332 0.002344 0.047522 0.020400 -0.024143 -0.049227 0.791340 -0.075008 -0.046239 0.043465 0.093360 0.041740 0.071033 0.004221 0.042369 -0.061340 0.068170 0.005742 -0.085868 -0.104134 0.058667 0.020503 -0.040061 0.014134 0.124237 -0.016681 0.052104 -0.069061 -0.076127 0.217264 0.019910 -0.030907 0.011743 0.183653 0.027835 -0.123200 0.073418 0.036902 0.136523 0.011963 -0.073011 -0.020358 0.026219 0.059468 0.051037 -0.060881 -0.000341 0.291364 0.311542 -0.049176 -0.078362 0.051328 -0.039377 -0.000247
0.084982 0.058655 0.063073 0.067297 -0.029770 0.012140 0.120535 0.116464 0.032730 0.031149 0.087027 -0.072332 -0.013592 0.037802 -0.056675 0.156503 -0.400260 0.104033 -0.164994 -0.141903 0.010414 -0.097868 -0.036611 -0.176796 0.010181 -0.074943 -0.113487 0.072661 -0.068721 0.014023 0.011563 -0.042799 -0.000240 0.010689 -0.082764 -0.298146 -0.067158 -0.062769 -0.350624 0.027623 0.135788 -0.031604 -0.114659 0.027773 -0.045796 -0.048663 0.186373 -0.028150 -0.203472 -0.086701 -0.028069 -0.054911 0.040179 -0.095390 -0.064076 -0.035898 -0.027622 -0.016933 0.086274 -0.005191 0.038919 0.014832 -0.075077 -0.044539 0.328480 0.170666 0.209783 -0.065336 0.304242 -0.065605 -0.361734 0.018705 0.055344 0.040463 -0.042478 -0.069167 -0.041157 0.017173 0.109146 -0.007149 -0.377429 -0.026136 -0.082809 0.098593 0.084986 0.055655 -0.082373 -0.000448 0.057585 -0.055436 0.026031 -0.056171 0.117366 0.193801 -0.036201 -0.041030 0.035558 0.070657 -0.062585 0.103941 -0.014067 0.012406 0.061721 0.148661 0.046615 -0.033426 0.085731 -0.053977 0.053628 -0.016134 0.033661 0.029941 0.019639 -0.026834 -0.015646 -0.104928 0.225198 -0.048699 -0.045416 -0.063364 -0.021925 -0.100330 0.293002 -0.065886 0.004704 0.145149 0.150822 -0.020631
0.066268 0.076928 -0.041066 -0.069031 -0.040472 0.081953 0.109094 0.074533 -0.135083 -0.049840 -0.070820 -0.021357 0.067797 -0.017857 -0.011346 -0.160618 0.022970 -0.005695 0.076271 0.132120 -0.054804 0.036374 -0.048289 0.160369 -0.025909 0.085942 -0.030694 -0.044680 -0.080333 -0.000573 -0.031398 0.072265 -0.070063 0.074018 0.023715 -0.102577 -0.025292 -0.078172 -0.103369 -0.161643 -0.189634 0.188692 -0.038637 0.038128 0.002906 0.072298 -0.116688 -0.053747 -0.110828 -0.039136 -0.156492 0.084608 0.079494 0.026740 -0.046059 0.040338 -0.108366 -0.165244 0.081162 0.062395 0.008560 0.027847 -0.044253 0.042760 -0.250674 -0.196755 -0.251307 -0.078671 -0.106848 -0.071052 -0.150828 0.099808 -0.002022 -0.014064 0.034311 -0.062553 0.007514 0.043675 0.057643 -0.082249 -0.136979 0.013731 -0.002939 -0.018746 0.049763 -0.287739 0.014479 -0.036332 0.040218 0.003636 -0.155741 0.002797 0.188970 -0.009369 -0.049115 -0.029003 -0.086146 0.021263 -0.015628 0.141548 -0.023034 -0.079356 0.022459 -0.511293 -0.045685 -0.005064 0.023619 0.043986 0.007134 0.119176 0.106696 -0.138697 0.038333 0.015413 -0.001520 0.123361 -0.142661 -0.023755 -0.046403 0.050455 -0.020154 -0.198603 -0.177960 -0.057097 0.035278 -0.010159 -0.000599 -0.036572
0.009419 0.064089 -0.050571 -0.087627 -0.029573 0.018871 -0.107514 0.003760 -0.062767 -0.048750 0.017074 0.048068 -0.025410 -0.019900 -0.001800 0.004347 -0.021955 -0.135583 0.061102 0.045418 -0.082805 -0.084417 -0.022126 -0.028972 -0.069858 -0.050401 -0.016001 0.026610 -0.080520 0.034331 -0.075771 -0.038354 0.011035 -0.074304 -0.030799 -0.059855 0.067566 0.001819 -0.014181 -0.018211 -0.017836 0.045562 -0.094005 0.031358 -0.077400 0.025653 0.021677 0.005587 -0.074302 0.042807 0.039544 0.032801 -0.046757 0.018805 -0.076488 0.032827 -0.049881 0.025512 -0.146099 -0.074533 -0.028509 -0.039832 0.057390 0.007614 -0.064834 0.016835 -0.045812 -0.076538 -0.012061 -0.038137 -0.069777 -0.060832 -0.075004 -0.006236 -0.049724 0.071093 -0.042996 -0.012058 -0.056318 0.086019 -0.088448 -0.037815 0.003883 -0.053900 -0.153868 -0.099268 0.031386 -0.080755 -0.009752 0.004747 -0.039276 0.030961 -0.044695 -0.049924 0.080122 0.093122 -0.046031 0.041162 -0.025918 0.034791 -0.038449 -0.066346 0.003544 -0.029792 -0.111228 0.016537 -0.092593 0.061152 0.018299 -0.047725 -0.031259 -0.054545 -0.087225 0.085405 0.008891 0.007579 -0.088438 -0.066368 0.043297 0.032880 0.028194 -0.073874 0.026516 -0.088234 -0.123602 -0.000864 -0.078466 -0.006086
0.042331 0.044938 -0.063769 -0.043997 -0.036474 0.070038 -0.009141 -0.069315 0.050280 0.024081 0.045055 -0.002867 0.062641 0.009876 -0.045517 0.030669 0.064900 -0.005807 -0.073806 0.062230 0.042451 -0.009126 0.044549 -0.003856 -0.066854 -0.001674 0.005870 -0.054718 -0.054993 0.038849 -0.010812 0.058768 0.073108 -0.055322 0.006388 0.040475 -0.078495 -0.024725 -0.055498 -0.076843 0.001550 0.022565 -0.013496 -0.040501 -0.061020 0.068436 -0.012972 0.066249 0.037416 -0.045455 -0.087101 -0.116089 -0.019504 -0.063599 0.063022 -0.060137 -0.044693 -0.016679 -0.011936 0.044409 -0.128549 -0.066688 -0.018785 -0.008878 -0.068465 -0.102978 0.029327 0.032024 0.034036 -0.073396 0.063664 0.030750 -0.157442 0.065204 -0.088787 -0.062538 -0.052709 -0.020427 0.080642 -0.036903 -0.108680 0.047955 -0.064711 -0.070384 -0.068376 -0.083007 -0.043183 -0.065136 0.042363 0.055906 0.023560 0.084742 -0.041368 0.050804 -0.069370 0.002218 0.061886 0.057059 -0.085832 -0.042209 -0.068144 -0.069636 0.003217 0.051865 0.034645 -0.079362 -0.058481 -0.091399 0.065282 -0.108309 0.052897 -0.020016 -0.115957 -0.037134 -0.088576 -0.125281 0.024669 0.057027 -0.083846 0.037956 -0.047893 0.028889 -0.025421 0.033293 -0.102561 0.023807 0.029471 -0.040918
-0.086736 -0.002396 -0.055676 -0.058379 0.063998 0.074606 0.003434 0.063566 0.072013 -0.025182 0.082274 0.033286 -0.071247 0.029123 0.049003 -0.003823 0.067238 -0.015675 0.127154 0.119595 -0.045714 0.077567 0.012420 -0.123096 0.053373 -0.033602 -0.022794 -0.012265 0.007087 -0.014845 -0.092244 -0.034927 0.070735 -0.131269 -0.044356 -0.079202 0.072277 -0.102968 0.045566 0.060944 -0.079190 -0.082419 0.095773 0.035828 0.000048 -0.011087 -0.003515 -0.063611 -0.044593 -0.041100 0.013911 -0.097693 0.070883 -0.007925 -0.025893 -0.020428 0.056182 0.178822 -0.037512 -0.041996 -0.070727 -0.075795 0.024668 -0.063376 0.067671 -0.061206 0.207369 -0.080850 0.007692 0.035818 -0.102511 0.137782 -0.002412 -0.023906 0.040017 0.065385 0.011655 0.193298 -0.056729 0.049498 0.462639 -0.037852 0.069587 0.139737 0.050682 -0.061921 0.089849 0.064226 0.043961 -0.022278 0.060248 -0.028217 0.031342 -0.080904 -0.010983 -0.064011 0.035089 0.032465 0.128824 -0.134158 -0.022788 -0.010094 -0.088272 0.252980 -0.239977 -0.056283 0.076402 0.010434 -0.036192 0.001573 0.124386 0.089947 -0.040489 -0.033619 0.047932 -0.113035 0.047974 0.020893 -0.076620 0.044751 -0.009132 0.354662 0.123217 0.117930 0.204106 0.091574 -0.139626 0.011357
-0.113096 -0.027632 -0.005240 0.007600 -0.102662 -0.006711 -0.010442 -0.096123 -0.000296 0.030305 -0.084407 0.023417 -0.060250 -0.018437 0.058861 -0.082174 -0.064706 -0.086826 -0.051819 0.111425 -0.043964 -0.105788 -0.025117 -0.022996 0.021835 0.087802 -0.000273 -0.043621 -0.002255 -0.022100 -0.052894 -0.084132 -0.009439 -0.006904 -0.004619 -0.092562 -0.068643 -0.036786 0.002430 0.046853 -0.038227 -0.142423 -0.071159 -0.023977 -0.026937 -0.046900 -0.060594 0.082368 0.006333 0.040005 -0.116127 -0.093472 0.067221 -0.033255 0.013689 -0.007666 -0.006452 -0.042098 -0.008878 0.065380 -0.053253 -0.083303 0.082169 -0.070348 -0.004456 -0.090317 -0.110176 -0.080083 -0.037131 -0.070324 0.003768 -0.101260 -0.012949 -0.002003 -0.063354 -0.030723 0.031687 -0.032431 0.047893 0.034851 0.001576 0.077420 -0.012694 -0.063433 -0.028175 -0.110592 -0.043882 -0.044733 -0.034683 -0.066440 0.033587 -0.018355 0.058722 -0.035904 0.040935 0.024500 -0.075242 0.046374 -0.102832 0.055156 -0.055839 0.070647 0.038619 -0.037172 0.025257 -0.039442 0.036757 -0.066350 -0.079265 -0.053520 -0.019595 0.086498 -0.058692 0.019011 0.076711 -0.011311 -0.000222 0.010867 0.000529 -0.064853 -0.084809 0.076798 -0.086668 -0.013405 -0.121236 -0.122139 -0.091730 -0.003492
0.052064 0.070955 -0.039733 -0.054460 -0.052708 0.075575 -0.048439 0.187433 0.136310 0.035569 0.059530 0.075678 0.080971 -0.016048 -0.027071 -0.104190 -0.121908 -0.087008 -0.254510 -0.290504 -0.018088 -0.116842 0.067466 0.038387 -0.018641 -0.026785 0.057603 0.034692 0.007145 0.040158 -0.038560 -0.014401 -0.232274 -0.053046 0.076687 -0.196425 -0.022140 -0.193299 -0.029905 0.093260 0.066897 -0.024494 0.017772 0.136941 0.035332 -0.087648 -0.012178 -0.091881 -0.172304 -0.020125 -0.320754 -0.087721 0.035926 0.059066 -0.002982 0.032756 0.193246 -0.187088 0.108570 -0.074129 0.078759 0.078084 0.028056 0.023497 -0.080952 0.117756 -0.142664 -0.085632 -0.135502 0.036755 0.054912 0.007772 -0.069470 -0.086080 0.042839 0.037829 0.011785 0.048822 -0.064736 -0.027168 0.432018 -0.020728 0.072294 -0.261975 0.229196 -0.011853 -0.070411 -0.063903 0.013903 -0.057177 0.197390 -0.052094 -0.096759 0.140563 -0.079281 -0.009061 -0.088435 0.072897 -0.046588 -0.121580 0.019567 -0.014592 0.076170 -0.431538 0.094042 0.035595 0.051004 0.359935 -0.042061 0.028993 -0.128719 -0.105859 0.145312 -0.014603 -0.061820 0.026744 -0.078550 -0.052093 -0.092339 0.051150 -0.029720 -0.211720 -0.118531 0.066483 -0.299417 0.037366 0.146877 -0.043734
0.035877 -0.058006 0.063668 0.002586 0.060669 0.007035 -0.022913 0.033837 0.100236 0.057431 -0.024097 0.020342 -0.029027 0.069617 0.055316 -0.047627 -0.132932 0.092908 -0.168775 0.052812 0.003110 0.059994 -0.061214 0.021770 0.063377 -0.014014 0.232068 -0.050596 0.038038 0.003205 -0.005418 0.020538 0.001779 -0.118244 -0.014940 0.056722 0.032568 0.206028 -0.003250 0.082387 0.140612 0.083013 0.075636 -0.012496 0.055224 0.019876 -0.055299 0.054454 0.169450 -0.045232 -0.131433 -0.037478 0.076546 0.040883 -0.010625 -0.028118 0.122048 -0.045230 0.103521 0.000744 0.132998 -0.028226 0.057580 0.061164 0.019426 0.067498 0.046485 0.027329 0.173955 -0.052912 -0.037389 -0.005167 -0.015752 -0.039126 -0.014971 0.067139 -0.070756 -0.096065 0.040343 -0.015293 -0.456340 -0.074467 -0.069095 -0.086322 0.186426 0.025593 0.010710 -0.039046 0.068231 0.074722 -0.127416 -0.030742 0.140264 0.141221 -0.016474 -0.018342 -0.032009 -0.019727 -0.153504 -0.068450 0.018052 -0.008881 -0.088970 -0.158519 0.109684 -0.008393 -0.074356 0.288548 0.041340 0.028990 0.088642 -0.085372 0.009858 -0.007871 -0.020786 0.043526 0.029954 -0.044983 0.074398 -0.016705 -0.021609 -0.275527 -0.207533 -0.008958 -0.234642 0.071878 0.098052 0.066993
0.035010 -0.082183 0.092004 -0.002146 0.231512 0.047645 -0.112740 -0.060575 -0.084960 -0.024966 0.019492 -0.077047 -0.082063 0.034349 -0.064144 0.107867 0.272737 -0.363592 0.063876 0.179723 0.052238 -0.027118 0.063533 0.108550 0.069119 0.003191 0.064813 -0.072922 0.074078 0.076268 -0.042055 -0.009371 0.237751 0.059176 0.029971 0.119440 0.029289 0.143813 0.194138 -0.211847 -0.106438 0.169523 0.104293 -0.107027 0.006219 0.070244 0.000592 0.021391 0.003589 0.036587 -0.132583 0.002801 0.076757 -0.019642 -0.080396 -0.019788 -0.120432 0.089686 -0.068125 0.034732 0.069909 0.016910 0.001584 -0.085236 -0.039485 -0.012431 -0.413970 -0.093863 0.152099 0.035131 -0.011054 -0.070067 -0.048346 -0.014208 0.080754 0.065358 0.003025 0.006130 -0.067167 0.055493 -0.251173 0.012283 0.014296 0.039086 0.040550 -0.184574 0.070668 0.080211 0.025453 0.026196 -0.423337 0.003517 0.206431 0.029391 0.035194 0.052981 -0.086897 0.041626 0.011474 -0.157507 0.067280 -0.093117 -0.059158 -0.005446 0.017837 0.046370 -0.092872 0.051291 0.038753 -0.010784 0.298129 -0.044540 0.001992 -0.004630 0.078030 0.045842 -0.593963 0.038553 0.040476 -0.037408 -0.060811 0.129919 -0.381973 -0.324968 0.002275 -0.462526 -0.032094 -0.044816
-0.021246 -0.003398 -0.046956 0.002409 -0.000401 0.069350 0.008677 0.083668 0.150582 -0.011886 0.067296 0.036704 0.016167 -0.019762 0.150669 0.338312 -0.045130 -0.189417 -0.175395 -0.003364 0.045422 0.062855 -0.047334 0.032752 -0.076227 0.010202 -0.002577 -0.048467 -0.044355 0.032853 0.056444 0.082216 -0.057246 0.035155 0.015848 0.111695 0.043497 0.268551 -0.048393 0.041613 -0.033945 0.075011 -0.002030 0.049068 0.056252 0.086864 0.106530 0.055317 0.095369 -0.000841 -0.372281 0.026720 0.029380 -0.016531 0.081100 0.004593 0.125313 -0.032796 0.085512 -0.027024 0.114528 -0.018015 -0.018016 0.071657 -0.090552 0.175109 -0.275020 -0.059845 -0.179671 -0.034774 0.130905 -0.102192 -0.032710 0.016243 -0.032851 -0.057958 0.079965 0.120878 0.029735 0.019787 -0.407668 -0.051800 -0.023094 -0.067231 0.085155 -0.009886 0.039877 -0.030243 0.059382 0.034829 -0.167207 -0.064594 -0.007495 0.186324 0.011294 0.001520 0.092022 0.082211 -0.018140 0.120355 -0.047798 -0.051038 0.089268 0.050496 0.161679 -0.032337 -0.046810 0.155099 0.024457 -0.037688 -0.005882 0.119831 0.034096 0.080716 0.119037 0.010732 -0.244978 -0.029174 0.077993 -0.058174 0.090506 -0.236719 -0.381767 -0.190477 0.056351 -0.107362 0.240792 -0.080002
0.117490 -0.043170 0.002915 -0.017275 -0.167218 0.070509 -0.042809 0.001005 -0.118594 0.087493 0.063148 -0.093298 -0.027947 0.026634 0.039091 -0.615628 -0.042196 0.158454 0.089696 -0.247746 -0.133253 0.051796 0.049642 0.076188 -0.030854 0.053383 0.075183 0.091000 0.072470 0.043882 0.036401 0.061557 -0.361875 0.043396 -0.023159 -0.103675 0.038590 -0.028965 -0.271279 -0.039981 -0.146399 -0.015749 0.080016 -0.085751 0.032104 0.039699 -0.379383 0.087195 0.030304 -0.048606 0.247125 0.002310 0.048457 -0.009676 0.080274 0.036574 -0.009787 -0.126311 -0.003531 -0.080345 0.041764 -0.015365 -0.049744 -0.049342 0.094118 -0.328997 0.354886 0.030909 0.083717 0.016757 -0.124348 -0.020448 -0.030317 0.021763 0.053702 -0.036758 -0.051905 0.025267 -0.110552 0.068201 0.342309 -0.053702 -0.010909 -0.117158 0.095922 -0.214445 -0.009232 -0.052735 0.064594 -0.047018 0.033607 -0.047542 0.009446 -0.057707 0.038608 -0.062575 -0.030702 -0.060107 -0.049331 0.015913 -0.061481 -0.065092 0.008794 -0.313592 -0.398312 0.057784 0.020365 0.090789 0.078508 -0.040377 -0.158499 -0.058741 0.172827 0.014436 -0.059393 0.079114 0.120687 0.047882 0.061565 -0.082014 0.010649 0.033502 0.108503 0.046881 -0.100039 0.037719 -0.191756 -0.038336
-0.043748 0.068670 0.024578 -0.013807 0.148852 0.077199 0.048082 0.064750 0.110708 0.041344 -0.010328 0.059434 0.086506 0.060177 -0.006622 0.297007 0.157239 0.013536 0.145015 0.136478 -0.000176 -0.014878 0.014878 -0.130949 0.038777 0.079569 0.075659 0.072078 0.043041 0.008753 0.015602 -0.082517 0.239099 -0.094331 0.012971 0.104620 -0.073526 0.135744 0.170076 0.177730 0.191492 -0.060209 0.086050 0.004743 -0.019268 -0.062060 0.277451 0.019638 0.011546 0.042895 0.074299 0.006734 -0.023749 -0.055313 0.027009 -0.069508 0.014061 0.385084 -0.023740 -0.089914 0.087139 0.077714 0.062355 -0.003596 0.059571 0.341912 -0.036045 0.010945 -0.047908 0.026565 0.108778 0.008109 0.028590 -0.046948 0.090515 0.066123 -0.019150 0.066785 0.040386 0.047442 0.113299 0.093201 0.078964 -0.060251 0.044072 0.181146 0.079627 0.035975 -0.041622 0.045127 0.142582 -0.028089 0.057429 0.186950 0.041417 -0.027696 0.036064 -0.020105 -0.047788 -0.010992 0.030867 0.062539 0.017853 0.343123 0.275030 0.040324 -0.066746 0.034227 0.034386 -0.000882 -0.048939 -0.095353 -0.003009 0.001915 0.040873 -0.002438 -0.026299 -0.037477 -0.007730 0.004634 0.000568 -0.083225 0.079582 -0.032227 0.066079 -0.194813 0.177515 -0.047502
-0.002628 0.050242 0.022004 -0.023867 0.061443 -0.023293 0.000240 0.108531 -0.126049 0.077585 -0.038300 -0.029094 -0.083806 -0.025899 -0.031023 -0.826610 0.002030 -0.076859 0.021572 -0.076796 -0.031698 -0.001803 0.063854 -0.072314 -0.057137 -0.013470 -0.114855 0.012825 0.059898 -0.040153 -0.028063 0.067481 -0.478954 0.033914 -0.079479 -0.160349 -0.012737 -0.736015 -0.170139 -0.147080 -0.545479 -0.012807 0.081892 0.110355 0.073921 -0.071992 -0.468234 -0.093919 -0.553243 0.044930 -0.024315 0.002564 -0.023316 -0.010481 -0.062146 0.082237 -0.255333 -0.735486 0.098876 -0.062765 0.101888 0.051056 0.033184 0.052168 -0.419412 -0.436324 -0.195527 -0.017045 -0.597475 0.032182 -0.125092 0.001623 0.042590 0.021007 -0.053995 -0.069959 0.007577 -0.085695 0.011333 -0.042260 -0.169149 0.007707 -0.033418 0.069583 0.131629 -0.245158 0.002170 -0.007130 0.007338 -0.098092 -0.003335 -0.027333 0.086595 -0.802782 -0.021529 0.026257 0.059345 0.022418 0.074167 0.114740 0.023003 -0.050367 -0.062074 -0.109113 -0.488275 0.069565 0.073286 0.177137 -0.022808 0.089643 0.049972 -0.106170 0.091893 0.022519 -0.079685 -0.036374 -0.110093 -0.036614 -0.080884 0.000212 0.050636 0.050088 -0.500075 0.032329 0.041933 -0.072053 -0.407599 -0.037286
-0.091124 -0.048305 0.004485 -0.064956 -0.129077 0.032590 0.082962 0.097752 0.170100 0.038073 -0.070655 0.070421 0.009535 -0.080329 0.059409 0.198632 -0.118554 0.069637 -0.260273 -0.285834 -0.064555 -0.078976 0.079555 -0.235940 -0.033458 -0.040461 0.019410 0.039225 0.009549 -0.062493 -0.031957 0.081348 -0.033003 -0.095805 -0.026191 -0.158131 0.017750 0.106995 -0.112862 -0.004500 -0.051133 -0.177857 -0.205535 0.080986 -0.044130 -0.008983 0.169975 0.028348 0.109069 0.067884 -0.229169 0.118434 -0.073462 -0.031709 -0.017882 0.037478 0.242390 0.046947 0.068128 0.015064 -0.040871 -0.014404 0.063648 0.003207 -0.336069 0.159173 -0.116098 -0.019740 -0.120108 -0.010105 -0.085990 0.040204 -0.134197 0.006775 -0.033459 0.084646 0.063340 0.023462 0.068626 -0.019811 -0.094313 -0.082353 -0.053515 0.070231 0.060908 -0.055919 -0.080264 -0.045208 -0.081393 0.039329 0.090692 -0.076251 -0.363232 -0.010364 0.000428 -0.050635 0.050733 -0.047362 -0.194684 0.205764 0.046346 -0.086105 -0.061720 0.285281 0.173270 -0.048444 0.062694 0.080289 0.006872 0.078559 -0.041281 -0.033899 0.039045 0.056542 -0.003510 -0.115686 -0.013937 -0.014168 -0.053265 -0.048424 0.017307 -0.425724 -0.125489 0.105535 0.243073 0.000494 0.130668 -0.003079
-0.065212 -0.053732 0.038603 -0.062444 -0.095353 -0.012453 0.029252 0.015833 -0.121181 0.009638 -0.000464 0.019236 -0.054178 0.058338 0.048373 -0.135319 -0.068737 -0.093486 -0.128732 -0.090476 0.026600 0.108466 0.040887 0.181269 -0.015170 -0.074238 0.029222 0.055496 -0.058934 -0.061036 0.068273 -0.064576 -0.123095 0.086236 0.075933 -0.096911 -0.032117 -0.111391 -0.260654 -0.041274 -0.023955 -0.001563 0.098963 0.008995 0.099123 0.031959 -0.093088 0.040865 -0.043044 -0.045693 -0.154088 0.118501 0.059382 0.006559 0.032205 -0.018518 -0.091845 -0.069045 0.103621 -0.016574 0.067069 -0.055864 -0.024952 0.014953 -0.221265 -0.064409 -0.300245 0.067515 -0.003726 0.039249 -0.202043 -0.024418 -0.065406 -0.028614 -0.005107 -0.093837 -0.046339 0.115277 -0.038855 0.049659 -0.366313 0.079000 0.078234 0.003888 0.056855 -0.119760 -0.031396 -0.045355 -0.026828 0.022050 0.027639 0.050915 0.033680 -0.146370 0.083033 0.019958 -0.018326 -0.057264 -0.001168 0.008803 0.014404 -0.061420 0.075235 -0.242564 -0.133854 -0.000024 0.043233 -0.049937 -0.030778 0.125551 0.061146 -0.116444 0.077027 -0.030674 -0.049383 0.161806 -0.110263 0.029434 0.063643 0.094346 -0.045714 0.023721 -0.222607 0.051767 -0.158932 0.042586 -0.102978 0.000061
-0.123883 -0.062801 0.044373 0.042462 0.039722 -0.078110 -0.018387 0.139945 -0.083187 0.013367 0.019950 0.037164 0.008193 -0.042048 -0.034035 0.114423 0.081918 -0.001711 -0.057796 -0.203770 -0.059813 -0.084377 -0.069151 -0.249763 -0.007936 0.075025 0.247110 0.037735 -0.053130 -0.093274 -0.101683 -0.048376 0.208274 -0.050753 0.005997 -0.375006 -0.013106 0.196247 -0.081565 0.230461 0.080626 0.057960 0.035997 0.007436 0.113299 0.043133 -0.053481 -0.073272 0.023118 -0.076071 -0.114312 -0.152849 -0.071598 -0.083579 0.018371 -0.004180 0.202876 0.225378 -0.054608 -0.070323 0.111896 -0.065025 0.076859 0.063485 -0.053146 0.108428 -0.160013 0.052584 -0.224896 0.061536 0.216073 -0.006483 0.008683 -0.056039 0.039510 -0.010903 -0.060872 -0.065701 -0.016830 -0.037193 -0.009377 0.038533 0.064528 -0.031567 0.126407 0.241677 0.016029 0.002075 0.005926 -0.013598 -0.120173 0.057349 0.010437 0.175677 -0.034959 0.082471 -0.063977 -0.032931 -0.093429 -0.042516 0.049147 -0.018815 0.028823 0.429680 -0.051627 0.028232 0.074361 0.084765 0.010669 -0.032163 -0.636524 0.019063 0.060293 0.107107 0.045031 -0.057584 -0.167123 -0.049505 -0.089307 0.001699 -0.042527 -0.210759 -0.191346 0.021086 -0.371745 -0.261658 0.241655 -0.084819
-0.213793 0.079110 -0.001911 -0.025320 0.296696 0.069442 -0.169304 0.061364 0.221812 0.079296 0.068206 -0.077978 0.049383 -0.015247 0.079208 0.195291 0.170476 0.117716 0.127648 0.075274 -0.080740 0.019631 0.085327 -0.187364 0.049984 0.042285 0.066818 -0.054087 0.052950 -0.040261 0.015237 -0.069112 0.024879 -0.188208 -0.098446 0.161512 -0.087045 0.206630 0.066714 0.142941 0.052071 -0.094518 -0.023567 0.090792 -0.032031 -0.038617 0.171205 0.051958 0.130961 0.074028 0.184256 -0.170082 -0.023459 -0.044034 -0.039800 -0.017959 0.135050 0.150873 0.001979 0.023684 0.000373 0.048262 -0.044598 -0.052792 0.080101 0.139471 0.124447 -0.040758 -0.104351 0.013601 0.213537 -0.033523 -0.103253 0.093428 -0.061401 0.060255 -0.018808 -0.032389 -0.017015 0.086602 -0.174545 0.082588 0.035299 -0.074319 0.079999 0.418809 -0.065255 -0.006518 0.090976 0.016105 0.260975 0.006353 -0.435997 0.164974 -0.039646 0.084741 0.051544 -0.040039 0.004270 0.111781 -0.062065 -0.027944 -0.003559 0.622234 0.251001 0.004871 -0.049771 0.074187 0.015566 -0.138318 -0.104529 0.031972 -0.033642 0.088590 -0.001094 -0.074290 -0.009342 0.033624 -0.080744 0.027664 0.101947 -0.058133 0.085591 0.065360 -0.096033 -0.032865 0.196616 -0.065165
-0.049496 0.079357 0.078044 0.049201 -0.192665 0.039685 -0.043764 -0.003878 -0.258172 -0.007246 0.038003 0.023294 0.008578 -0.079677 0.034667 -0.662643 -0.274139 0.172463 -0.230799 -0.107844 -0.024466 -0.000351 -0.034642 0.082199 -0.010280 -0.037317 0.134422 -0.021517 -0.041636 0.019871 0.059087 0.067653 -0.483806 0.110523 -0.095750 -0.137570 -0.004463 0.010127 -0.354934 0.026764 -0.027100 0.001453 0.051739 -0.045758 0.014213 0.021901 -0.356672 -0.000521 -0.011253 -0.075177 0.103354 -0.018479 0.044433 0.036977 -0.055869 0.034202 0.247798 -0.134360 0.072460 0.013546 0.111275 0.074197 0.042360 0.064369 0.131515 -0.430899 0.272991 -0.024370 -0.040183 -0.016549 -0.211351 0.044857 0.087741 0.038323 0.042423 0.045166 0.056445 -0.038085 0.046840 -0.054938 0.157491 0.036482 0.008183 -0.134643 0.056824 -0.349027 0.090911 0.093016 -0.080598 -0.021405 0.237076 -0.074225 0.071078 0.025516 -0.022309 0.076018 0.016682 -0.009061 -0.131043 -0.127797 0.036892 -0.002193 0.016347 -0.280421 -0.353394 0.066383 -0.065220 0.093489 -0.016003 -0.006540 -0.194829 -0.091582 0.008502 -0.054002 0.089899 -0.009125 0.283880 0.033804 0.002512 -0.001852 0.021029 -0.048904 0.239857 0.070408 -0.017481 0.118320 -0.151044 0.003542
-0.010214 -0.070306 0.021230 0.028780 -0.088169 0.049408 0.060155 -0.034137 -0.009101 0.046462 -0.002207 -0.074838 -0.017984 0.059553 0.041332 -0.015841 0.071231 -0.083238 -0.042301 -0.009036 0.066459 0.029287 0.003120 -0.014205 -0.018735 0.078954 0.021353 -0.091703 -0.014661 0.030616 0.052353 -0.026275 0.064321 -0.092319 0.092554 -0.045060 -0.022271 -0.081742 -0.074522 -0.025143 -0.005079 -0.022846 -0.026928 -0.005334 -0.025374 0.043062 -0.000513 -0.065227 0.030658 0.033075 -0.080810 -0.070951 -0.075891 -0.002328 -0.076540 -0.007201 -0.057707 0.027293 -0.080251 -0.071740 -0.030283 -0.037742 -0.018863 0.049717 0.020413 -0.059998 -0.089542 0.012455 -0.068769 -0.021838 0.068628 -0.090800 0.023752 -0.021434 -0.041512 0.067560 0.061866 0.017521 -0.025214 -0.006425 0.113460 0.064420 -0.045962 -0.037851 -0.060266 -0.066791 0.069395 -0.087250 -0.004926 -0.018849 -0.033017 -0.077494 0.023152 -0.052135 -0.069287 -0.061432 -0.041597 -0.079793 0.045878 -0.031772 -0.021838 0.030404 0.030898 -0.058615 0.074114 -0.010386 -0.069904 -0.069808 0.037096 -0.101776 -0.020856 0.007680 0.060181 0.054712 0.052906 -0.091747 0.021595 0.020029 -0.013731 0.075546 -0.041384 0.019511 -0.080435 -0.033406 0.100465 -0.081905 0.062525 0.076227
-0.128402 -0.035278 0.011097 0.013459 -0.003670 -0.075813 0.026192 -0.040619 -0.033679 -0.044899 0.045591 0.084815 0.079152 -0.027941 -0.037988 -0.097200 -0.108909 0.010820 -0.018567 -0.023737 0.006631 -0.000847 -0.072907 -0.119823 0.022530 -0.066207 0.042555 0.055145 -0.026716 -0.030543 -0.082217 0.086810 -0.057612 -0.047428 0.015638 -0.045647 -0.074318 -0.003986 -0.079353 0.027855 0.021915 -0.058571 -0.017946 -0.034169 0.041309 0.021669 0.028249 -0.048301 -0.017137 -0.016545 -0.092455 -0.052557 -0.030970 -0.079545 -0.075213 -0.003663 0.029341 -0.010958 -0.027180 0.067165 0.041716 0.081623 0.012229 -0.007358 -0.036092 -0.031036 0.017619 0.077225 -0.049568 0.087739 0.048036 -0.094594 -0.046498 -0.087984 -0.002027 0.046636 0.005848 0.007403 -0.064573 -0.040546 -0.022690 0.077763 0.052335 -0.046615 0.020255 -0.072435 -0.048342 0.022618 0.022339 0.061664 -0.090158 0.062975 -0.048421 0.046014 -0.007905 0.080547 0.002909 -0.046541 -0.040673 -0.096403 0.019899 -0.027683 -0.079299 -0.004905 -0.070950 0.067834 -0.042238 0.016607 -0.064787 -0.034787 0.085932 0.064092 -0.117729 -0.002780 0.011144 -0.022613 0.010374 0.024921 -0.070802 -0.046400 -0.043794 -0.085518 -0.026230 0.049691 -0.036003 0.050067 -0.123742 -0.057759
-0.085386 0.014990 -0.060399 -0.071734 0.188315 -0.076208 0.047906 0.144035 0.018654 0.014151 -0.053035 -0.069325 -0.077118 -0.078846 0.060995 0.141312 0.072606 -0.305098 -0.003184 0.047879 -0.023513 -0.069911 0.023649 -0.028384 0.037536 0.013349 0.062646 -0.002011 0.057396 0.082337 0.081011 0.023528 0.149964 -0.030148 0.024266 0.078951 -0.033576 -0.099507 0.457716 -0.015746 0.048121 0.100331 0.039046 -0.019058 0.085426 0.070044 0.156576 0.089153 -0.205259 0.072501 -0.314282 -0.108005 -0.038519 0.093357 -0.000983 -0.004203 -0.055003 0.010402 0.084672 -0.058544 0.083850 -0.050171 0.026428 -0.026099 -0.237418 0.100861 -0.201841 -0.014577 -0.305875 -0.019674 0.349162 -0.115137 0.047359 0.015415 -0.036125 -0.040718 0.010615 -0.032956 0.004159 0.019744 0.113324 -0.062134 -0.001651 0.090092 0.161244 0.242001 -0.040345 -0.045271 0.008630 0.011145 -0.074604 -0.079830 0.077156 0.047222 0.010514 0.073212 -0.018343 0.021438 -0.141727 0.062094 0.000375 0.022377 0.063743 -0.626128 0.067864 0.023663 -0.017330 0.169229 -0.030144 0.036806 0.194665 0.066004 0.110148 0.056819 -0.055033 0.024988 -0.244181 -0.019485 -0.065267 0.031499 -0.050420 -0.174391 -0.124743 -0.170946 -0.111884 -0.230277 0.018817 -0.047838
-0.083125 -0.088736 -0.022116 -0.067758 0.201954 -0.076976 0.057099 0.072124 0.211698 -0.036984 -0.016613 -0.009503 -0.048799 -0.081066 0.020887 -0.048316 -0.114641 -0.036988 0.341896 0.334862 0.076782 -0.073565 0.091943 -0.110203 0.072163 0.022854 -0.046344 -0.049009 -0.031627 0.066670 -0.104874 0.076953 -0.100400 -0.307425 -0.122235 0.193121 -0.073293 -0.086499 0.163202 0.187924 -0.055628 -0.237865 0.039377 0.124805 -0.044007 0.085770 -0.051794 0.035585 0.030441 -0.046485 0.257417 -0.400140 0.028338 0.008246 0.044248 -0.040751 0.128313 -0.181868 0.137057 -0.055570 0.186295 0.015145 -0.056746 0.088083 0.256023 -0.010199 0.352227 -0.094091 -0.200317 -0.059686 0.436742 -0.025166 0.076634 -0.001061 0.012597 0.094380 -0.019810 -0.154806 -0.065419 0.021557 0.406734 -0.015884 -0.066611 0.178596 0.204742 0.350567 -0.021567 0.038604 0.026616 0.015578 0.070620 -0.003080 0.081071 0.050543 -0.008980 -0.048616 -0.027622 0.053277 0.132050 0.017272 0.044393 0.053585 0.049007 0.514363 -0.089250 0.025453 0.014975 0.233520 0.068055 -0.105518 0.139093 0.153521 0.141773 0.090637 -0.033270 -0.038233 -0.155129 0.083648 0.061314 0.047616 -0.105840 0.347353 0.261053 -0.357349 -0.170613 -0.309597 -0.083362 0.032882
-0.039724 -0.052488 -0.034894 0.005263 0.058906 -0.063558 0.002626 0.072817 -0.444681 -0.084896 0.053349 0.002015 -0.081345 -0.047130 -0.031835 -0.641590 0.121674 0.229120 -0.002756 -0.012905 -0.058344 -0.049828 0.061444 -0.015264 0.021521 -0.054247 -0.002559 -0.033085 -0.057060 0.046801 0.054648 -0.089352 -0.387634 0.146984 0.015680 -0.024957 0.086155 -0.600658 -0.068543 -0.095438 -0.393555 0.110440 -0.014189 -0.065624 0.048509 0.034735 -0.439849 -0.012386 -0.345386 -0.064438 -0.070042 0.123030 0.040792 -0.074422 -0.007557 0.075161 -0.218933 -0.615062 -0.009156 0.051986 0.154178 0.045085 0.000184 -0.054207 -0.060553 -0.574946 -0.171034 -0.023356 -0.349012 0.032010 -0.111521 0.103250 0.082487 0.042032 -0.074330 -0.053963 -0.022934 0.012917 -0.005677 0.039563 -0.106116 0.020266 -0.020519 -0.003566 0.177480 -0.368407 0.061141 0.037627 0.031180 -0.076855 -0.127302 0.081543 0.012573 -0.507851 -0.010475 -0.033645 -0.058280 0.073859 -0.014306 0.098576 -0.069916 -0.010077 -0.054811 -0.287884 -0.473902 -0.028527 0.083359 0.189217 -0.023100 -0.040285 -0.008738 -0.016410 0.064350 0.029329 0.055697 0.060080 -0.116498 -0.050554 -0.083170 -0.040648 0.030384 -0.003106 0.102349 0.054685 0.127914 0.033788 -0.345503 -0.066825
0.022413 -0.031989 0.059552 0.068235 -0.076054 0.034800 -0.090880 -0.037288 0.035844 0.077547 0.062663 0.064040 -0.088657 0.070899 -0.086752 0.055719 -0.063572 0.050643 -0.099242 0.016059 -0.081147 0.002898 0.056106 0.010482 -0.052530 0.033155 -0.106625 0.027750 0.022884 0.007832 -0.044629 0.032389 -0.028691 -0.066371 -0.131199 0.062428 0.043837 -0.070716 -0.068928 0.021344 0.041311 0.050038 -0.127679 -0.082496 -0.026658 0.001095 0.028233 -0.018765 -0.023121 0.021927 0.080822 -0.116928 0.074121 -0.020679 -0.024842 -0.050161 0.012463 0.028792 0.031493 -0.043502 -0.027963 0.007726 -0.042662 0.067971 -0.049621 -0.018988 0.046074 0.054629 -0.040108 0.074743 -0.075555 -0.078901 0.006246 0.008556 -0.021974 0.003594 0.065006 0.042936 0.006101 -0.000442 -0.091062 0.005061 0.051858 -0.041547 0.006297 -0.106581 -0.074537 0.058929 -0.004133 -0.002637 -0.063551 0.051077 -0.131786 -0.042949 0.072812 0.043296 -0.086635 -0.049188 -0.040757 -0.117884 -0.030138 -0.005315 0.053514 -0.039557 -0.038682 0.079969 -0.083261 -0.014492 -0.068750 0.037378 -0.052419 -0.093328 -0.034005 0.009762 0.044692 -0.118602 -0.064322 -0.004888 0.048768 -0.055079 -0.087260 -0.061083 -0.049251 -0.072463 -0.026460 0.039097 0.039060 -0.027276
0.035249 0.075325 0.000881 -0.009043 0.023398 -0.017423 -0.066238 -0.000365 -0.042204 -0.028742 -0.016415 0.079764 0.044122 -0.039308 -0.006456 -0.074194 -0.022390 0.046906 -0.020739 -0.009909 -0.075769 0.033183 0.079332 -0.056959 0.053964 0.066932 -0.007915 -0.093375 -0.060891 -0.055294 -0.070534 0.047053 0.018372 0.002208 -0.057383 0.029541 -0.046901 -0.033511 -0.014151 -0.025526 -0.027482 0.015151 -0.017302 0.010084 -0.025896 -0.075790 0.010219 -0.068572 -0.013740 -0.032520 -0.071935 -0.031323 0.051509 -0.048665 0.029206 0.039629 0.027274 -0.062673 -0.058697 -0.029045 -0.053406 -0.087782 -0.012662 0.029803 -0.093520 0.008460 0.036902 0.064617 -0.013806 0.090854 -0.093105 -0.110420 0.061019 -0.054949 0.061461 -0.041177 -0.051620 0.055400 -0.032506 0.081075 0.004700 -0.066878 0.018051 0.026887 -0.066074 -0.064001 0.044958 -0.043704 0.029449 -0.016039 -0.041542 -0.032527 -0.070428 -0.009474 0.062916 -0.051833 -0.057498 0.044531 -0.034814 0.006631 0.035436 0.024985 -0.078736 -0.034989 -0.091594 -0.011521 0.065660 -0.038284 -0.015216 0.037766 -0.096245 -0.005138 0.052554 0.074015 -0.039558 -0.112056 0.036225 0.043517 -0.018936 0.059773 0.059525 -0.021965 0.032480 0.019841 -0.078900 0.000513 -0.083606 -0.057196
0.046737 -0.010862 0.035102 0.028103 -0.184972 -0.046945 0.009023 0.059112 -0.049903 -0.072055 -0.066745 -0.054680 -0.071746 0.034753 -0.093450 0.075621 -0.087788 0.042122 -0.107937 -0.035509 0.067626 0.017740 -0.051931 0.112861 0.021488 -0.057655 0.077257 -0.028698 -0.045951 -0.056455 -0.024802 -0.017482 -0.019859 0.022807 -0.055135 -0.128009 -0.015542 0.255148 -0.062256 0.160786 0.091101 0.147435 0.023782 0.076257 0.053851 -0.077476 0.132846 0.022124 0.214915 0.076058 -0.143517 0.045167 0.092722 0.015049 -0.066137 -0.058478 0.040287 0.195334 0.034836 0.073171 -0.046127 0.084351 0.044008 -0.030919 0.011795 0.005417 0.060970 0.025753 0.185384 0.015981 -0.144937 -0.033905 0.017912 0.079086 -0.012761 0.013055 -0.029626 -0.032859 -0.008346 -0.037187 -0.376791 -0.078427 -0.047161 0.043735 0.038335 -0.107621 0.021412 0.022842 -0.058931 -0.033268 0.081476 -0.052061 0.106445 0.278736 0.025020 0.064587 -0.041314 0.027785 -0.108443 -0.041054 0.077422 0.049023 0.062304 -0.235126 0.143602 0.074341 0.058574 -0.042003 -0.007868 -0.078482 0.115022 0.009632 0.011700 0.097360 -0.050673 0.015577 0.150474 -0.061401 0.046821 0.027418 0.022819 -0.189679 -0.178539 -0.067152 -0.006874 0.132458 0.046850 0.069890
-0.445143 0.062285 0.044348 0.063349 -0.243817 0.055852 -0.166043 0.042542 0.253179 0.030479 0.014170 0.007118 0.031877 -0.067930 0.100341 0.229934 0.193056 0.073497 0.284096 0.115375 -0.095494 -0.160770 -0.000326 -0.332138 -0.029849 -0.085399 0.039649 0.026410 -0.072942 0.039962 -0.069200 0.000191 -0.055590 -0.217748 -0.013343 0.027620 -0.061822 0.170366 0.143465 0.104696 0.215721 -0.051836 0.055721 0.099210 0.103764 0.088416 0.126993 0.083682 0.029507 0.055110 0.196177 -0.148766 0.003025 -0.051923 0.062549 -0.070859 0.219668 0.002074 -0.098910 0.017817 0.051429 -0.069588 0.031540 -0.005443 0.075742 0.136735 0.185311 0.003147 -0.188544 -0.059092 0.399321 -0.140353 0.004922 0.075634 -0.058664 -0.009935 -0.033177 0.024706 0.039879 -0.047961 0.288250 0.003883 0.019264 -0.079303 0.073562 0.306554 0.077836 -0.045552 0.014281 0.018867 -0.049263 -0.086345 -0.290341 0.126234 -0.009884 0.001314 0.068569 0.037823 -0.197374 0.162582 -0.052499 0.073647 0.047015 0.512767 0.272156 0.026552 -0.026301 0.057199 0.021365 -0.108874 -0.150752 -0.220465 0.077015 -0.019694 -0.102118 -0.008875 -0.234462 -0.038375 -0.075229 0.029662 -0.043193 0.206877 0.145434 0.017957 -0.520649 -0.135656 0.096986 0.075168
-0.111469 -0.055420 -0.044574 -0.032971 -0.114015 -0.014082 -0.100763 0.029084 0.073474 -0.031522 -0.045012 0.070658 0.004525 0.021039 -0.020950 0.004009 -0.036476 -0.106432 0.037743 -0.124047 -0.067727 0.041544 0.071317 -0.060091 -0.076658 0.077055 -0.012704 -0.002864 -0.060858 0.068163 -0.060585 0.068294 -0.003422 -0.014145 -0.036253 -0.017988 0.054381 -0.019515 -0.202133 -0.003975 -0.081200 0.040492 -0.166774 0.019657 -0.036026 -0.050569 -0.079889 0.044437 0.025479 -0.025217 0.022475 0.019859 -0.015189 0.042221 -0.016287 0.061545 0.057286 -0.102529 -0.060689 0.017076 -0.097127 -0.059152 -0.039017 -0.024691 -0.079727 -0.136726 -0.044437 0.018682 -0.087021 -0.012938 0.094737 -0.122406 -0.114843 0.020671 -0.013528 -0.032861 -0.007215 -0.066847 0.038965 -0.068018 -0.027754 0.044480 -0.003919 0.039411 -0.146650 -0.001998 -0.034376 0.013458 -0.059743 0.037592 0.024534 -0.014890 -0.063495 -0.051880 -0.069955 0.031871 -0.030143 -0.000641 -0.036815 0.040205 0.046809 -0.076809 0.057367 0.044002 0.045785 0.074954 -0.055294 -0.049225 0.039730 -0.035125 0.072604 0.032191 -0.152137 0.087965 0.074290 -0.057756 -0.065744 0.033831 -0.086821 -0.040390 0.078819 0.011359 -0.086440 0.083875 -0.144773 -0.019853 -0.085260 -0.071996
-0.119080 0.079524 -0.031468 -0.010482 -0.224023 0.054584 0.078652 0.004158 -0.186481 0.063241 -0.046203 -0.022080 -0.073581 -0.019578 -0.104132 -0.231118 -0.342468 0.236429 0.256823 -0.150221 -0.059898 -0.049701 -0.048538 -0.156803 -0.054276 0.020999 -0.005101 0.035546 -0.057067 0.081397 -0.054871 0.038640 0.087839 -0.132852 -0.032025 -0.090218 -0.055496 0.012040 0.133825 0.041884 -0.025420 0.007362 -0.118140 0.100484 0.064372 -0.016757 -0.088127 0.036278 -0.016524 0.049260 0.144297 -0.172348 -0.089863 0.017595 -0.074908 -0.055970 -0.188099 -0.028850 -0.011575 0.067209 -0.109959 0.063883 0.029007 -0.032964 0.097692 -0.111544 -0.069674 -0.043447 0.017357 -0.062046 -0.294496 -0.079664 -0.063195 -0.070301 0.022624 0.087409 -0.072286 0.054880 0.006675 -0.000112 0.597563 0.071808 -0.030923 0.071601 0.101521 -0.047536 -0.085188 0.035354 0.071692 -0.058978 -0.104098 0.093159 -0.210169 -0.136393 -0.044468 -0.044642 -0.000434 -0.031914 0.161058 -0.244908 0.082624 -0.001582 -0.027865 -0.030060 -0.182506 0.048717 -0.074280 -0.005586 -0.011904 -0.003526 -0.064587 0.223411 0.133287 -0.090892 -0.077064 -0.158438 0.080506 -0.074470 0.006735 0.089665 -0.057141 -0.188728 0.236576 0.247675 0.107005 0.104115 -0.107722 -0.004108
-0.157428 -0.093560 -0.045784 0.038665 -0.193254 -0.004850 -0.009372 -0.052014 -0.022028 0.047988 -0.004825 -0.080827 0.007438 0.021588 -0.011661 0.055233 -0.064368 0.008276 -0.091485 -0.032876 -0.011698 0.001155 -0.086872 -0.099103 0.030077 0.093262 0.047146 0.037782 -0.065837 -0.063874 -0.104712 0.034800 0.034551 0.071724 0.049057 -0.054232 0.022872 0.055044 -0.122157 -0.074141 -0.104496 -0.142437 -0.008248 -0.086141 -0.118078 -0.041695 -0.047880 -0.006174 -0.033430 0.054512 -0.113239 0.004787 0.092924 0.039097 0.002033 -0.031655 -0.034341 0.081846 -0.053002 -0.070017 -0.087715 0.033238 0.004921 0.015877 -0.109489 -0.135600 -0.107951 -0.082981 -0.065633 0.054395 -0.185741 -0.074431 -0.140298 0.062458 -0.066865 -0.032601 0.017157 -0.061391 0.013397 -0.066974 0.114484 -0.071914 -0.007581 -0.070733 -0.106986 0.011054 0.021840 -0.073688 0.076580 0.030745 0.297227 0.041649 -0.198281 0.025927 -0.058759 0.022331 -0.053276 0.018811 -0.004483 0.194582 0.037150 0.085106 0.072316 0.316812 0.028380 0.008228 -0.028760 -0.023197 0.016185 -0.034256 -0.089092 -0.040392 0.048653 0.044867 -0.046991 -0.031414 -0.052295 -0.017089 0.018169 -0.053091 -0.014877 -0.110039 -0.091234 0.199424 0.011527 -0.002685 -0.004812 -0.038207
0.065058 0.090247 -0.059975 0.017616 0.085468 0.087755 0.009927 0.078573 0.140367 -0.069434 0.077011 0.056889 -0.013954 -0.058224 -0.016873 0.338704 0.064819 0.200160 0.039632 0.106752 -0.012812 0.102694 0.042006 0.033514 -0.035273 -0.066862 0.050078 -0.007033 -0.003164 0.049583 -0.037289 -0.072349 -0.092542 -0.106150 0.013265 0.136794 0.054682 0.141375 0.122170 0.158494 0.158373 0.096785 0.116214 -0.048691 -0.072024 0.067204 0.156612 0.000779 0.036288 0.059732 0.028192 -0.063320 -0.065998 0.023328 0.094851 0.030505 0.010532 0.322259 0.007725 -0.102778 0.087341 0.043567 -0.036003 -0.023969 0.111728 0.119093 -0.038666 0.077587 -0.235575 -0.068020 0.245898 0.039370 0.095345 0.064221 0.016028 -0.079136 0.044221 0.004510 0.028076 0.027828 0.325612 0.045549 -0.062912 -0.072423 0.102706 0.088471 -0.086416 0.011417 -0.071472 0.081215 0.120693 0.034082 -0.061484 0.211859 -0.073166 -0.023588 -0.065260 0.040740 0.040851 0.048537 0.032062 0.084797 -0.053464 0.230961 0.229615 0.022837 -0.077316 0.027858 0.081177 0.069026 -0.025499 -0.160215 0.028346 0.112359 0.044468 -0.000992 -0.014321 -0.042875 0.009947 0.078153 -0.085298 -0.181515 0.229699 0.034499 -0.112327 -0.076434 0.126957 -0.017801
0.023335 0.025743 0.080285 -0.046972 0.064167 0.070974 -0.019804 0.060218 -0.326242 -0.045752 -0.043409 0.033780 -0.059182 0.012817 -0.092466 -0.840912 -0.045995 0.188346 0.202039 -0.050717 0.065035 0.041224 0.039020 -0.011484 -0.049356 -0.090789 -0.054659 0.059697 0.022114 -0.081317 -0.072577 0.053167 -0.423415 0.046405 0.073737 -0.047636 -0.007117 -0.550151 -0.240195 -0.198690 -0.437265 0.044888 0.028952 -0.060385 -0.008103 -0.079706 -0.529855 0.022089 -0.171936 -0.066867 0.254002 0.042119 -0.030833 0.039127 0.055499 -0.035397 -0.039058 -0.437826 0.113517 0.087852 0.053873 0.025095 -0.022465 0.028187 0.161303 -0.537592 0.402460 -0.004329 -0.086817 0.055863 -0.289006 -0.009232 -0.068155 0.077151 0.060468 -0.018336 0.037287 -0.021617 0.096610 0.068540 0.459738 -0.011816 -0.060760 0.067561 0.184289 -0.300903 0.023859 0.036785 -0.072066 -0.017638 0.095977 -0.034526 0.048102 -0.511661 0.060667 -0.026041 0.047678 0.024585 -0.050953 0.046918 0.008370 -0.064356 -0.084442 -0.338065 -0.541669 0.025056 -0.008745 0.092990 0.017143 0.061205 0.043528 0.063297 -0.013560 0.037233 -0.056172 0.108898 0.222253 -0.002669 -0.023704 0.001015 -0.031678 0.228173 0.302080 0.314233 -0.075605 0.239150 -0.295589 -0.018901
-0.106281 0.049530 -0.066459 0.011753 -0.063550 0.047514 -0.105462 0.047138 0.156440 -0.034570 0.026493 -0.086023 -0.064119 0.059849 -0.036862 0.346119 0.035330 -0.110522 -0.077930 -0.017315 -0.100145 0.023926 0.080761 0.020868 -0.038545 0.043387 -0.010063 0.005393 0.091901 0.037864 0.039864 0.018659 -0.021566 0.030877 -0.070703 0.038623 0.053849 0.282733 0.192604 0.034121 0.080485 0.152008 0.027069 0.147744 0.072204 -0.080554 0.270615 0.013873 0.183328 -0.068411 -0.337493 0.019762 -0.081404 -0.045851 -0.004674 -0.040903 0.209976 -0.075829 0.014611 0.113897 0.044284 0.068913 -0.007177 -0.042058 -0.232136 0.366292 -0.188651 0.045622 -0.233624 -0.074032 0.207154 0.068682 -0.059297 -0.073887 -0.045340 -0.062067 0.045988 0.043604 -0.021872 0.040804 -0.207135 -0.005313 0.063280 0.018560 0.085240 0.124450 0.053014 0.062955 0.005974 0.061650 -0.076249 -0.073763 -0.116092 0.278218 0.075492 -0.027984 -0.039699 -0.067824 0.030344 0.056365 -0.058942 0.023387 -0.039768 0.020489 0.347221 -0.029485 0.005310 0.231902 -0.011684 -0.009477 0.021090 -0.119574 0.097542 -0.026061 -0.050192 0.004017 -0.224120 -0.064064 0.013998 0.088517 -0.030982 -0.300716 -0.149642 -0.027061 0.093564 -0.281456 0.185333 0.041905
-0.072418 -0.087042 -0.007809 -0.031042 -0.081197 -0.073031 -0.096469 -0.089187 -0.079790 -0.038211 0.075022 -0.015662 0.071804 -0.011971 -0.088117 -0.065938 -0.002222 0.023512 -0.056054 -0.020722 -0.043590 0.004906 0.022391 -0.020229 0.076701 -0.085611 -0.048762 -0.067099 0.005652 -0.081894 0.005609 0.059954 -0.083449 -0.059403 -0.085395 0.029738 0.025414 0.002677 -0.037522 -0.013303 -0.031256 -0.008416 -0.097342 -0.026702 -0.099128 -0.032905 -0.040894 0.068991 -0.117993 -0.010162 -0.095670 -0.113229 0.002206 -0.047734 0.026139 -0.075025 -0.076634 0.049401 -0.043078 0.074127 -0.061079 0.061119 0.039554 -0.079707 0.028015 -0.069309 0.035295 -0.006169 -0.071961 -0.056268 -0.057704 -0.104404 -0.000432 0.077826 0.018964 -0.049567 -0.040454 -0.048347 -0.054179 -0.057617 0.056859 0.032767 -0.041024 0.025311 -0.107304 0.076194 0.061021 0.057013 0.065902 0.045085 0.015696 0.079756 -0.060556 -0.024080 0.070700 0.034678 0.002405 -0.074702 -0.105826 -0.015908 -0.016842 0.048751 -0.014873 0.031975 -0.087791 0.007648 0.066789 0.037306 -0.005363 -0.034355 0.039370 -0.045662 -0.086323 -0.047129 -0.008421 0.031778 0.007311 0.074803 -0.068518 0.019735 -0.043190 0.003425 -0.000945 0.027597 0.000561 0.025893 -0.031594 0.018020
-0.067270 0.063823 0.051936 0.022621 0.039161 -0.029899 -0.030561 -0.058270 0.162122 -0.027684 0.030185 0.035808 -0.075992 -0.021006 -0.077524 0.293088 0.040582 -0.061027 -0.008246 0.000750 -0.021288 0.034894 -0.076449 0.015031 -0.052742 0.049087 -0.104265 0.022906 0.068312 -0.032995 -0.003237 -0.029655 0.156879 0.016368 0.040976 -0.040897 -0.072343 0.359921 0.164125 -0.050327 0.178359 0.054793 -0.021281 0.063627 0.088589 -0.042937 0.232363 -0.067190 0.164335 -0.015180 -0.055923 0.012476 0.086985 0.075989 0.022415 -0.077895 -0.044675 0.355341 0.022210 -0.099633 0.038217 -0.116862 0.007843 -0.032286 0.083148 0.206799 0.008174 -0.063212 -0.014228 -0.040223 0.106789 0.039182 -0.025303 0.042320 0.073780 -0.055170 0.050274 0.019487 -0.046840 -0.059273 0.050971 -0.065192 0.053915 0.074086 0.074589 0.121976 0.002935 -0.060375 0.013319 -0.050534 0.028970 -0.062187 0.021328 0.302350 -0.049546 0.083134 -0.010626 0.028644 0.020655 0.073813 -0.010988 -0.027607 0.041944 0.201397 0.232193 -0.072361 0.001911 -0.059792 -0.036790 -0.043300 0.040226 -0.170956 0.039702 -0.037570 -0.084994 -0.023887 0.080083 0.014628 0.043068 -0.056484 0.023324 -0.257784 0.056169 -0.027739 0.087485 -0.206038 0.214879 -0.047065
0.082183 0.041854 0.045552 -0.016817 0.019872 0.046197 -0.021465 0.099622 0.117152 -0.020185 0.008451 0.058894 -0.047646 0.062241 -0.059567 0.436116 -0.038191 0.105494 0.009213 0.087548 -0.074651 -0.021396 0.065353 -0.040922 0.080860 0.079407 0.062909 0.030475 0.050563 -0.044404 -0.056152 0.060560 0.064401 0.047612 0.120938 0.043822 0.027820 0.329621 0.140434 0.180388 0.183816 0.044247 -0.030366 -0.001789 0.014596 -0.036977 0.258472 -0.045086 0.108685 -0.009857 -0.133675 -0.088628 -0.016014 0.000711 0.007911 -0.041547 0.177245 0.282651 0.020713 0.086524 0.066697 0.033207 0.003077 0.002593 -0.056434 0.385738 -0.139060 0.020716 0.040753 0.002728 0.191165 0.027474 -0.015272 -0.078520 0.044235 0.044906 0.028830 0.091855 0.106768 0.017028 -0.368051 0.085137 0.072930 -0.067392 0.042673 0.208611 0.056619 -0.017090 0.077079 0.030807 -0.092917 0.009850 0.045019 0.330197 -0.040121 0.064441 -0.069929 -0.071355 -0.027035 0.014900 -0.035653 -0.054338 0.044996 0.216850 0.359468 -0.022492 0.003554 0.041989 -0.092001 -0.088316 -0.111023 -0.128571 -0.007371 0.010449 -0.035771 0.071800 -0.066831 -0.034667 0.032270 -0.020887 -0.083911 -0.427067 -0.301343 0.061325 -0.148241 0.042819 0.241821 0.014035
-0.098869 -0.071949 -0.001871 -0.052323 -0.088574 -0.012336 0.025695 0.062336 0.064014 0.081882 -0.044979 0.046798 0.030193 -0.063094 0.038948 0.028653 0.003836 0.026790 0.084903 0.013644 0.016596 0.010793 0.069041 0.033638 -0.011819 0.069015 -0.030908 -0.067133 0.023883 0.060264 -0.082622 0.036147 0.017452 -0.007796 -0.025203 -0.058224 0.076927 -0.060893 -0.042483 -0.086739 -0.069479 0.060761 -0.070302 -0.076769 -0.025165 0.020652 -0.046536 -0.068345 -0.068488 0.050524 -0.056649 -0.095857 0.081761 0.032645 -0.068671 -0.015548 0.012943 -0.039583 -0.095627 0.091168 -0.100338 -0.056921 -0.021278 -0.026201 0.008714 -0.008139 -0.040121 -0.001808 -0.055677 0.075149 -0.027338 -0.041072 0.082070 0.021101 0.049657 0.042385 0.035137 0.008915 -0.005733 -0.011699 0.040408 -0.022270 0.005257 0.085599 -0.036269 0.000775 0.011146 0.037270 -0.078391 0.041950 -0.041151 -0.059260 0.057764 -0.083695 0.052030 -0.022600 -0.087689 0.054567 -0.047214 0.049841 0.040304 -0.040777 0.044178 -0.034694 -0.111055 0.083572 0.086560 -0.023872 -0.081664 0.030593 -0.082987 0.067216 -0.072588 0.022784 0.068566 -0.079966 -0.047108 0.074455 -0.017367 0.034398 -0.081063 0.076464 -0.060581 -0.043068 -0.019459 -0.041874 -0.117123 0.004309
0.003882 0.067690 0.047443 0.029429 -0.046700 -0.074822 -0.113865 -0.070935 -0.069193 0.066752 -0.080048 -0.015358 0.073489 0.056361 0.058228 -0.016442 0.015510 -0.020674 -0.037041 -0.074503 -0.038787 0.049080 0.040381 -0.066553 0.041724 -0.072454 0.078679 0.004209 -0.063186 -0.019792 0.040877 -0.080997 -0.022584 -0.033329 -0.077435 0.044219 -0.011625 -0.047749 0.032960 -0.001322 0.018360 0.087376 -0.076665 0.076335 -0.069626 -0.071447 0.003031 -0.008229 0.024366 -0.067447 -0.079043 -0.001973 0.039235 0.081526 -0.003571 -0.034613 0.074035 0.072281 -0.001226 -0.048311 -0.019339 -0.029040 -0.036824 -0.043739 -0.076907 -0.084383 0.006222 0.077672 -0.051570 -0.022181 -0.064577 -0.046129 -0.013687 -0.015669 0.052474 -0.042765 -0.019959 0.035480 -0.075068 0.039182 -0.029206 -0.033690 -0.013729 -0.006520 0.008184 0.005407 -0.067075 -0.005313 0.075913 0.059803 -0.074035 0.047985 0.054142 -0.057522 0.060768 -0.039360 0.032258 -0.087387 0.043309 -0.082088 0.047412 -0.034844 0.035972 -0.027266 -0.008992 -0.007936 0.085960 -0.046816 0.083233 0.003833 -0.055415 0.004015 -0.003912 -0.032007 -0.045115 -0.096304 0.004837 0.092477 -0.040049 -0.003695 0.059900 -0.079073 -0.037860 -0.008337 -0.076872 -0.024077 -0.048188 0.087281
-0.014237 -0.021808 -0.036542 0.028281 0.180570 -0.049053 0.056314 0.066163 0.268530 -0.004138 -0.003484 0.091927 -0.050214 0.003751 0.024668 0.052911 0.103328 -0.203740 0.075971 0.148113 -0.103375 0.021210 0.071275 0.036885 -0.011923 -0.010054 0.043783 -0.019794 0.054256 -0.010445 -0.007816 -0.048979 0.122189 -0.093921 -0.135333 0.212693 -0.004056 0.057205 0.130645 0.022616 -0.111958 0.134971 -0.006523 0.101575 0.116741 -0.001800 0.070930 0.008170 -0.049526 0.066165 -0.019361 -0.015981 0.072346 0.020984 0.056635 -0.038090 0.096212 -0.074339 0.074597 -0.058980 0.040832 -0.004321 0.064839 0.032866 0.079491 0.050777 0.016946 0.059195 -0.123431 0.005262 0.092027 0.053779 -0.059787 0.065332 -0.074161 -0.023943 -0.054718 -0.000320 -0.021784 -0.073705 -0.311173 -0.087858 -0.039441 0.049181 0.161379 0.229889 0.075747 0.006834 0.053754 -0.040834 -0.044723 -0.090894 -0.008848 0.031310 0.054360 0.051572 0.072595 -0.080961 0.001772 0.046926 0.084240 -0.052489 -0.080730 0.400624 0.106777 -0.068883 -0.006955 0.297087 0.009238 -0.032032 0.329819 0.047595 -0.009861 -0.052309 -0.026446 0.015681 -0.355524 -0.055840 0.031417 0.050180 -0.016666 -0.266129 -0.086976 -0.144069 0.049055 -0.250866 -0.108788 0.002518
-0.036891 -0.022586 0.000077 0.039741 0.101521 0.065521 -0.064953 0.027037 0.224711 0.073666 0.070045 0.000861 0.058790 -0.020215 -0.024348 0.286036 0.141550 0.175450 -0.252279 0.086263 -0.083942 -0.092876 -0.017921 0.028605 0.037085 0.074508 0.031553 0.034700 0.055447 0.019942 0.046985 -0.024409 -0.147760 -0.071106 -0.110329 0.119149 0.011522 0.136598 -0.045834 0.003757 -0.039827 -0.040496 0.060486 -0.140151 -0.057164 0.058423 0.168351 -0.009966 0.067022 -0.004105 -0.016637 -0.024475 -0.069994 0.012088 -0.025527 0.074613 0.123565 -0.102934 -0.072592 0.019221 -0.014765 0.066579 0.000110 0.002953 -0.414554 0.166719 -0.174228 -0.093023 -0.038723 0.038106 0.195650 -0.119495 -0.121099 0.071421 -0.067420 -0.080057 -0.049111 -0.114468 0.013808 -0.004379 -0.068621 -0.065213 -0.041552 -0.115227 0.088714 0.092185 -0.003875 -0.028908 0.014600 0.063820 0.088046 0.063735 -0.171646 0.016631 0.052770 -0.052361 0.042467 -0.048725 -0.131493 0.020329 0.048540 0.001617 0.069349 0.500156 0.124868 -0.032119 0.049284 0.114495 -0.062823 -0.166218 -0.160995 -0.012386 0.005072 0.100407 -0.029667 -0.117085 0.130280 -0.025513 -0.058257 -0.049920 0.057323 -0.511790 -0.180907 0.167931 -0.177065 0.062828 0.134809 0.053577
0.054880 0.035378 -0.079734 -0.093586 0.115502 -0.054100 -0.022278 0.055951 0.081451 -0.074755 -0.045309 0.061393 0.028185 -0.070361 -0.003479 0.320784 0.191835 -0.010738 -0.017874 0.087191 -0.004448 -0.074422 -0.047284 0.061398 0.040753 -0.021756 0.107357 0.041084 0.068431 -0.044582 -0.005180 0.021570 0.158299 -0.001259 0.062604 0.134972 -0.070755 0.330805 0.101113 0.162250 0.232484 0.041235 0.015415 0.005424 0.039250 0.079521 0.138224 -0.016567 0.098883 -0.021844 -0.024285 -0.069644 -0.052505 0.030639 0.024169 -0.059142 0.159094 0.276745 0.029801 0.024892 0.004227 -0.014334 -0.032289 0.026429 -0.026271 0.332009 -0.061853 0.025915 0.064849 0.097465 0.236588 0.066852 -0.027583 -0.053036 0.047014 -0.038497 0.047522 0.008979 0.070988 -0.000673 -0.151017 -0.088779 0.086296 0.022598 0.063108 0.230737 0.055069 0.095798 -0.049651 -0.078609 0.103946 -0.012592 0.023044 0.289803 -0.071168 -0.058337 0.013814 0.075394 0.069155 -0.007879 -0.011912 -0.025838 -0.046193 0.362742 0.273697 -0.056977 -0.019457 0.015863 -0.042976 -0.056741 0.054483 -0.190639 0.031148 -0.011947 0.066155 -0.079725 0.085773 -0.000065 0.029350 -0.073627 -0.052441 -0.360578 -0.154704 -0.100112 -0.017275 -0.169324 0.222151 0.090197
-0.010551 -0.046309 0.070845 0.039490 0.010224 0.062644 0.080687 0.099355 -0.151747 0.018666 -0.066192 0.028471 -0.065438 0.031369 -0.050965 -0.174757 -0.033959 0.097009 0.362678 0.020925 0.056159 -0.004460 0.024969 -0.273659 0.036902 0.072714 -0.119044 0.074961 -0.044988 -0.047775 -0.121114 0.062780 0.080143 -0.153228 -0.044285 -0.015894 0.030436 -0.308296 0.370733 -0.104164 -0.003922 -0.085545 0.053784 0.115130 -0.100884 -0.043250 -0.040134 0.010676 -0.070285 0.026397 0.279214 -0.203332 -0.047598 -0.072837 0.032752 -0.055665 -0.041643 0.056810 -0.012944 -0.030719 0.018563 0.076390 -0.068077 -0.035141 0.180324 -0.063982 0.248457 -0.033419 0.111829 0.019449 0.062395 0.121702 0.126349 0.005851 -0.025682 0.057002 -0.059606 0.008836 0.016134 -0.002537 0.719476 -0.069289 0.080325 0.114057 0.120805 0.083217 0.058586 0.086988 0.052684 0.043429 0.228613 0.021928 0.050661 -0.134059 -0.024263 0.060541 0.063005 -0.017445 0.092095 0.015381 0.046128 -0.059487 -0.068039 0.168764 -0.130416 -0.075146 -0.042505 0.069221 0.039503 -0.086820 0.243930 0.037827 0.044867 -0.052524 -0.026304 -0.161396 0.234891 0.073239 -0.032745 -0.039692 0.071199 0.298887 0.244407 0.150298 0.140194 0.211047 -0.165456 -0.051076
-0.021651 0.021275 -0.006582 0.018277 0.270080 -0.077404 -0.001676 0.097452 -0.156716 -0.048571 0.076986 -0.008000 0.023834 0.021846 0.103225 -0.018263 0.361127 -0.740266 0.207302 0.332433 0.012453 -0.076628 -0.035808 0.056605 -0.033605 0.043611 -0.200185 0.011349 0.037681 -0.069266 0.075542 0.032601 0.037417 0.041103 -0.116616 0.065323 -0.047733 -0.181992 0.169683 -0.275567 -0.197232 0.118400 0.155903 0.040263 -0.064455 0.007769 -0.027216 -0.087299 -0.445057 -0.043268 -0.460437 0.116388 -0.076552 0.011723 -0.018176 -0.078312 -0.429293 -0.213561 0.047078 0.006634 0.064463 0.044008 -0.090084 0.057090 -0.469586 -0.153276 -0.495915 0.071329 -0.376323 0.054662 -0.049949 0.149201 -0.068966 0.039304 -0.058854 0.053187 -0.074992 -0.046299 0.037981 0.002144 -0.686385 0.001372 -0.074248 0.146814 0.204563 -0.059979 -0.028553 0.011273 0.069920 -0.070605 -0.275993 0.069192 0.126494 -0.146619 -0.007382 -0.065780 -0.023950 -0.033453 -0.016609 0.138978 0.031423 0.064758 -0.074276 -0.299119 -0.032432 0.085048 -0.060008 0.106143 0.060453 0.079699 0.417240 -0.055173 0.056828 -0.080271 0.002352 -0.014551 -0.824844 -0.075508 0.032834 -0.025516 0.092702 -0.039286 -0.663264 -0.629843 0.340031 -0.626460 -0.191035 0.039757
-0.010756 -0.054472 -0.071824 -0.015575 0.047581 0.028979 0.061043 0.090868 -0.530055 0.045690 -0.033399 -0.040453 -0.000783 -0.050945 0.075249 0.145694 0.140117 -0.864548 0.006357 0.079700 -0.025965 -0.024966 -0.061579 0.004341 0.056473 0.020837 -0.047219 0.026987 -0.029694 0.003801 -0.010841 -0.077154 0.203640 -0.090365 -0.057330 0.166582 -0.082121 -0.514029 -0.035746 0.004910 -0.085004 0.030348 0.043588 0.097715 0.105098 -0.037676 -0.046585 0.027808 -0.689279 0.069751 -0.511960 0.012371 0.040143 -0.032348 0.049885 -0.051865 -0.469344 -0.139337 0.051667 0.035112 0.087066 0.089864 0.058551 0.059884 -0.451339 0.032209 -0.641169 0.038027 -0.456196 0.014465 0.169297 0.131700 0.034857 0.030605 -0.000115 -0.026739 0.035461 0.009575 0.041012 0.014764 -0.442904 -0.068402 -0.006985 0.214880 0.270998 0.124603 0.005392 0.060578 0.028236 0.080574 -0.410584 0.006735 -0.041934 -0.182266 -0.078411 -0.059117 0.065638 0.001265 -0.055091 -0.013747 0.030073 -0.020271 0.022105 -0.396775 -0.066371 -0.071722 0.013894 0.116341 -0.073604 -0.058318 0.141233 0.059131 0.102622 0.005397 0.024461 -0.037384 -0.867768 0.054607 -0.022283 0.059517 -0.040951 0.066780 -0.952986 -0.779048 -0.002200 -0.748607 -0.294335 0.041108
0.020238 0.069150 0.053442 -0.042119 -0.084907 0.061246 0.023219 0.058276 0.139825 0.056579 -0.012633 0.001611 0.073427 -0.050364 0.035350 -0.099062 -0.492087 0.269125 0.155269 -0.138623 -0.107934 -0.062006 0.059194 0.061658 -0.002648 0.089273 0.255634 0.053765 0.033756 -0.018065 0.031509 0.051301 0.188699 -0.020566 -0.182625 0.027689 0.040753 0.039993 0.004529 -0.011109 -0.043271 0.084815 -0.019224 0.078448 -0.005426 -0.024485 -0.110799 0.070169 0.267549 -0.068031 0.270847 -0.097887 0.048494 0.021700 -0.082320 0.043920 0.201453 0.106834 -0.083183 0.023053 0.011723 -0.062183 -0.070966 -0.030518 0.281538 -0.114971 0.243517 0.058323 0.132613 0.035381 -0.219546 0.105228 -0.016130 0.079418 0.046962 0.002042 0.017550 0.040363 0.053528 -0.087234 0.459259 -0.038227 0.035994 0.002798 0.065732 -0.174398 0.054782 -0.015450 0.023817 -0.009151 0.160564 -0.052448 0.024792 -0.030666 -0.031197 0.039066 -0.020760 -0.023272 0.094355 -0.148922 -0.030344 0.062831 0.036695 0.252680 -0.083656 -0.013934 -0.032767 0.077334 -0.052935 -0.123103 0.027774 0.045214 0.070050 -0.017542 0.037980 -0.101324 0.338286 -0.007398 0.000086 0.069261 0.030904 0.272478 0.478593 0.198019 0.077289 0.328958 0.012348 0.003964
-0.043390 0.024382 -0.042556 -0.042905 0.084034 -0.018424 0.003396 0.016924 -0.069367 -0.025649 -0.088715 -0.072800 -0.023935 0.030177 -0.062795 -0.050091 -0.032411 0.090771 0.003344 -0.003974 0.043997 -0.117372 -0.031601 0.007750 0.046192 0.069979 0.061226 -0.024498 -0.074255 0.059214 -0.079583 -0.026553 -0.025859 -0.043311 -0.193558 0.027710 -0.052891 -0.063671 0.025284 -0.033604 0.103904 0.203247 0.052853 0.141787 0.033987 0.037158 -0.048676 0.025261 0.048081 -0.050570 -0.046068 -0.084954 -0.022559 -0.064805 0.043133 -0.004174 -0.055848 0.192077 0.024494 -0.092009 0.054638 0.022998 -0.039809 0.069148 0.092985 -0.061768 0.189117 0.080062 0.079573 0.063954 -0.074871 0.032903 0.006648 -0.073159 -0.007184 -0.003331 0.074570 0.037212 0.025737 0.047428 0.182044 0.088630 -0.045725 -0.012511 0.263411 -0.220970 -0.000070 -0.029791 0.013888 -0.072954 0.257514 0.071014 0.091909 0.202001 -0.047862 -0.055980 -0.048685 -0.017590 0.070830 0.008669 0.072534 -0.040256 -0.077525 -0.356871 0.057348 0.079185 -0.081069 0.120212 0.041154 -0.002291 0.232977 -0.063749 0.011315 -0.087777 0.018147 -0.019458 -0.027616 0.013193 -0.028525 0.069821 0.042406 -0.055294 0.145616 0.130580 -0.073959 0.024048 0.117760 -0.078475
0.012599 -0.060640 0.045569 0.043100 -0.024988 -0.009525 -0.011657 0.100911 0.052103 -0.042043 -0.090829 0.029776 0.008704 -0.000073 0.011729 -0.053758 0.065217 0.154015 0.271542 -0.024701 0.100194 -0.034938 -0.033116 0.011349 -0.015342 0.035978 0.060211 0.072830 0.007141 0.073941 0.012052 0.012653 0.033570 0.048625 -0.205923 -0.081925 0.037369 -0.015679 -0.015698 0.123927 -0.002713 0.106450 0.049070 0.044223 -0.026092 0.020300 0.065147 -0.052652 -0.051373 -0.073501 0.182069 0.011299 0.043027 -0.065599 -0.065545 -0.002713 -0.025085 0.164883 0.039107 0.018895 -0.007546 -0.081652 -0.048241 0.073492 0.143995 0.057640 0.096767 -0.050854 -0.022383 0.047631 0.066166 0.021629 -0.023511 0.018525 0.068612 0.033043 -0.033850 0.060235 -0.056891 0.041240 0.591710 0.077586 -0.039266 -0.056017 0.195537 0.026380 -0.015088 0.016561 -0.075046 0.066928 0.183838 0.050090 -0.009349 0.132404 -0.066934 0.013099 -0.082108 0.011067 -0.010157 0.042051 -0.069635 -0.031722 0.010023 0.092940 0.060993 0.030771 -0.016520 0.057402 -0.025450 -0.043534 -0.022585 0.047111 0.096785 -0.112572 0.066322 -0.062695 0.259335 -0.067312 -0.047574 0.026830 0.019132 0.082640 0.378418 0.110859 0.124660 0.186673 -0.113369 0.065736
-0.048961 0.053980 -0.022785 -0.039794 -0.098940 -0.060944 -0.007161 0.151269 -0.059362 -0.001612 -0.014072 -0.061807 0.060275 0.063020 -0.016461 -0.012563 -0.460152 0.179176 -0.200103 -0.060905 -0.008333 -0.090869 0.018735 -0.112662 0.046316 0.059623 -0.028531 0.036834 0.012684 0.071203 -0.062157 0.033310 -0.325544 -0.057887 -0.030916 -0.179570 0.070933 -0.200783 -0.171341 0.072429 0.068697 -0.018792 -0.094299 0.075230 0.082639 0.020434 -0.059931 0.068730 -0.041085 -0.019437 -0.117017 0.035410 -0.000532 0.060613 0.072876 -0.011398 0.024135 0.107748 0.019205 -0.074272 0.049469 0.000593 -0.025787 0.054561 -0.310306 -0.071169 -0.018737 -0.004479 -0.215979 -0.089526 -0.453534 -0.040546 -0.077693 -0.000734 -0.087995 -0.053132 0.075790 0.063569 -0.110248 -0.029732 0.238615 -0.014245 0.048021 -0.086711 0.005205 0.010383 -0.060554 -0.097147 0.020582 -0.059176 0.073095 -0.022472 0.054253 0.080163 -0.011261 -0.065608 0.069213 0.056121 0.031971 -0.039355 0.008063 -0.005904 0.062468 -0.604228 -0.048240 -0.016758 0.085970 0.135210 0.023665 0.053581 -0.034207 0.013729 -0.027742 -0.063873 -0.100615 0.040833 0.282739 0.065577 0.005561 0.057078 -0.095119 -0.117366 0.102852 0.026061 0.016848 0.198961 -0.064488 0.017870
0.015503 -0.014102 0.076382 -0.075097 -0.019327 0.066603 -0.026239 0.051876 -0.095350 -0.053424 0.054560 -0.006910 0.044631 0.059906 0.044840 -0.073152 -0.196029 -0.071352 0.063593 0.030383 -0.004186 -0.244610 -0.048481 -0.210597 0.029316 0.065222 -0.205734 0.080211 0.004083 0.061617 -0.083676 0.004369 -0.272371 -0.014431 -0.096476 0.147783 -0.072072 -0.172145 0.320352 -0.148852 0.020329 0.044602 0.018538 0.057907 0.139993 0.006214 0.055314 0.015395 -0.040164 0.072170 -0.004839 -0.049463 -0.032346 0.006734 0.031885 0.025353 -0.060475 -0.145508 0.014850 -0.086068 0.094181 -0.013766 0.028255 0.009369 -0.116669 0.055894 0.101971 -0.035556 -0.033772 0.067908 -0.005435 -0.179468 -0.141423 0.020612 0.070570 0.064641 0.068840 -0.059469 -0.055850 0.047785 0.509202 0.012124 -0.064569 -0.020989 0.025829 0.069449 -0.021029 0.062714 0.059073 -0.001280 -0.067179 0.078353 -0.106264 0.039178 0.049303 0.010611 -0.042617 -0.039624 0.132362 -0.076291 -0.079208 0.030112 -0.001683 0.095053 0.066994 0.064154 -0.025541 0.032483 0.038187 -0.123844 -0.100412 0.001606 0.001530 0.028052 -0.096233 -0.046658 0.118880 0.041853 -0.055756 0.039215 0.031800 0.063742 0.243853 -0.135690 -0.178588 -0.289803 -0.070407 0.027595
-0.030566 0.063327 -0.019066 -0.076798 -0.024163 -0.039794 -0.053193 -0.026920 -0.258962 0.065996 -0.063808 -0.088271 0.060211 -0.038635 0.072178 -0.037311 -0.450597 0.059740 0.044681 -0.470280 -0.180508 -0.070674 0.046164 0.060079 -0.049017 0.032878 0.033909 0.028025 -0.005565 0.047873 -0.154667 0.031989 -0.057795 -0.063363 -0.050185 -0.023041 -0.018113 0.089146 -0.047435 -0.087318 -0.363685 0.026363 -0.086730 0.043663 -0.091369 0.017106 -0.242436 0.013941 0.121590 0.087729 0.049299 -0.012993 -0.077639 -0.013372 0.071232 0.006205 0.178706 -0.290547 -0.005767 -0.019096 -0.022769 0.076490 0.025878 0.057591 0.090348 -0.065746 -0.275059 0.029653 -0.287264 -0.003809 -0.378671 -0.049338 -0.152058 0.043501 0.037170 0.052241 -0.017198 -0.137305 -0.041606 0.074614 0.255017 0.025241 -0.032068 -0.185460 0.128603 -0.337487 -0.063414 0.047534 -0.025687 -0.077778 -0.054890 -0.014668 -0.129515 0.034129 0.042633 -0.090326 -0.087071 -0.071600 0.040117 -0.244219 -0.042778 -0.036828 -0.001027 -0.072443 -0.058886 -0.066746 -0.043491 0.090586 -0.078186 -0.111383 -0.133949 -0.032933 -0.022741 -0.046101 0.052605 0.033610 0.017485 0.075346 -0.046903 -0.026296 0.004471 0.098807 0.091499 0.199918 -0.022752 -0.160775 -0.053026 -0.062909
