0.127913 -0.064891 0.162316 -0.100392 -0.301668 -1.021178 0.010070 0.372711 -0.598574 -0.037028 -0.303932 -0.803181 0.122794 0.047680 -1.267736 0.084331 -0.477244 -0.923833 0.134538 0.327997 0.252245 0.003024 -0.012313 0.331771 0.109539 0.113586 -0.029474 -0.310229 -0.063321 -0.058201 -0.352743 -0.494034
-0.086068 0.129960 0.043674 -0.088038 -0.921479 -0.276010 -0.052393 0.033831 -0.227109 0.065874 0.211552 0.181987 -0.012670 0.085349 0.110940 -0.071651 -0.651814 -0.149243 -0.463213 -0.381810 0.116343 -0.102812 0.011826 -0.264912 0.010155 -0.201657 -0.170970 0.069636 0.144782 0.144864 0.144671 -0.345171
-0.078961 -0.557230 0.074337 -0.319315 -1.334961 -0.267714 0.190423 -0.067613 -0.079008 -0.105079 0.132387 -0.087630 0.197334 0.161193 0.202508 0.073465 -0.148463 -0.363636 -1.275970 0.236297 -0.118201 0.131790 -0.175741 0.216872 -0.104458 0.156583 0.050485 -0.463889 -0.157096 0.051136 -0.448045 -0.904015
-0.175761 -0.481192 0.072398 -0.352028 -0.321843 0.151441 0.263560 -0.541818 -0.182550 0.077917 0.257592 0.051128 -0.054598 0.065785 0.097917 0.076096 -0.077970 0.142380 -0.671461 0.217188 -0.231506 -0.023817 0.121342 -0.836802 0.004301 0.079091 0.011663 -0.609993 -0.005505 0.082929 -0.262643 -0.188652
0.144899 0.113916 -0.019282 -0.007468 -0.343625 -0.304486 0.034292 0.055207 -0.465037 -0.082351 0.084973 0.138332 0.237597 0.125949 0.132705 -0.215123 -0.465969 -0.216020 -0.350507 -0.042228 -0.021127 -0.157574 -0.113546 0.234031 -0.099285 -0.116100 -0.077314 0.042351 0.007572 -0.038070 0.017536 -1.105750
-0.020131 -0.680842 0.060313 -0.000545 0.101389 0.062498 -0.782073 -0.683032 0.084727 -0.000208 -0.613860 -0.420732 -0.801549 -0.010504 -0.061213 0.225822 0.230180 -0.021207 -0.041294 0.196493 -0.965176 0.133860 -0.074679 -0.202164 0.136428 0.003105 -0.063646 -0.087790 0.085160 -0.109301 -0.750409 0.159496
0.097253 0.274706 -0.547799 -0.166501 -0.071139 -0.168857 0.026428 0.252878 0.154622 0.069452 -0.300105 0.035424 0.118567 -0.454961 -0.081705 -0.094848 -0.541204 -0.165661 0.172340 -0.347227 0.063366 0.056819 0.029893 -0.199830 0.048044 -0.031670 0.154410 -0.321600 -0.176062 0.163546 0.286011 0.004673
0.011609 0.142125 -0.104475 -0.026070 0.033689 -0.161107 -0.099740 0.126273 0.120988 -0.023257 -0.185703 0.147296 -0.502570 0.061775 0.205326 0.023918 -0.347564 -0.077566 0.125911 -0.047419 -0.178294 -0.160477 -0.123581 -0.494492 0.045557 -0.195800 -0.104321 -1.462780 0.141483 0.054519 0.285030 0.042417
-0.061580 -0.082114 0.084819 0.022470 0.185296 -0.017209 -0.536521 -0.422233 0.064845 0.110053 -0.608352 -0.115904 -0.303408 0.148808 -0.423044 -0.039609 0.145156 0.058524 -0.007312 0.093344 -0.004340 -0.126194 -0.120040 -0.632032 0.029443 0.038384 -0.140403 -1.073343 -0.005390 -0.144604 -0.702688 0.136098
-0.117758 0.092582 -0.823156 -0.253719 -0.137948 -0.013573 0.076989 -0.040506 -0.015328 0.084244 0.101933 0.035123 -0.004239 -0.256930 0.070452 0.079877 -0.208108 0.107977 -0.245541 -0.721773 -0.171267 0.093875 -0.095959 -0.669799 0.047750 -0.064722 0.039443 0.117698 0.043687 0.078011 0.166155 0.024757
0.116603 -0.019101 -0.508834 0.132118 0.041042 0.131750 0.032011 -0.211270 0.141875 -0.080946 0.098510 -0.020019 -0.503596 -0.432389 0.106551 0.070128 0.165968 0.224109 -0.196526 -0.157001 -0.948784 -0.151599 0.135224 -0.125391 -0.169972 -0.048962 0.094143 -0.007117 -0.107289 -0.151160 -0.006158 0.117273
0.018341 0.133129 -0.059876 0.172817 0.075839 0.085017 -0.882258 -0.883593 0.014986 -0.122723 -0.343486 0.048520 -1.042339 0.121948 -0.272949 -0.121386 -0.021921 0.071528 0.161253 -0.009867 -0.388066 0.084352 -0.116939 -0.320080 -0.054106 0.102062 0.084997 -0.610629 -0.038228 -0.108446 0.309985 0.162948
