-0.082251 -0.023786 -0.160351 -0.004282 0.026587 -0.007741 -0.028057 -0.067801 -0.095380 0.036495 -0.084197 0.099018 -0.049301 0.086937 0.120266 0.089750 -0.068358 0.107464 -0.125748 0.098482 0.051348 -0.051178 -0.132732 -0.177688 0.000168 -0.028181 -0.120161 -0.162268 0.025704 -0.080787 -0.103328 -0.055896 -0.087080 0.067346 0.074556 0.010376 -0.085682 0.021349 0.043279 -0.006364 0.072313 -0.024451 -0.095217 0.010832 -0.072294 -0.111151 -0.080805 -0.017314 0.063713 -0.150024 0.103579 -0.009865 -0.142900 -0.049675 -0.009780 -0.011371 0.060437 -0.083251 0.033195 -0.101753 -0.043554 -0.012413 0.078196 0.040095
0.091820 -0.136592 0.208898 0.086186 0.036594 0.148039 0.157107 -0.235058 0.135765 0.081609 -0.018662 0.042274 -0.103637 0.063717 -0.047558 -0.114625 -0.021008 0.070917 0.031014 0.024640 -0.011408 -0.046236 -0.040026 0.141516 -0.178797 0.226339 -0.175600 0.169677 -0.065839 0.311539 0.252453 -0.156339 -0.036927 -0.026726 0.122061 0.370952 -0.228747 0.102756 -0.022387 0.003201 0.328382 0.037696 -0.146054 0.104799 0.093593 -0.492711 0.182710 0.067911 0.186631 0.107919 0.021439 0.101567 0.144290 0.126000 0.209397 -0.079401 0.075335 0.215794 -0.198707 -0.001753 0.062681 -0.010935 -0.091910 -0.024796
-0.012141 0.036836 0.302453 0.247406 -0.168325 -0.048667 0.081644 -0.210918 -0.008511 0.001146 -0.072546 -0.069709 0.036619 0.040483 0.161799 0.004671 0.054845 -0.089887 0.048074 -0.041602 -0.073979 0.030568 0.134680 -0.044558 0.058526 -0.082723 0.069190 -0.050975 -0.108571 -0.221701 -0.315666 -0.069656 0.021063 0.110713 0.181353 0.260369 -0.051383 0.090088 -0.008942 -0.073357 -0.454059 0.059845 -0.000022 0.022337 0.076628 0.170917 -0.073270 -0.050118 0.031880 0.008889 -0.084298 -0.013534 0.207616 -0.269733 -0.070846 0.034750 0.264672 0.167642 0.052913 0.128569 -0.035935 -0.201524 -0.021257 0.056550
-0.122178 0.114571 0.028615 -0.353058 -0.192991 0.023456 0.174745 -0.242462 -0.056429 -0.082091 0.045851 0.082462 0.165990 -0.040438 0.111493 0.124892 -0.146855 -0.012011 0.018015 -0.148138 0.166852 0.057836 -0.006050 0.142558 0.040987 0.058711 -0.086792 -0.036865 0.020884 0.047199 -0.471150 -0.048710 -0.082957 -0.063620 0.146676 -0.087627 -0.174661 0.068026 0.098599 0.080487 -0.295684 -0.066237 -0.165707 0.019592 0.102022 -0.182878 0.129301 -0.105673 -0.035210 0.021659 -0.068946 0.060221 -0.030942 -0.128116 -0.055736 0.016018 -0.011335 0.016061 -0.219753 0.035946 0.005154 0.021912 0.069546 -0.166383
-0.051733 -0.515618 0.268709 -0.231118 -0.017435 0.175307 -0.315136 -0.357978 0.058170 0.098337 0.064738 0.079118 0.133101 0.094910 -0.241870 0.145610 0.022040 0.042240 0.108101 0.067715 0.009304 0.046880 0.114087 0.217979 -0.234369 -0.005881 0.117093 0.065585 0.013351 0.100427 -0.338204 -0.130822 -0.090542 0.093781 0.193095 0.057025 -0.071870 -0.100995 0.000768 -0.012582 -0.281578 -0.018665 -0.165279 0.017402 0.084399 -0.063207 0.247476 0.067020 0.096058 0.043289 0.063615 -0.070781 0.115793 0.003245 0.105628 -0.077781 0.301692 0.193051 -0.153023 -0.036349 0.037063 0.166234 0.111720 -0.091465
0.037517 -0.302464 -0.239640 -0.022752 0.106477 0.040070 -0.181282 -0.424165 -0.032354 0.059968 0.057437 -0.094122 0.069140 0.096188 -0.021119 0.037581 -0.058126 -0.153540 0.056873 -0.008215 0.266517 0.129074 -0.137300 0.034521 0.264476 -0.096903 0.193812 -0.021097 0.153478 0.009014 -0.318401 0.206778 0.025278 -0.052055 -0.028427 -0.136945 0.163344 0.141359 -0.087546 0.087297 -0.031446 0.115597 -0.210880 -0.004362 -0.037482 0.226807 0.017897 0.050912 0.080616 0.028996 -0.024497 -0.045965 -0.081192 0.008472 -0.035139 -0.144965 -0.135494 -0.054159 -0.159507 -0.031300 0.107115 0.222729 0.141857 0.029554
-0.105217 -0.181629 -0.223209 0.214444 0.166346 -0.005818 0.079928 0.372889 0.001052 -0.043136 0.041754 -0.001513 -0.065408 -0.033511 0.035070 -0.088140 0.082923 0.052491 0.071290 -0.165447 0.123960 -0.007642 -0.127645 -0.011741 0.218911 0.223297 0.060940 -0.044425 -0.047323 0.006785 0.021765 0.227086 0.034725 -0.087003 0.122495 0.381380 -0.068563 0.052007 0.096511 0.070751 0.072256 0.089476 0.176422 0.087672 0.182062 0.398634 0.071090 0.039334 0.025479 0.186763 0.115437 0.089634 0.034825 0.021401 0.153943 0.259081 -0.376216 -0.229377 0.236252 0.126119 0.160805 0.155707 0.183744 0.113201
-0.047257 -0.022994 0.333243 0.077350 -0.146772 0.045756 0.319073 0.183279 -0.005842 -0.007968 -0.155285 -0.000898 -0.089321 0.128477 -0.350129 -0.283549 -0.122000 -0.042396 0.040816 0.062516 0.042290 0.001466 -0.052920 0.023188 -0.116729 0.228445 -0.069422 -0.116145 -0.154724 0.170937 0.423170 -0.136934 -0.077086 0.026598 0.010188 0.519175 -0.712838 -0.008083 -0.037954 -0.117922 0.394984 0.033818 0.108671 -0.025310 0.211920 -0.390179 0.089998 0.085580 -0.103130 0.115541 -0.110098 0.101390 0.020176 0.144569 0.092577 0.387701 -0.291050 0.217093 0.014398 -0.044314 -0.028773 -0.022869 0.012191 0.139948
-0.099813 -0.021970 -0.005061 -0.333646 -0.056078 0.083981 -0.039131 -0.212564 0.123595 0.036844 0.001114 -0.004393 0.051779 -0.206385 -0.082174 -0.045725 0.027857 0.026510 -0.073626 0.044436 -0.024613 0.057662 0.013518 -0.010554 0.078364 0.068890 0.224323 0.059778 0.089857 0.074148 -0.081915 -0.054283 -0.050242 0.105729 0.096695 0.031836 0.080110 -0.065113 -0.089169 0.021845 -0.088316 0.088317 -0.099668 -0.161840 -0.036040 0.134084 -0.082937 -0.080574 -0.016853 0.163682 -0.003512 -0.049414 -0.010216 0.138456 -0.010347 -0.026181 -0.170650 0.050354 -0.177481 0.018900 -0.116204 0.170141 -0.017579 0.001739
-0.089035 -0.072637 0.022069 -0.076134 -0.140545 0.082121 -0.042997 -0.041991 0.022527 0.037156 -0.024839 -0.046809 0.038122 -0.142321 -0.004694 -0.107168 -0.044778 0.015044 0.113392 -0.094197 -0.102238 -0.110613 -0.001298 -0.032585 0.013765 -0.095197 -0.175046 -0.109967 0.048887 0.109727 -0.108156 -0.176117 -0.047974 -0.119784 -0.128648 0.018703 -0.166945 -0.120125 -0.078866 -0.208933 0.076542 -0.093914 0.019677 -0.079820 -0.131386 0.049520 -0.194879 -0.053175 -0.060290 -0.058638 -0.086416 0.107088 0.005224 -0.093839 -0.162660 0.104342 -0.073945 0.021363 -0.089514 -0.084676 0.113040 0.002408 0.102334 0.067236
-0.048463 -0.015489 -0.355997 0.387499 0.312882 0.211110 0.253739 -0.367932 -0.089888 -0.081531 0.115058 0.005579 0.014366 0.214713 0.205153 -0.077428 -0.110101 -0.043442 0.066054 0.089329 0.201139 0.214803 -0.194640 -0.102402 0.254276 0.113105 -0.073656 0.095157 0.021884 -0.058967 0.093922 0.176090 -0.011319 -0.055833 -0.079679 0.079366 -0.083527 -0.093463 -0.113407 0.072251 0.004294 0.105324 0.155959 -0.023856 0.200174 0.229492 0.013295 0.000419 0.179229 0.112431 0.035392 -0.072938 -0.026006 0.195255 0.181643 0.104382 -0.237347 -0.374103 0.460093 0.152107 0.202943 0.080942 -0.122169 0.219412
0.105933 0.064240 0.098693 0.071328 0.248719 0.011385 0.018142 -0.743957 -0.064774 -0.128023 0.063981 -0.044340 0.122529 0.032941 0.141154 -0.065202 0.038433 -0.074287 -0.074568 -0.057361 -0.226857 0.144893 0.066902 0.072260 0.064037 0.327444 -0.358427 0.086682 -0.098353 0.188751 0.274181 0.068709 0.035522 0.122468 0.116475 -0.103370 -0.151497 0.038676 0.093662 0.110540 0.003536 0.057213 -0.118253 -0.008352 0.222459 -0.419371 0.162736 -0.088889 0.273501 0.332321 0.151040 0.077816 0.066097 0.144412 0.350554 -0.113889 0.072727 -0.093293 0.228599 0.125286 0.196214 -0.091056 -0.332835 -0.091338
-0.053397 0.047375 -0.076375 0.159904 0.085381 -0.205665 0.163612 0.541162 0.130733 0.113062 -0.073501 -0.014416 -0.008725 0.319550 -0.039141 -0.037604 0.110163 0.082400 0.133559 0.067424 0.127242 -0.055553 -0.343493 -0.298135 0.145394 0.129747 0.191565 0.015479 -0.140366 -0.020324 0.189988 0.102073 -0.010486 -0.031960 0.045438 0.140790 -0.034851 0.028647 0.058549 -0.102753 0.181857 0.009432 0.165951 -0.006359 0.015656 0.376037 -0.014392 -0.019634 0.070465 0.010779 0.045575 -0.048169 -0.103775 -0.030187 -0.017757 0.259935 -0.103383 0.115976 0.086842 0.019159 0.174675 -0.030776 0.119777 0.045592
0.042849 0.153825 0.213856 0.387821 -0.106593 -0.057375 0.438353 0.401663 -0.095186 -0.032747 0.067945 0.106945 -0.066707 0.270183 0.166073 0.090455 -0.009604 -0.060319 0.024069 0.039222 -0.217968 0.042358 0.119912 -0.066758 0.014571 0.116197 -0.275443 -0.068240 -0.081056 -0.234027 -0.125304 -0.117705 0.021850 0.056944 -0.026980 0.100436 -0.096266 0.109644 -0.028519 0.025509 -0.137421 -0.032294 0.202304 -0.032639 -0.079841 -0.128913 0.061491 0.144256 -0.034622 -0.063186 -0.049087 0.024817 0.152742 -0.079967 -0.016894 0.139501 0.087651 0.118277 0.094656 0.127685 0.021542 0.037314 -0.071716 0.164846
-0.083413 0.028905 -0.194159 0.048910 0.075264 0.004139 0.100627 -0.362171 -0.115002 0.086064 0.048780 0.005020 -0.069500 0.032461 0.371847 0.014996 0.050426 0.038735 -0.064373 0.102498 0.203952 0.088806 0.030929 0.005349 0.089319 0.132641 -0.194277 -0.228177 -0.100618 0.225667 -0.078757 0.028671 0.048612 -0.031518 -0.031302 -0.045401 -0.055052 -0.086308 -0.039599 0.034491 -0.232386 -0.036790 0.220523 -0.022339 0.189164 0.017194 -0.056667 -0.035592 -0.030613 0.164987 -0.070827 0.075179 -0.076019 0.172752 0.198917 0.040482 -0.211404 -0.154247 0.207929 0.144368 0.230150 0.000086 0.120910 0.125133
-0.024827 -0.012545 -0.036049 -0.012646 0.026459 0.137372 -0.018101 0.064562 -0.045582 0.088059 0.074116 -0.079955 -0.047407 -0.018970 -0.147374 -0.100238 -0.123955 0.022322 -0.071897 -0.016413 0.215945 -0.058197 0.067696 -0.041661 0.215552 -0.262948 0.255152 0.085115 0.013384 -0.223905 -0.035024 0.152449 -0.009854 -0.114241 -0.083182 -0.098546 0.154796 -0.063066 0.079662 -0.151560 -0.153370 0.067560 0.174662 0.257642 0.010496 0.232934 -0.106295 -0.098371 -0.209681 -0.124998 0.007523 0.075000 0.130195 0.003518 -0.070765 -0.028071 0.023182 0.140869 0.006645 0.043839 -0.045145 0.134865 0.060273 0.235910
0.078925 0.161494 0.064382 -0.134118 0.012042 0.269248 -0.194835 -0.314538 0.088520 0.005619 0.200043 -0.028161 0.098846 0.181079 -0.012029 0.107814 0.127890 -0.042972 0.092844 -0.013725 0.245702 0.067404 -0.079030 0.119936 0.046014 -0.243890 0.508424 0.329248 0.010564 -0.243599 -0.349669 0.144449 -0.087089 -0.096616 0.080829 -0.289566 0.283645 0.118489 -0.090097 -0.083465 -0.570333 0.029590 0.407657 0.038409 -0.180123 0.324472 0.145539 0.112800 -0.323093 -0.228250 0.070915 0.157227 0.238331 -0.136926 -0.306903 -0.068075 0.191451 0.243322 -0.165279 0.193562 0.197597 0.077419 0.043005 0.451372
-0.108299 -0.352307 -0.146626 -0.114221 -0.014379 0.191592 -0.309645 -0.528308 0.084581 0.086444 0.059659 -0.095241 -0.030789 0.095822 0.026659 0.052731 0.007193 -0.105164 -0.108842 0.050496 -0.022158 0.050764 -0.070485 0.143252 -0.152647 0.068490 -0.121689 0.179228 0.148815 -0.053023 -0.227156 0.058271 0.073669 0.034664 0.015830 0.267230 0.012333 0.071400 -0.028006 0.075435 -0.130408 0.003010 -0.193867 0.081548 0.111480 -0.156258 0.104981 -0.011147 0.052156 0.014394 -0.022395 0.091874 -0.008275 -0.117037 0.024042 0.001642 -0.103549 -0.074686 -0.132907 0.110250 -0.016517 0.107816 -0.115166 0.052614
-0.046305 0.141167 0.218875 0.092020 -0.206822 -0.189640 0.259080 0.417726 -0.060312 0.102989 -0.076476 -0.037672 -0.040720 0.038641 -0.405460 0.047060 0.051351 -0.005601 0.131889 0.011638 0.065417 0.005178 0.246928 0.088099 -0.118540 0.100109 -0.141831 -0.281416 0.121850 0.088203 -0.132756 -0.096929 -0.054122 0.045293 0.157049 0.213329 -0.274341 -0.088611 -0.010021 -0.125489 0.094291 0.022465 -0.393703 0.124391 -0.017860 -0.153416 0.083070 0.021511 0.015170 0.122307 -0.115835 -0.027456 0.079443 -0.066548 0.144555 0.126800 0.045549 0.182106 -0.246620 0.033677 -0.175435 -0.195625 -0.009969 -0.214073
-0.099623 0.194179 0.156910 0.184158 -0.115180 -0.090220 0.289996 0.920858 0.084082 0.079311 0.106572 0.056189 -0.057912 0.235600 -0.132935 0.080022 -0.058945 -0.048535 0.186484 0.049356 0.037304 0.120540 -0.067938 -0.052555 0.222191 -0.133104 0.396059 -0.272172 0.023028 -0.192217 -0.157063 0.162282 -0.000463 0.033892 0.124302 0.123006 0.164227 -0.100253 0.000079 0.047015 0.029578 -0.055004 0.067902 0.152248 0.007457 0.330997 -0.085418 0.128785 -0.141174 -0.187688 -0.064910 -0.109307 0.105632 -0.235316 -0.187303 0.224290 0.106969 0.276341 0.223699 0.016171 -0.018745 -0.071615 0.152904 0.060825
0.062873 0.002426 0.219965 0.213234 0.186315 0.088854 0.253623 -0.301004 -0.021146 0.049765 0.051327 -0.004067 -0.238364 0.167561 -0.061960 -0.288417 -0.104242 0.157788 -0.046352 0.066962 0.034661 0.117075 -0.122358 0.091781 0.044101 -0.115752 0.053216 0.117749 -0.316380 0.068040 0.174416 -0.108750 0.122473 0.228671 -0.064828 0.753656 -0.112482 -0.018724 0.008732 -0.130985 0.260302 0.030444 -0.143339 -0.005153 -0.065190 -0.029866 -0.022156 0.020271 -0.162956 -0.006717 -0.054455 0.072145 0.140810 0.177940 -0.047710 0.179343 0.010844 -0.014097 0.190497 -0.134328 0.056034 -0.185642 -0.172249 0.106433
0.002522 0.083793 0.092708 -0.127091 -0.036559 -0.026954 0.044534 -0.065060 0.079807 0.031194 0.065713 -0.082065 -0.095787 -0.004967 -0.052409 -0.059238 -0.087926 0.051609 -0.011110 -0.117668 -0.108679 -0.067755 0.082324 -0.104005 -0.042273 -0.107485 0.038084 0.071275 -0.029387 -0.116021 -0.095894 0.086328 0.041748 -0.101167 -0.062811 0.033716 0.002656 -0.054469 -0.004696 0.024904 0.039463 -0.008014 0.045920 0.015097 -0.010207 0.036049 0.081301 -0.106757 0.006237 0.041411 -0.103894 -0.039748 0.111177 -0.050468 -0.097690 0.081797 -0.112510 -0.073030 -0.056600 -0.008412 -0.063491 0.018260 -0.043904 -0.049932
0.086066 -0.116945 0.043809 0.046941 0.025754 -0.002327 -0.004298 -0.078121 0.054243 0.109532 -0.109485 0.069627 0.012030 -0.104885 0.054942 -0.015875 0.095129 0.039864 0.025041 0.004306 -0.042766 -0.039557 0.013522 -0.146748 -0.142182 -0.102511 -0.076127 0.062281 -0.040601 0.059128 0.002097 -0.136969 0.064203 -0.082420 0.027366 0.105366 -0.066107 -0.050677 0.010223 -0.098529 -0.088192 0.047090 -0.095051 0.038749 -0.127304 0.051593 0.011099 -0.089039 -0.113907 0.006920 -0.018106 0.060503 -0.030993 0.056827 -0.147482 -0.097420 0.046434 -0.119268 -0.147514 -0.014043 -0.168200 -0.015420 0.082301 -0.111903
0.027979 0.001548 -0.180629 0.148017 0.054835 -0.250579 0.337519 0.506755 -0.068714 -0.020578 -0.176720 -0.079399 -0.497042 0.287609 -0.124008 -0.272345 -0.046574 -0.099619 0.152551 0.035958 0.070323 -0.084101 -0.216212 -0.427726 0.134742 -0.017501 0.006246 -0.070561 -0.625543 -0.089340 -0.056390 -0.092153 0.048913 0.149426 -0.103081 0.243098 0.101098 0.107837 -0.015752 -0.154830 0.238127 -0.085864 0.286435 -0.126578 0.076821 0.187529 -0.183197 -0.075818 -0.031690 -0.092196 -0.055280 -0.033942 -0.117925 -0.073431 -0.068913 0.291168 -0.290024 -0.002199 0.124731 0.039167 0.074964 -0.045111 0.012657 -0.082576
0.058479 -0.004305 -0.007257 -0.118109 -0.067046 0.092952 0.078786 -0.048637 -0.060736 -0.109658 0.007530 -0.100649 -0.009760 -0.088116 -0.060806 0.035051 -0.024621 -0.101131 -0.102910 0.059749 -0.115531 -0.158776 -0.044171 -0.149139 -0.043860 -0.116678 0.001997 -0.052264 -0.115104 -0.076227 -0.015737 -0.136543 -0.052962 -0.108574 -0.166922 -0.060915 -0.131172 -0.038761 0.068888 0.007642 -0.125344 0.034511 0.015657 0.089339 -0.110486 -0.033600 -0.120137 -0.000991 0.058877 -0.006841 -0.113570 -0.096091 -0.101719 0.103524 -0.045022 -0.118142 0.055294 -0.035573 -0.046770 0.034282 -0.116894 -0.075048 -0.015714 -0.092786
0.114737 0.085892 0.037271 0.003053 0.067685 -0.007488 -0.000134 0.153892 -0.088115 -0.107591 0.026546 0.101869 -0.146143 -0.038735 -0.047090 -0.069906 0.071779 0.029200 0.152581 0.029711 0.056273 -0.083657 -0.081422 0.094737 -0.126882 -0.128646 0.046534 -0.131128 -0.009058 -0.059090 0.021508 -0.030131 -0.071808 -0.046031 -0.032250 0.121937 0.035856 0.081396 -0.019363 -0.144525 -0.107939 -0.050382 -0.066294 -0.074865 -0.060880 -0.058639 -0.091852 0.063919 0.090098 -0.068335 0.105147 0.067396 -0.111165 0.035208 -0.035980 0.027007 -0.001560 -0.028582 -0.126492 -0.148029 0.058102 -0.048952 -0.064600 -0.103113
0.035579 0.087600 -0.114002 -0.093211 -0.007522 -0.003281 0.041847 -0.104048 0.077598 -0.085175 -0.120363 0.065607 0.054735 0.034887 -0.039880 -0.115747 0.088780 0.032209 -0.047601 0.066124 0.026499 0.096243 0.097388 -0.107546 0.039232 -0.088225 -0.132612 -0.093702 -0.016887 0.089898 -0.119184 -0.136008 0.059907 -0.038745 -0.065075 -0.125620 -0.083684 0.073528 0.059887 0.089012 -0.044485 0.039798 -0.117457 -0.120220 -0.121222 -0.037077 -0.138357 -0.111514 -0.145145 0.048049 -0.114238 0.075012 -0.047625 -0.034526 0.015808 0.017093 0.106577 0.051267 0.065241 -0.040553 0.033735 -0.135891 0.086058 0.078019
-0.023902 -0.094221 -0.216880 0.045373 0.143113 -0.080458 0.108542 -0.153220 0.038443 0.005418 -0.244323 0.087481 -0.199270 0.185958 0.098877 -0.330986 -0.080760 0.017339 -0.168124 0.028658 0.247412 -0.045041 -0.296424 0.070903 -0.231847 0.153473 -0.105305 0.277142 -0.269583 0.328252 0.265911 -0.137561 -0.070825 0.006474 -0.018346 0.449781 -0.707124 -0.046170 -0.074683 -0.081705 0.643810 0.004696 -0.119372 0.062719 0.040759 -0.306068 0.168949 -0.047903 0.073936 0.006998 -0.016956 -0.089058 0.015029 0.051692 0.074397 0.063766 -0.521760 -0.163128 -0.045857 0.074473 0.009169 -0.165812 -0.066854 -0.235882
0.078027 -0.085129 -0.008008 0.039915 -0.134210 0.067794 -0.010783 0.033363 0.086001 0.095407 -0.095835 0.009374 -0.061641 -0.090559 0.090777 0.071572 -0.037720 0.016042 0.046923 -0.100362 -0.002020 -0.135539 -0.056471 -0.128519 -0.001597 0.095803 -0.109114 0.041092 -0.048367 -0.071424 0.002574 -0.083633 -0.017310 -0.055960 -0.128730 0.073869 0.000921 0.077474 0.096548 0.054183 -0.103288 0.078588 -0.026560 -0.112630 -0.153366 -0.110973 0.014938 -0.086041 -0.125008 -0.035014 -0.064615 0.069932 -0.117346 -0.137601 0.037890 -0.050609 -0.060835 0.020582 -0.143671 0.040944 -0.142414 -0.024650 -0.004136 0.022891
0.052865 -0.032169 -0.009737 0.019318 0.030473 -0.052882 -0.048935 -0.052280 -0.059912 -0.101948 -0.062165 0.027266 -0.124618 -0.092076 -0.118002 0.051269 -0.014919 0.020444 0.060027 -0.023219 -0.007085 0.058877 -0.054988 -0.038304 -0.112752 0.039072 -0.048270 -0.047314 -0.114851 -0.040656 0.055467 0.010876 -0.018941 0.066165 -0.007256 -0.024448 -0.069761 0.090117 0.086021 0.059512 -0.079060 -0.055673 -0.168872 0.079331 -0.024712 -0.090264 -0.064087 -0.084522 -0.124827 0.050693 -0.061675 -0.087296 0.106897 -0.119661 -0.022688 -0.085819 0.087329 -0.039568 0.029629 -0.111410 -0.131457 -0.006304 0.060302 -0.025705
-0.103671 -0.028254 0.098468 0.040475 0.050190 0.067728 -0.051699 -0.419938 -0.067931 -0.028039 -0.068633 0.066851 0.047505 0.241551 -0.097098 -0.180888 0.046943 0.076016 -0.029017 0.092860 0.263181 0.132666 0.044704 0.064071 -0.135350 0.166316 -0.360649 -0.008005 -0.111064 0.218533 0.175005 -0.202950 0.038823 -0.052842 0.050116 0.185305 -0.339566 0.011106 0.082533 0.009997 0.197808 -0.041556 -0.097171 0.098725 0.143440 -0.608392 0.057270 0.069952 0.035820 0.085554 -0.088143 0.005975 0.108679 0.015005 0.176476 -0.049625 -0.104508 0.119450 -0.075750 0.045352 -0.031369 -0.123595 -0.048418 -0.114695
0.008375 -0.323295 0.196724 -0.176273 -0.056764 0.301395 -0.244225 -0.357904 0.062665 0.085360 0.186832 0.040900 0.188622 0.011784 -0.178739 -0.116011 0.055401 0.086652 -0.172161 0.033856 0.317853 0.095171 0.067055 0.116412 0.011535 0.011940 0.196725 0.177325 0.063001 0.090906 0.012070 0.130294 -0.083919 0.062199 0.213387 -0.134212 0.043353 -0.037472 -0.042451 -0.009324 -0.056968 -0.065626 -0.331295 0.087050 0.025836 -0.044431 0.302674 -0.062952 0.021256 0.178505 -0.115945 -0.070500 0.249324 0.175654 0.032340 -0.387976 0.168886 0.127807 -0.121345 0.113966 0.037206 0.188031 -0.172891 0.145730
