-0.016306
0.009722
0.014760
0.002501
0.332246
0.001967
-0.076670
0.337889
0.046250
-0.016252
-0.004804
-0.022235
0.000571
0.003083
-0.004652
0.094381
0.005876
0.074767
0.300906
0.009398
-0.167627
-0.139663
-0.011953
-0.018645
-0.025753
0.016418
0.023232
0.013303
-0.021198
-0.002722
-0.157521
0.004126
0.052356
-0.229571
-0.478528
0.155191
-0.027005
0.067501
0.234075
0.101853
0.110453
0.021763
0.090246
0.221904
-0.118512
0.001902
-0.005477
-0.029161
0.056850
-0.011394
0.230246
-0.287682
-0.022875
-0.017896
-0.009918
0.015088
0.057418
0.063076
0.115942
-0.019495
0.310071
-0.004579
-0.019535
-0.020304
0.147836
-0.044629
0.169449
0.008604
0.110778
-0.019869
0.271776
-0.062671
-0.038545
-0.026253
-0.007203
-0.021695
-0.005811
-0.171313
-0.004402
-0.025043
0.153211
-0.011165
-0.024053
0.001535
0.824194
0.141774
-0.003643
-0.018342
-0.018437
-0.022535
0.100794
-0.008366
0.155904
0.093519
-0.005011
-0.000586
-0.009402
-0.021076
0.122842
-0.059226
0.004065
-0.024682
-0.015044
0.162346
-0.016666
0.005868
-0.006933
0.928019
0.001411
-0.160587
0.274621
0.079258
0.202862
-0.066656
-0.042969
-0.155645
0.087592
-0.020506
-0.007900
-0.007461
-0.054016
0.175258
0.069358
0.074456
-0.119063
0.027482
0.071221
-0.004712
