-0.073864 0.070380 0.190795 0.003025 -0.173657 -0.411552 0.065331 -0.070799 -0.061537 0.095595 -0.067198 0.052005 0.430362 -0.087362 0.287391 0.052335 0.146220 0.072245 0.023358 0.043187 -0.073385 0.274250 -0.132840 0.167244 -0.219012 0.088706 -0.098860 -0.074463 -0.087733 0.018623 -0.142467 -0.073566 -0.092784 -0.143393 -0.081202 -0.275567 0.177770 -0.058529 0.244919 -0.036539 0.061661 0.023709 -0.018254 -0.070362 0.109792 0.120923 0.187515 0.307593 0.009978 -0.023826 -0.145255 -0.117584 -0.004475 0.012515 -0.343659 -0.068915 -0.103763 0.022851 0.362734 -0.080563 -0.045609 0.163769 0.149612 -0.170853
0.273522 0.032095 -0.003003 0.140118 0.128140 0.185895 -0.061266 -0.325896 0.247352 -0.065980 -0.017930 -0.010175 -0.050178 -0.176050 -0.009303 0.095062 -0.165765 -0.171356 -0.119082 -0.085847 0.083325 -0.073890 0.280935 -0.108998 -0.166890 0.036601 0.077351 -0.005383 0.082100 -0.030972 0.050664 -0.241269 -0.080774 0.269731 -0.079320 -0.244214 -0.229862 -0.233765 -0.239437 -0.137811 -0.093382 0.000993 -0.182432 -0.128931 -0.206626 0.047394 -0.064199 0.234263 -0.122070 0.075872 0.008766 0.173403 0.047054 0.036404 0.208493 0.551013 -0.117020 -0.188172 0.110197 0.140122 -0.021775 0.028799 0.046801 -0.271178
-0.039972 0.007827 0.202626 0.037850 -0.376384 -0.289470 0.010986 0.122128 0.156259 0.161632 -0.111537 -0.163574 0.374192 -0.078110 -0.029451 -0.046936 -0.141386 -0.137933 -0.346035 0.005317 -0.165817 -0.051579 -0.073624 -0.042821 -0.048907 -0.106092 -0.116134 0.164047 -0.117428 0.187393 -0.073360 0.076113 -0.030518 -0.001687 0.115788 0.085851 0.072751 0.265008 0.037247 0.145963 -0.012014 -0.039822 0.040041 -0.180841 0.058497 0.154050 0.051956 0.028184 0.036331 -0.103951 -0.121883 -0.360683 0.139241 0.081891 -0.176972 -0.129580 -0.198349 0.173567 0.183026 0.494575 -0.154085 -0.261588 0.134946 -0.057907
0.180107 -0.423494 0.062832 0.207995 0.116908 -0.252428 -0.420306 0.111946 -0.045352 0.261709 0.005820 -0.127775 -0.074983 0.233474 0.287257 -0.166837 0.220952 -0.124887 -0.214566 0.157901 -0.196957 0.053773 -0.264216 0.062748 -0.030363 -0.292821 -0.024119 -0.176667 -0.153814 -0.217435 -0.035817 0.073156 -0.113314 -0.025012 0.127945 -0.135000 0.079230 0.124510 -0.047641 -0.027305 0.236989 -0.243460 0.192810 0.088006 -0.165062 -0.160075 0.126558 -0.379422 0.149255 0.016278 -0.308874 -0.034461 -0.044101 0.143168 -0.060327 0.141336 -0.089932 0.141190 0.568883 -0.187460 -0.132208 -0.394834 0.253671 -0.030364
-0.232996 0.055311 -0.062475 0.017391 0.408472 -0.033573 -0.043511 0.095163 0.146289 -0.270409 0.040572 -0.449023 0.044050 0.032697 0.230071 0.051979 0.248375 0.129306 0.172631 -0.050624 0.209391 0.395782 -0.016687 0.277743 0.126616 0.305487 -0.155783 0.048321 0.016095 0.240873 -0.200021 0.290885 -0.195986 0.190441 -0.348037 -0.113268 -0.284352 0.090796 -0.212039 0.057696 -0.258109 0.073478 -0.361526 -0.218244 -0.050192 -0.097680 -0.258545 0.231033 0.061969 -0.040119 0.076327 -0.280953 0.140905 0.004871 -0.535520 -0.090921 -0.030468 0.097608 -0.106309 -0.045042 -0.232428 -0.061761 0.065419 0.054478
0.345141 -0.072461 0.258328 -0.067539 -0.181470 -0.148837 0.212973 0.008813 -0.168626 -0.193867 -0.079677 -0.226596 0.226679 -0.187067 -0.037396 -0.174694 -0.066943 -0.029119 -0.075072 0.102039 -0.195731 -0.070786 -0.134933 0.035135 -0.038046 -0.181099 -0.057559 0.132310 0.100945 -0.006578 -0.123383 0.165397 -0.055129 -0.059836 0.000330 0.083385 0.036442 -0.054092 0.117418 -0.046487 -0.059931 0.120599 0.139097 0.092523 0.135795 -0.072515 0.129208 0.007857 0.295817 0.080577 -0.098646 -0.049620 -0.088308 -0.187460 -0.146662 0.244185 0.058969 -0.359060 -0.007537 -0.147813 0.078933 0.049638 -0.107992 -0.117447
-0.224331 0.159687 -0.347788 0.227250 0.194370 -0.066224 -0.261791 -0.186226 0.326217 -0.305954 0.503419 -0.321909 -0.092879 -0.096717 0.075901 0.056342 -0.135749 -0.060466 0.038913 0.056138 0.016974 0.398739 0.096528 0.306745 0.049275 0.314124 -0.136169 -0.002985 -0.016727 0.085799 0.038641 -0.017885 0.150873 -0.122914 -0.124209 -0.260871 -0.116757 -0.326955 -0.060707 -0.220362 0.218668 -0.149809 0.044686 0.106677 -0.177879 0.066039 -0.344184 0.162614 -0.210744 -0.013903 0.008932 0.134910 -0.090170 0.331170 0.556574 0.004563 0.129849 0.141041 0.044426 0.112417 0.352096 -0.283659 -0.233543 -0.202074
-0.298774 -0.297677 0.036224 0.336938 0.034644 -0.026388 0.340198 -0.020395 0.083095 0.573929 0.055315 0.108011 -0.030677 -0.176001 -0.127554 0.117496 -0.301716 -0.401802 -0.193119 0.007432 0.104901 0.058355 0.072446 0.345435 0.081440 -0.074732 -0.073989 0.028370 -0.037183 0.125256 -0.045287 0.363023 0.089068 0.015553 0.048303 -0.220161 -0.087766 -0.079143 -0.088236 0.036554 -0.008042 -0.100673 0.003713 -0.197664 -0.144635 -0.336441 -0.299981 -0.237063 0.204495 -0.126660 -0.091248 -0.176082 0.410368 0.298765 0.160001 0.384841 -0.075570 -0.080681 0.296581 0.094049 0.043660 -0.128991 -0.224219 -0.438099
0.336701 -0.006413 -0.009212 0.138198 0.140200 -0.122229 -0.477424 -0.155838 -0.251026 -0.059134 0.075188 -0.300090 -0.045685 0.135792 -0.278569 0.240251 0.202385 0.125679 -0.017317 0.105089 0.090514 -0.041415 0.228341 0.198463 -0.033003 0.076845 0.279162 -0.023802 -0.234776 -0.059344 0.200119 -0.169874 -0.071579 -0.078088 -0.084188 -0.265900 -0.126301 -0.084704 0.085119 -0.245874 0.051632 0.101536 -0.032550 0.035874 -0.303042 0.245524 -0.195868 0.270139 0.049691 0.025822 0.018304 0.035758 0.161751 -0.098208 0.178265 0.111562 0.201805 -0.156703 -0.363337 -0.013870 0.094753 -0.105984 0.005359 0.090119
-0.077923 0.151532 -0.165848 0.125830 -0.140383 0.119491 -0.031750 0.094404 0.076043 0.045463 0.062471 0.114937 -0.019951 0.226578 0.045284 0.116884 0.085840 0.133403 0.061914 0.107370 -0.039378 0.256167 0.006191 0.093188 0.002104 0.106988 0.110579 -0.012248 0.204860 0.139101 0.079964 0.016347 0.108008 -0.039256 0.062773 -0.064376 0.080872 -0.036179 0.092534 0.013361 0.087523 0.028191 0.013679 -0.008363 0.011276 -0.014305 -0.095032 0.044468 -0.183786 -0.151749 -0.047958 0.037073 0.029677 -0.000893 0.164135 0.131484 0.023372 0.100818 0.000155 0.134460 0.027416 0.085172 0.117917 -0.015263
-0.219550 -0.014605 0.009053 0.126479 -0.111539 0.034201 -0.076357 -0.269848 -0.005938 0.416758 0.214352 0.177432 -0.007386 -0.073004 0.018739 -0.036134 -0.189471 -0.017626 -0.125953 0.056735 0.090133 -0.259972 0.127261 -0.100912 -0.104457 0.250756 -0.008628 0.124516 -0.158863 0.137932 0.084444 -0.003939 0.077988 0.253634 -0.093612 0.225809 -0.162489 -0.041085 -0.028859 -0.012338 0.221075 -0.022138 0.087385 -0.052876 -0.040109 0.126915 0.121864 0.003861 -0.059391 -0.153752 -0.273967 0.045310 -0.107415 -0.066760 0.287422 0.012331 -0.015006 0.177316 0.216909 0.091976 0.215727 0.020442 -0.330780 0.005840
0.021479 -0.096498 -0.011027 -0.244136 -0.341646 -0.273381 0.516076 0.208344 0.484975 0.150145 -0.112567 0.062020 0.291224 -0.203699 0.040823 -0.149243 0.043521 -0.147563 -0.024767 0.087801 -0.083651 -0.016577 0.037956 -0.121556 0.046010 -0.104821 0.284519 -0.004999 0.109840 0.237864 0.239194 0.023552 0.218510 0.057956 0.159268 -0.034362 0.054864 0.261914 -0.033999 -0.159879 0.105940 -0.279108 0.081982 -0.434586 0.232517 -0.104235 0.141535 0.028509 0.294479 -0.015569 0.033615 -0.147012 -0.148368 -0.162954 -0.111772 -0.345334 -0.198966 -0.084377 -0.411034 0.418890 0.157229 -0.283674 -0.205490 0.183702
0.188557 0.396299 0.039771 0.276451 -0.160923 -0.463787 -0.364523 0.349532 -0.009309 -0.277102 0.230088 -0.254476 0.356253 0.348246 0.406684 -0.064635 0.120159 -0.118691 -0.071478 -0.119091 -0.147761 0.008321 -0.132883 -0.014087 -0.142961 -0.118687 -0.266370 -0.128915 -0.199152 0.014426 0.048151 -0.124605 0.000310 -0.014374 -0.095559 -0.091551 -0.041114 0.059221 0.107629 0.033278 0.264786 0.037047 -0.010370 0.115481 -0.204372 0.205500 -0.362967 0.192718 -0.107492 -0.311767 0.034161 -0.140229 -0.064848 -0.155467 0.324367 -0.449962 -0.415948 0.139513 -0.305705 0.379950 0.242727 -0.049803 -0.195420 0.280541
-0.057824 0.022832 -0.053321 0.060891 -0.073816 -0.134626 -0.033599 0.058119 -0.021685 0.065698 0.120901 0.008106 -0.017232 0.251465 0.111212 0.105304 -0.052647 0.016332 0.077443 -0.063242 0.112203 -0.083976 -0.016741 -0.115118 0.093306 0.075594 0.017309 -0.000082 -0.165828 -0.077704 -0.021243 0.092991 0.047468 -0.054382 -0.087049 0.045066 0.036011 0.100129 0.078359 0.052321 -0.036729 -0.123990 0.167732 0.051833 0.043378 -0.046532 0.053572 -0.112718 -0.065854 0.089587 -0.120991 0.018783 0.089543 -0.059386 -0.130803 0.031344 0.074426 -0.007151 0.076042 0.016441 -0.023498 -0.020018 -0.049920 0.027459
0.025953 0.104775 0.158033 0.068134 0.160727 0.277857 -0.465944 0.065934 0.028906 -0.239542 -0.139549 -0.114863 -0.325969 -0.280585 0.125184 -0.256492 -0.032480 0.312550 0.101071 0.224878 0.207340 -0.020340 0.254581 -0.023930 0.242805 -0.295556 -0.029761 -0.181551 -0.017324 0.199029 -0.074857 0.051950 -0.133174 0.136838 -0.053341 0.277763 -0.065489 0.066672 -0.075983 0.011419 -0.016194 0.034078 -0.044876 -0.195847 0.076573 -0.097345 0.062362 0.139083 0.017690 -0.011390 -0.214857 -0.076052 -0.246033 -0.103148 0.238788 -0.136043 -0.065378 0.019606 0.232616 -0.026947 0.360285 0.058421 -0.385206 0.106711
0.304336 0.079285 -0.197035 -0.225041 0.200842 0.063084 0.005753 -0.076744 -0.153066 0.168476 0.323794 0.087238 -0.067846 0.016100 -0.054198 0.152676 -0.092257 0.109292 -0.134518 0.150499 0.127399 -0.125221 0.181905 -0.155828 -0.102955 -0.115696 -0.069117 -0.171062 0.217245 0.161732 -0.014464 0.386962 0.058315 -0.050165 0.163304 -0.001808 -0.054378 0.210372 -0.273442 -0.131425 -0.120874 -0.105140 -0.076603 -0.032449 -0.116593 0.024319 0.135889 -0.060389 0.321961 -0.191202 0.393318 0.037106 0.048302 -0.212689 0.023849 0.173405 0.149736 0.280902 -0.253425 0.126306 0.082731 0.242926 -0.172497 -0.099152
