0.000420
0.035404
0.079268
0.044671
0.113350
-0.019921
-0.045428
-0.031883
-0.008298
-0.004531
-0.129557
-0.220519
-0.235092
-0.242433
-0.191031
0.030385
-0.054528
-0.117248
-0.240743
-0.170837
0.068753
0.082614
0.099052
0.152436
0.154590
0.069170
0.077266
0.081567
0.077099
0.105269
0.055132
0.034531
0.033076
0.052270
0.026088
-0.075570
-0.107312
-0.013670
-0.085282
-0.081681
-0.100116
-0.058553
-0.047643
-0.061150
-0.084863
0.045170
0.075161
0.078195
0.068401
0.072810
0.051331
0.019298
0.012575
-0.014542
-0.002658
-0.006525
-0.002659
0.002063
0.040283
0.031368
-0.075714
-0.075847
-0.069741
-0.010982
-0.016892
-0.068690
-0.048000
-0.043640
-0.035025
-0.043766
-0.014306
-0.026266
-0.052170
-0.002614
-0.016828
0.064711
0.035932
-0.005637
-0.004942
0.011486
0.057127
0.050174
0.084707
0.059038
0.031710
0.123176
0.141828
0.136159
0.173415
0.107169
0.032079
0.063552
0.085414
0.106644
0.089274
0.037799
0.046310
0.023911
0.058499
0.028107
0.016934
0.017870
-0.028732
-0.005666
-0.009683
0.012229
0.000252
-0.006699
-0.010592
-0.002267
-0.014026
-0.008889
-0.015701
-0.023351
0.009756
0.004247
0.020838
-0.001444
-0.025582
0.013243
0.011681
0.001060
0.009744
-0.021330
0.012286
-0.053475
-0.013093
-0.035466
-0.009043
-0.019778
-0.045763
-0.052528
-0.031115
-0.019792
-0.059529
0.060894
-0.018084
-0.032195
0.028251
0.132944
-0.088048
-0.043928
-0.041855
-0.037692
-0.000523
-0.129558
-0.114681
-0.110464
-0.142729
-0.158100
-0.018687
0.022802
-0.051882
-0.039434
-0.039251
-0.170587
-0.211113
-0.168730
-0.232900
-0.214893
0.007335
-0.130687
-0.220500
-0.176912
-0.249145
0.189856
0.114301
0.011524
-0.025945
-0.092187
0.030017
0.050595
-0.032439
-0.001966
-0.021231
-0.075359
-0.024872
-0.008250
-0.040999
-0.067631
0.024603
0.059393
0.087907
0.088449
0.017799
0.021667
0.060329
0.150076
0.097649
0.082883
-0.019046
-0.052609
0.009274
0.060287
0.053162
0.002305
-0.019763
-0.023476
-0.099008
-0.141416