-0.060377
-0.041984
-0.037263
-0.057420
-0.057173
-0.092348
-0.044461
-0.040354
-0.085688
-0.052519
-0.070958
-0.072220
-0.062638
-0.083373
-0.069267
-0.060397
-0.046250
-0.040926
-0.068317
-0.061640
-0.049373
-0.052389
-0.055647
-0.030290
-0.048564
0.008491
0.030223
0.026070
0.008712
0.008516
0.023758
0.016672
-0.010302
0.006289
0.027460
0.044823
0.015688
0.011770
0.031955
0.037867
0.041830
0.016907
0.020843
0.030687
0.023817
0.046061
0.018797
0.022205
0.031926
0.012851
-0.029134
-0.026556
-0.040186
-0.024779
0.003267
-0.013434
-0.038327
-0.022600
0.004283
-0.022847
-0.018707
-0.050153
-0.012105
-0.040290
-0.004988
-0.040808
-0.046012
-0.052398
-0.034836
-0.060184
-0.074479
-0.040786
-0.055803
-0.044647
-0.052028
0.058217
0.051640
0.039290
0.027054
0.063295
0.042061
0.029615
0.048958
0.045157
0.050703
0.059461
0.029930
0.017774
0.030340
0.066566
0.058097
0.043448
0.029228
0.061498
0.041548
0.008717
0.018600
0.017286
0.017235
0.043504
0.022610
0.014777
0.061712
0.031717
0.019075
0.018420
0.043769
0.086024
0.032044
0.034570
0.025992
0.039837
0.064592
0.025958
0.037056
0.032854
0.026845
0.034392
0.039288
0.041104
0.051999
0.021841
0.031431
0.049803
0.038722
-0.007722
-0.048599
-0.027354
-0.022772
-0.027097
-0.014243
-0.020111
-0.014265
-0.041759
-0.033998
-0.046156
-0.049548
-0.036911
-0.051684
-0.013999
-0.034864
-0.026457
-0.018233
-0.043857
-0.039621
-0.001767
-0.029537
-0.026482
-0.020674
-0.027087
-0.002969
-0.027174
-0.035854
0.002522
-0.023127
0.000814
-0.020451
-0.031140
-0.030498
-0.000353
-0.040000
-0.031387
-0.034667
-0.057005
-0.046459
-0.045465
-0.039216
-0.060994
-0.052374
-0.018599
-0.047106
-0.038502
-0.019515
-0.033359
-0.012647
0.056493
0.065286
0.041083
0.060146
0.074840
0.051601
0.065573
0.086091
0.089031
0.061138
0.078942
0.082573
0.059703
0.073976
0.102477
0.056961
0.052831
0.040288
0.075274
0.055243
0.053923
0.064643
0.056655
0.089030
0.051825
0.070621
0.033631
0.068271
0.060117
0.076377
0.005576
0.042435
-0.002425
0.011152
0.001035
-0.017001
-0.024548
0.009505
0.006199
-0.009391
-0.001940
-0.013222
-0.017334
0.013020
-0.017287
-0.024159
-0.010539
-0.018156
0.023046
-0.019028
-0.005390
0.021711
0.018834
0.034009
0.008043
0.030191
0.036562
0.028325
0.013220
0.027326
-0.000506
0.043985
0.052783
0.005258
0.053143
0.042097
0.019367
0.013370
0.035077
0.042528
0.052420
0.060013
0.062837
0.036533
0.058063
-0.014647
0.003550
0.027872
-0.016579
-0.001722
0.037369
0.029849
0.035023
0.048025
0.027821
0.042656
0.068740
0.067920
0.068335
0.044642
0.080046
0.037187
0.077273
0.057346
0.047986
0.045675
0.045155
0.045377
0.046990
0.022603
-0.022723
-0.028898
-0.016436
-0.029668
-0.042634
-0.049826
-0.031724
-0.036010
-0.028301
-0.058869
-0.078069
-0.033054
-0.040679
-0.037289
-0.063785
-0.026336
-0.008961
0.011742
-0.006355
-0.021364
0.014912
0.026441
-0.001333
0.012871
0.018860
0.018476
0.005728
0.044939
0.034177
0.048961
0.048771
0.037299
0.051610
0.058897
0.042159
0.003210
0.012123
0.011003
-0.003077
0.031164
-0.004665
0.003774
0.015534
-0.013405
-0.022239
-0.044932
-0.033182
-0.042065
-0.036333
-0.028988
-0.041963
-0.038990
-0.040533
-0.029555
-0.015595
-0.050324
-0.032291
-0.064977
-0.026545
-0.034984
-0.060778
-0.044986
-0.073125
-0.025841
-0.045520
-0.028611
-0.049415
-0.043523
-0.057759
-0.026178
-0.016243
-0.029409
-0.025995
-0.035319
-0.035842
-0.045139
-0.080771
-0.039827
-0.059834
-0.036304
-0.055242
-0.075364
-0.041336
-0.091721
-0.044047
-0.043333
-0.026782
-0.036253
-0.038967
-0.057775
-0.021833
-0.046075
-0.032451
-0.026141
-0.048590
-0.036732
-0.017922
-0.017970
-0.034864
-0.010903
0.023201
0.053236
0.034597
0.063997
0.056969
0.050733
0.071473
0.052373
0.053462
0.090783
0.042850
0.029205
0.036685
0.034241
0.058410
0.042552
0.032699
0.041009
0.051837
0.038844
0.045068
0.031369
0.030330
0.042760
0.053724