0.197998
0.153958
0.136216
0.168456
0.227012
-0.126037
-0.113194
-0.056154
-0.102477
-0.118840
-0.057342
-0.026393
-0.001656
-0.044590
-0.059245
0.035437
0.014442
0.010145
0.008522
-0.006154
0.093850
0.041832
-0.012962
0.051298
0.111136
0.123593
0.113848
0.085119
0.086024
0.095760
-0.196537
-0.169539
-0.124665
-0.171326
-0.176328
0.080674
0.063378
0.063390
0.093048
0.175232
0.031687
-0.022148
-0.033156
-0.010546
-0.065791
-0.120799
-0.124657
-0.113531
-0.142119
-0.168824
0.019248
0.007994
-0.012030
-0.005948
0.006125
-0.216783
-0.194691
-0.178448
-0.206847
-0.256835
0.030376
0.063486
0.033527
0.026866
0.059477
0.068020
0.011223
-0.001540
0.024040
0.014710
-0.180455
-0.155984
-0.143075
-0.147357
-0.162376
0.131619
0.089730
0.087834
0.067084
0.096290
-0.149675
-0.057055
0.003671
-0.067935
-0.150694
-0.075533
-0.013274
0.072386
0.031496
-0.011669
0.096555
0.046528
0.051515
0.109377
0.141580
0.106652
0.059122
0.024956
0.086874
0.109137
0.000037
-0.019666
-0.067207
-0.067542
-0.007104
0.031813
0.017730
-0.025438
0.011300
0.008555
-0.054498
-0.038864
-0.013213
-0.033270
-0.057851
-0.139836
-0.109490
-0.123635
-0.121819
-0.099792
0.194771
0.181800
0.163248
0.180519
0.196372
-0.076532
-0.047788
-0.070083
-0.063021
-0.092348
-0.079934
-0.026141
-0.055818
0.003688
-0.052860
0.129587
0.098208
0.013297
0.086307
0.117832
-0.068737
-0.055096
-0.066095
-0.047072
-0.061587
-0.261448
-0.246188
-0.234448
-0.258290
-0.229797
-0.108960
-0.095566
-0.099985
-0.077356
-0.049887
-0.069287
-0.073213
-0.070514
-0.031627
0.023299
-0.086423
-0.114855
-0.104337
-0.103458
-0.097621
-0.022706
-0.056932
-0.092437
-0.110891
-0.097978
-0.106510
-0.087870
-0.088898
-0.101914
-0.110401
-0.178022
-0.142491
-0.146702
-0.158299
-0.189069
0.014480
0.024112
-0.047894
0.006071
0.005090
0.058182
0.038415
-0.081635
0.024229
0.049111
-0.034417
-0.044926
-0.088937
-0.033815
-0.034197
-0.131518
-0.115781
-0.146375
-0.093738
-0.127945
-0.002633
0.015599
-0.042360
0.034116
0.036071
-0.104495
-0.091617
-0.108206
-0.063081
-0.065648
-0.141285
-0.087012
-0.115242
-0.108347
-0.150879
-0.081563
-0.049832
-0.126740
-0.068372
-0.098514
0.072829
0.036929
-0.011154
0.042692
0.062765
-0.151581
-0.128458
-0.100378
-0.128108
-0.143452
-0.013664
-0.033235
-0.058965
-0.085145
-0.077599
0.151673
0.062694
-0.039798
0.045456
0.101245
0.057994
0.074653
0.057001
0.092929
0.095735
-0.094876
-0.012885
0.043968
0.013092
-0.046729
0.037741
0.011140
0.040924
0.061363
0.064800
0.048317
0.054307
0.076959
0.063703
0.030032
0.085519
0.071214
0.111648
0.081075
0.108008
0.091940
0.056817
0.086666
0.073438
0.112848
0.047772
0.061275
0.091793
0.076517
0.079952
-0.035622
-0.030167
-0.101011
-0.048446
-0.047199
-0.016810
-0.045618
-0.057908
-0.053602
-0.072740
-0.147380
-0.093144
-0.071344
-0.124417
-0.161515
-0.126077
-0.070054
-0.092195
-0.053465
-0.061083
-0.070454
-0.070443
-0.081424
-0.065812
-0.032359
-0.123421
-0.159488
-0.162396
-0.165176
-0.151770
-0.097363
-0.088321
-0.079673
-0.078616
-0.101188
-0.007689
0.024123
-0.005999
-0.002315
0.000663
-0.029784
-0.012572
-0.038725
-0.035057
-0.061688
-0.086890
-0.078066
-0.074944
-0.080632
-0.136676
-0.021913
0.011590
0.002535
-0.007831
-0.016170
0.081428
0.030467
0.038479
0.032016
-0.001048
0.130241
0.136694
0.119852
0.136497
0.141389
0.031115
0.017183
0.039947
0.041182
0.055598
0.073456
0.089668
0.042343
0.054614
0.072245
0.081353
0.068042
0.071237
0.057261
0.048817
-0.145570
-0.126854
-0.107043
-0.146264
-0.153033
-0.061246
-0.070892
-0.092649
-0.077260
-0.066934
-0.053232
-0.070458
-0.095809
-0.041830
-0.060019
-0.237473
-0.179373
-0.148498
-0.161113
-0.208172
-0.011304
0.003511
0.001489
-0.031431
-0.067784
0.158132
0.091479
0.027242
0.020500
-0.008730
0.127497
0.104882
0.040754
0.162874
0.198681
-0.136194
-0.107388
-0.097352
-0.051070
-0.025924
0.055362
0.044873
-0.016393
-0.014615
-0.019647