0.024483
0.027561
0.014178
0.033216
0.026664
-0.052547
-0.020909
-0.053067
-0.070241
-0.049148
-0.097110
-0.075329
-0.107352
-0.069368
-0.108044
-0.027541
-0.018896
-0.064447
-0.047245
-0.054762
0.050093
0.040233
0.046132
0.024577
0.045183
0.208153
0.171224
0.129823
0.133380
0.196908
-0.076590
-0.108727
-0.131063
-0.090769
-0.034853
-0.139543
-0.200308
-0.139400
0.036860
0.037655
-0.102080
-0.100260
-0.127798
-0.060807
-0.149833
0.208692
0.126330
0.149976
0.144191
0.129468
0.011260
0.009585
-0.001076
0.021928
-0.041839
0.086818
-0.027397
0.149010
0.074183
0.061107
0.345240
0.014782
-0.079347
0.150931
0.956063
0.069788
0.149566
0.048858
-0.006648
0.008173
-0.043207
-0.044767
-0.027367
0.080974
-0.091433
0.018937
0.014758
0.034290
0.034384
0.032259
0.058257
0.041921
0.057888
0.021082
0.024341
0.011150
-0.013626
0.009727
0.007281
-0.026407
0.061475
0.063306
0.036178
0.061173
0.067894
0.078085
0.076082
0.086350
0.071184
0.090177
0.168243
0.123489
0.100559
0.132926
0.154814
0.181064
0.128726
0.119132
0.086550
0.074057
-0.292836
-0.284484
-0.301677
-0.255147
-0.282787
-0.066110
-0.029113
-0.063960
-0.014248
-0.029649
0.292020
0.224330
0.181609
0.262278
0.267766
-0.037902
-0.018151
-0.050132
-0.021705
-0.031773
-0.032312
-0.028196
-0.070580
-0.033426
-0.082585
-0.064355
-0.019413
-0.083081
-0.067281
-0.089012
-0.022409
-0.035394
-0.065565
-0.079909
-0.045952
-0.047795
-0.023149
-0.026769
-0.050718
-0.054380
-0.018783
0.007963
-0.009525
-0.001467
0.010392
-0.020992
-0.014116
-0.000463
-0.032493
0.014856
-0.009620
-0.011283
0.000439
-0.023308
0.035646
-0.020454
-0.025880
-0.007387
-0.001241
-0.018738
-0.019128
-0.005192
0.008422
0.005507
-0.006647
-0.011831
-0.094728
-0.073319
-0.018090
-0.063415
-0.260555
-0.185456
-0.113208
-0.140552
-0.208751
-0.291854
-0.131945
-0.180142
-0.280357
-0.475837
-0.187877
-0.176331
-0.165810
-0.173412
-0.136038
-0.021493
-0.044282
-0.070824
-0.082034
-0.008447